FANN_FLO_2.1
num_layers=3
learning_rate=0.010000
connection_rate=1.000000
network_type=0
learning_momentum=0.000000
training_algorithm=0
train_error_function=0
train_stop_function=0
cascade_output_change_fraction=0.010000
quickprop_decay=-0.000100
quickprop_mu=1.750000
rprop_increase_factor=1.200000
rprop_decrease_factor=0.500000
rprop_delta_min=0.000000
rprop_delta_max=50.000000
rprop_delta_zero=0.100000
cascade_output_stagnation_epochs=12
cascade_candidate_change_fraction=0.010000
cascade_candidate_stagnation_epochs=12
cascade_max_out_epochs=150
cascade_min_out_epochs=50
cascade_max_cand_epochs=150
cascade_min_cand_epochs=50
cascade_num_candidate_groups=2
bit_fail_limit=3.49999999999999980000e-001
cascade_candidate_limit=1.00000000000000000000e+003
cascade_weight_multiplier=4.00000000000000020000e-001
cascade_activation_functions_count=10
cascade_activation_functions=3 5 7 8 10 11 14 15 16 17 
cascade_activation_steepnesses_count=4
cascade_activation_steepnesses=2.50000000000000000000e-001 5.00000000000000000000e-001 7.50000000000000000000e-001 1.00000000000000000000e+000 
layer_sizes=34 21 2 
scale_included=0
neurons (num_inputs, activation_function, activation_steepness)=(0, 0, 0.00000000000000000000e+000) (0, 0, 0.00000000000000000000e+000) (0, 0, 0.00000000000000000000e+000) (0, 0, 0.00000000000000000000e+000) (0, 0, 0.00000000000000000000e+000) (0, 0, 0.00000000000000000000e+000) (0, 0, 0.00000000000000000000e+000) (0, 0, 0.00000000000000000000e+000) (0, 0, 0.00000000000000000000e+000) (0, 0, 0.00000000000000000000e+000) (0, 0, 0.00000000000000000000e+000) (0, 0, 0.00000000000000000000e+000) (0, 0, 0.00000000000000000000e+000) (0, 0, 0.00000000000000000000e+000) (0, 0, 0.00000000000000000000e+000) (0, 0, 0.00000000000000000000e+000) (0, 0, 0.00000000000000000000e+000) (0, 0, 0.00000000000000000000e+000) (0, 0, 0.00000000000000000000e+000) (0, 0, 0.00000000000000000000e+000) (0, 0, 0.00000000000000000000e+000) (0, 0, 0.00000000000000000000e+000) (0, 0, 0.00000000000000000000e+000) (0, 0, 0.00000000000000000000e+000) (0, 0, 0.00000000000000000000e+000) (0, 0, 0.00000000000000000000e+000) (0, 0, 0.00000000000000000000e+000) (0, 0, 0.00000000000000000000e+000) (0, 0, 0.00000000000000000000e+000) (0, 0, 0.00000000000000000000e+000) (0, 0, 0.00000000000000000000e+000) (0, 0, 0.00000000000000000000e+000) (0, 0, 0.00000000000000000000e+000) (0, 0, 0.00000000000000000000e+000) (34, 4, 5.00000000000000000000e-001) (34, 4, 5.00000000000000000000e-001) (34, 4, 5.00000000000000000000e-001) (34, 4, 5.00000000000000000000e-001) (34, 4, 5.00000000000000000000e-001) (34, 4, 5.00000000000000000000e-001) (34, 4, 5.00000000000000000000e-001) (34, 4, 5.00000000000000000000e-001) (34, 4, 5.00000000000000000000e-001) (34, 4, 5.00000000000000000000e-001) (34, 4, 5.00000000000000000000e-001) (34, 4, 5.00000000000000000000e-001) (34, 4, 5.00000000000000000000e-001) (34, 4, 5.00000000000000000000e-001) (34, 4, 5.00000000000000000000e-001) (34, 4, 5.00000000000000000000e-001) (34, 4, 5.00000000000000000000e-001) (34, 4, 5.00000000000000000000e-001) (34, 4, 5.00000000000000000000e-001) (34, 4, 5.00000000000000000000e-001) (0, 0, 0.00000000000000000000e+000) (21, 3, 5.00000000000000000000e-001) (0, 3, 0.00000000000000000000e+000) 
connections (connected_to_neuron, weight)=(0, 2.04887795319490500000e-001) (1, -3.82340265187306740000e-001) (2, 3.44745305510434030000e-001) (3, 3.37249770330300680000e-001) (4, 7.66629259783379480000e-001) (5, -9.67919102075919940000e-002) (6, 2.51305074715828860000e-001) (7, 1.14143667552204870000e-001) (8, -1.58833697497750420000e-001) (9, 2.13133161405879010000e-001) (10, 4.00653486346182810000e-001) (11, -4.44744866300808340000e-001) (12, 1.51933798792785120000e-001) (13, 4.51297232508562350000e-001) (14, 5.50624888550493410000e-001) (15, 1.00489915504165210000e-001) (16, -3.39370113802911140000e-002) (17, -1.07196083967038000000e-001) (18, -1.88529484106560950000e-001) (19, -6.43052034138322680000e-001) (20, -4.87888089881038270000e-001) (21, -2.97008634178604960000e-001) (22, 5.58221645290075470000e-002) (23, -2.02432446831755870000e-001) (24, -3.69143627451494760000e-001) (25, 2.08588112718878530000e-001) (26, 1.91194562261238630000e-001) (27, -2.55447216644069440000e-001) (28, -1.18923156936946260000e-001) (29, -3.08828622831318620000e-001) (30, 5.17543829666491750000e-003) (31, -9.51443039888244390000e-002) (32, -1.60777112615150760000e-001) (33, 2.07545246271148070000e-001) (0, 1.52255037691704100000e+000) (1, 3.21875893556757830000e+000) (2, 4.68509934099701540000e-001) (3, -1.47194941499918120000e+000) (4, -3.90415888808940070000e-001) (5, 1.00929792072451470000e+000) (6, 5.32571173604284520000e-001) (7, -3.19057524876550240000e+000) (8, -7.90573191474122080000e-001) (9, -3.62270899669252130000e-001) (10, 3.32668538460512850000e+000) (11, -2.24614016653607560000e+000) (12, 1.61005819186513310000e+000) (13, 2.00135834155069730000e+000) (14, 1.97679499810526820000e+000) (15, -1.10636420493826540000e+000) (16, 7.24759204713394060000e-001) (17, -4.33585990018074870000e+000) (18, 8.89223791379459950000e-001) (19, -3.75347142521860190000e+000) (20, -3.42388425973063230000e+000) (21, -2.98641432500361010000e+000) (22, 1.08828799317280400000e+000) (23, -1.37011211849693960000e+000) (24, 1.48129929071046250000e+000) (25, -1.27991280504088390000e+000) (26, -8.74997543304812280000e-001) (27, -3.50186780253841730000e+000) (28, 6.93864159665089630000e-001) (29, 2.23963308234684520000e-001) (30, -1.86550134430763240000e-001) (31, -2.25649281034912130000e+000) (32, 1.63922429504266960000e+000) (33, 8.89944850482243590000e-001) (0, 3.24707473393959180000e+000) (1, -1.04687540444058040000e+000) (2, 2.45884335249634210000e-001) (3, -7.29056681636794820000e-001) (4, -3.17796863074568760000e+000) (5, 2.05762621978209200000e+000) (6, -3.73205898548096720000e-001) (7, -1.62394761091656290000e+000) (8, -5.28206253678242190000e-002) (9, -2.48881209216814760000e+000) (10, 1.39260549538024650000e+000) (11, 1.43833854605330490000e+000) (12, -2.52754643089391800000e+000) (13, -7.63514424671798860000e-001) (14, 4.18647768756012950000e-001) (15, -4.84297122459858560000e-001) (16, 6.01187262944107400000e-001) (17, 1.37391730801206900000e+000) (18, 2.47616421870322380000e+000) (19, -2.08835625239888280000e+000) (20, 6.52333852393579990000e-001) (21, -4.69823949768958470000e+000) (22, 7.73179537171972190000e-001) (23, -1.41965800311479720000e+000) (24, 2.01867728627333290000e-001) (25, -2.57540205340130870000e+000) (26, -1.93739564460295080000e+000) (27, -2.53484297014475990000e+000) (28, 3.44248241618988320000e-001) (29, 1.75567415585938650000e+000) (30, -7.30372378214792390000e-001) (31, -1.89653890468999830000e+000) (32, -5.94412895077097710000e-001) (33, 2.32473102957827750000e+000) (0, -2.31592852395573970000e+000) (1, 2.08057257481932070000e+000) (2, 1.02361820004642910000e+000) (3, -9.57184325907747130000e-002) (4, -4.74950380664116520000e+000) (5, -2.72996993308286710000e+000) (6, 3.27655093739299820000e+000) (7, 2.18750768145421450000e+000) (8, -2.66669709719962400000e+000) (9, -7.50127047532784810000e+000) (10, -2.18920924870840810000e+000) (11, 4.99791529676583490000e+000) (12, 6.14490591391891470000e-002) (13, -1.18096406338549790000e+000) (14, 2.76282276350338310000e+000) (15, 4.87982337334081070000e+000) (16, -1.06221085825654820000e+000) (17, -6.76270997636005870000e+000) (18, -1.06816527334889510000e+000) (19, -3.80119175333171990000e+000) (20, -6.41112907440229200000e-001) (21, 1.10897381288572540000e+000) (22, 4.07422418106721370000e+000) (23, 1.43223685818769830000e+000) (24, 5.30844461366980380000e-001) (25, -4.75122730259178820000e+000) (26, -1.79355134326110720000e+000) (27, 3.80708349113555670000e-001) (28, 3.96477022122211360000e+000) (29, -3.45376419229349230000e+000) (30, 4.64123995017376420000e+000) (31, 4.50521594175411620000e+000) (32, -3.23816661703199390000e-001) (33, -2.49384820978714710000e+000) (0, -3.28437684558961380000e-001) (1, 1.59044051546246830000e+000) (2, -9.50999244560948980000e-001) (3, -2.39904289642820380000e+000) (4, -1.77621483082084960000e+000) (5, 1.68973768209829170000e+000) (6, -1.43093999309870630000e+000) (7, -2.30837650930616700000e+000) (8, 1.56741616200073100000e+000) (9, 8.14615262782040440000e-001) (10, 4.10926535254338090000e-001) (11, -1.02501842842782280000e+000) (12, -1.73400581560000290000e+000) (13, 4.61342158557444590000e-001) (14, -1.15977483586240070000e+000) (15, -2.03155179047995650000e+000) (16, 1.73100035548324250000e+000) (17, 2.51476083888563070000e-001) (18, -1.60396717704657550000e-001) (19, -1.85989227663020350000e+000) (20, 1.05811146569780770000e+000) (21, 1.25989675222079630000e-002) (22, -7.97172924763990260000e-001) (23, -1.10000006493635790000e+000) (24, 1.53138445917327100000e+000) (25, -1.29649541009641880000e+000) (26, -1.22448336820058290000e+000) (27, -1.70313422536835370000e+000) (28, -5.40357311577709390000e-001) (29, 2.69866346149504290000e+000) (30, -4.73018286398049940000e-001) (31, -1.62500715492283710000e+000) (32, 1.39066368316638170000e+000) (33, 4.66684094469792030000e-001) (0, 2.51596543576691900000e+000) (1, 6.69894955157642260000e+000) (2, -2.29784058646588950000e+000) (3, -1.29134710724976510000e+000) (4, -4.34014932060242940000e-001) (5, 4.41275378661381450000e+000) (6, -1.53128323943442380000e+000) (7, -3.42320711788174580000e+000) (8, -1.91251747757537820000e+000) (9, 8.37259239653298070000e-001) (10, 3.49988643807333230000e+000) (11, -2.88894124452912360000e+000) (12, -3.40479576588715370000e+000) (13, 4.55336399837208370000e+000) (14, 1.30011184768847740000e+000) (15, -6.53800620510939460000e-001) (16, 1.01976380703947320000e+000) (17, -1.85107692441725070000e+000) (18, -3.20306741442920650000e-001) (19, -1.13806024035490630000e+000) (20, 1.60031163472419040000e+000) (21, -2.52859051214936640000e+000) (22, -8.47390634073996730000e-001) (23, -1.47822706445444110000e+000) (24, 2.37880228216273940000e-001) (25, -1.95154533941703570000e+000) (26, -1.67476071755838740000e+000) (27, -3.55833365551295300000e+000) (28, 8.34974650844017450000e-001) (29, -2.24705166408175870000e-001) (30, -2.45276858444053270000e+000) (31, -2.94362602998074370000e+000) (32, 9.78024121113365450000e-001) (33, 8.46857237905644380000e-001) (0, -1.72348981650557500000e+000) (1, 1.67663672958991250000e+000) (2, 5.65197685125351730000e-001) (3, 2.74781093022917030000e-001) (4, 1.53871842941323830000e+000) (5, 1.68654561762450020000e+000) (6, 4.05177368090446580000e-001) (7, -6.40045800997390060000e-001) (8, 2.41000525561617170000e+000) (9, 8.74723312471450850000e-001) (10, -1.38681912068909610000e+000) (11, -1.84921098915806730000e+000) (12, 3.51902333711206770000e-001) (13, 9.44815151931289730000e-001) (14, -3.87723400287443680000e-001) (15, -2.14889358382665960000e+000) (16, 9.13899359083714220000e-001) (17, 3.63009989279236930000e+000) (18, -9.72791392932871980000e-001) (19, -3.01040364182476480000e-001) (20, 1.41001777683477280000e+000) (21, 1.89605575232345000000e+000) (22, 5.93561305533996110000e-002) (23, -3.10879142188771940000e-001) (24, 1.33471535389700910000e+000) (25, 7.37699085931810990000e-001) (26, -4.27839203893774610000e-001) (27, 6.29703607972712300000e-001) (28, -1.06683047350990170000e+000) (29, 5.95125376905255800000e-001) (30, -4.39812632876601050000e-001) (31, -1.54369875298926140000e+000) (32, 1.39009905878497820000e+000) (33, -1.74676842777339330000e+000) (0, 2.62092700310893600000e-001) (1, -5.48078006659883820000e-001) (2, 3.20601094465072680000e-001) (3, 2.07238607926711000000e-001) (4, 5.51576176255688560000e-001) (5, -2.73361718252168150000e-001) (6, 3.53938392013389390000e-001) (7, -8.18459567366221080000e-002) (8, -6.28280972638885080000e-002) (9, 3.14988330309361300000e-001) (10, 3.34804246435174590000e-001) (11, -5.32372831412753270000e-001) (12, 3.04880030917193370000e-002) (13, 4.38293067458559000000e-001) (14, 4.63346473310092820000e-001) (15, -7.99749529969669280000e-002) (16, -3.18694122505419690000e-002) (17, -2.29700348932685730000e-001) (18, -1.59997387577234830000e-001) (19, -6.46221410645768100000e-001) (20, -7.27013782799475820000e-001) (21, -3.95906821331704460000e-001) (22, -6.48590872799392900000e-002) (23, -2.35233005914198850000e-001) (24, -2.69512044321669470000e-001) (25, 2.41786257380139150000e-001) (26, 2.47970980551649900000e-001) (27, -2.58643039921240160000e-001) (28, -1.52310979141680010000e-001) (29, -4.15855673173421920000e-001) (30, -2.02169652936945140000e-003) (31, -3.11028811046488660000e-001) (32, -7.02679734733499540000e-002) (33, -6.50079822028797880000e-002) (0, -2.37902232650371160000e+000) (1, -1.81180989071823980000e+000) (2, 3.67053791149301340000e+000) (3, 2.90778381677766800000e+000) (4, -4.10672701972044090000e-001) (5, -7.75868179398346850000e+000) (6, -2.77576468854138560000e-001) (7, -1.77344940128131250000e+000) (8, -5.88210088552754580000e-001) (9, 6.22624736914030310000e-001) (10, 6.51339568350538740000e-001) (11, 1.35790212250634700000e+000) (12, 2.31028742526513530000e+000) (13, -9.65208276680090900000e-001) (14, -8.89916367362219460000e-001) (15, -3.73523268696905890000e+000) (16, -2.94256496034021490000e+000) (17, -3.77573438349095070000e-001) (18, -1.72125448780423860000e+000) (19, 2.87948347939109570000e+000) (20, -1.44227934301164760000e+000) (21, -2.44512918988926440000e+000) (22, -7.07904039124174880000e-001) (23, -2.27013887071988620000e+000) (24, -2.58614181387589070000e+000) (25, 4.37906655077600780000e+000) (26, 1.99502025083110320000e+000) (27, 6.06393520449236250000e+000) (28, 2.28703821212749370000e+000) (29, 2.04668152531846070000e+000) (30, 1.56462186470508270000e+000) (31, -1.16221873473674810000e+000) (32, -5.62070379692773960000e-001) (33, 3.76702604808666460000e-001) (0, -1.56260818732817800000e-001) (1, 3.44049286400869960000e-001) (2, -3.02288682381553990000e-001) (3, -4.06012003686563090000e-001) (4, -1.87915105852579810000e-001) (5, -1.23177937779975780000e-001) (6, -3.25249411600438690000e-001) (7, -6.62127768725129460000e-001) (8, 1.19064885614214480000e-001) (9, -1.19172242835367680000e-001) (10, 2.37984205122371890000e-003) (11, -5.50473109867605110000e-001) (12, -7.41542184338340630000e-001) (13, -5.70925046776401960000e-002) (14, -2.98721346591038160000e-001) (15, -7.90094916616052910000e-001) (16, 1.88782417754750880000e-001) (17, -3.16871852386642060000e-001) (18, -5.23796932643264550000e-002) (19, -2.88102055452794160000e-001) (20, -5.75062249944831570000e-002) (21, -2.05794548845313900000e-001) (22, -6.44556977925160310000e-002) (23, -4.61274525601826190000e-001) (24, 2.63048804337029150000e-001) (25, -2.44221073895046280000e-002) (26, 1.60664565621147280000e-001) (27, -3.04931083880323420000e-001) (28, -1.87053938757542890000e-001) (29, 4.50776014624258150000e-001) (30, -7.98000354408673340000e-002) (31, -4.75942647999980320000e-001) (32, 3.31925333558293230000e-001) (33, -2.01466155418752930000e-001) (0, 2.83077518427485100000e+000) (1, -6.39064276114933880000e+000) (2, 1.12550954635223020000e+000) (3, 2.14757178023302630000e+000) (4, 2.43976996868499320000e+000) (5, -1.38893495977684520000e+000) (6, -1.24017791941706230000e-001) (7, -8.22580961363243320000e-001) (8, 2.82225848743263750000e+000) (9, 2.61090667415766920000e+000) (10, 6.88410686194644520000e-001) (11, -2.88750064355529410000e+000) (12, -4.62193203574899400000e-001) (13, 6.40009450663181050000e+000) (14, -5.23640876015923460000e-001) (15, -4.37414121178093840000e+000) (16, 3.40586520364725090000e-001) (17, 6.87885951088714710000e+000) (18, 1.91304990454247580000e+000) (19, -2.74603722321727470000e+000) (20, -1.15822588909587590000e-001) (21, 1.30438851787542400000e+000) (22, -2.18468561683762690000e-001) (23, -1.14724000957871590000e+000) (24, 1.90786385507306890000e-001) (25, -1.70277558288175210000e+000) (26, 2.89936887744699990000e+000) (27, -2.77451256257141980000e+000) (28, -4.29181697187990710000e+000) (29, -7.65312253839988240000e-001) (30, 2.20851895998786070000e-001) (31, -3.25804270207075630000e+000) (32, 1.07155017322325150000e+000) (33, -1.02418467020079330000e+000) (0, 4.74854342315904200000e-002) (1, 7.48285835457092260000e-001) (2, -9.58598655552349910000e-001) (3, -1.04396246462363010000e+000) (4, -6.51284685757047790000e-001) (5, 4.40364487918379570000e-001) (6, -7.08421658836663640000e-001) (7, -1.31711209136137120000e+000) (8, 3.70712275681742860000e-001) (9, -1.89267481381062470000e-001) (10, 2.68019998615811740000e-002) (11, -9.68411755177419840000e-001) (12, -1.08328225975920840000e+000) (13, 1.70871310659506310000e-001) (14, -4.38103955795719260000e-001) (15, -1.05039994826160800000e+000) (16, 7.41207369893034480000e-001) (17, -3.64288069924508740000e-001) (18, 1.28488452610016180000e-001) (19, -9.04669974938571490000e-001) (20, 1.21051349099768540000e-001) (21, 2.84064481484423650000e-001) (22, 6.54620552510322700000e-002) (23, -4.69913680788988260000e-001) (24, 1.05928054143457360000e+000) (25, -6.56209772442863380000e-001) (26, -6.62982190088138520000e-001) (27, -7.72237174532256820000e-001) (28, -2.15673208136264340000e-001) (29, 9.32414067319173760000e-001) (30, -4.55410443940187980000e-001) (31, -9.27779366127558400000e-001) (32, 6.06481604998613370000e-001) (33, -2.13760919193252520000e-001) (0, -2.36497571209462960000e-001) (1, -2.05048414253509970000e+000) (2, 3.49481313350148290000e+000) (3, -7.97548739483045610000e-001) (4, 6.47641933987863070000e-001) (5, 5.07735776621689670000e-001) (6, -2.97949520694754210000e-002) (7, 2.44708828323593780000e-001) (8, -1.32922413549865160000e+000) (9, 3.31922003175785150000e+000) (10, 2.97474663747325340000e+000) (11, -2.93748374136473030000e+000) (12, -1.93765235958069580000e-001) (13, 2.75495598653297510000e+000) (14, -3.95939615878197590000e-001) (15, -6.49782967083414430000e-001) (16, -1.34086621223232720000e+000) (17, 1.26029377106845810000e+000) (18, 5.70675004225933980000e-001) (19, -6.44813768041225010000e+000) (20, -2.93885324841229820000e+000) (21, 9.66980258643989730000e-001) (22, -5.01723742287214610000e-001) (23, 7.74037482624282180000e-001) (24, -1.19489123433300270000e-001) (25, 7.92434213349964690000e-002) (26, 1.31596275491369810000e+000) (27, -8.90236572036695260000e-001) (28, -5.41705702853158110000e-001) (29, 4.42570750167003650000e-001) (30, -1.59860179079070840000e+000) (31, -2.35597513964552720000e-001) (32, 5.21483185537409240000e-001) (33, 7.96261758237664870000e-001) (0, 2.35687725141612960000e+000) (1, 2.63222324418959900000e+000) (2, 6.23887669303393340000e-001) (3, 1.79506435728040810000e+000) (4, 3.80907910364152950000e-001) (5, 2.80127727532222440000e+000) (6, -2.93926030440312490000e+000) (7, -1.15074558379722620000e-001) (8, 2.31238931849912580000e+000) (9, -1.16119710782218720000e-001) (10, -1.06925253213672320000e+000) (11, 5.45769912088598710000e-001) (12, -1.46064398250191460000e+000) (13, 1.34299839907442650000e+000) (14, -3.09720928456191880000e+000) (15, -7.91416911599954640000e-001) (16, 8.56674366886708170000e-001) (17, 2.34884760553235950000e+000) (18, 5.43813845349412910000e-001) (19, -1.02297100044268290000e+000) (20, 1.82017574692956520000e+000) (21, -3.81216533520642820000e+000) (22, -3.10967964664815670000e+000) (23, -1.36194146542996020000e+000) (24, -7.92981375824155730000e-001) (25, -1.28781747726303020000e+000) (26, -5.24867107550574740000e-002) (27, -1.92047576636857140000e+000) (28, 6.23406879980944790000e-001) (29, -1.06969726373816120000e+000) (30, -1.53524304194536510000e+000) (31, 4.18886184704000630000e-001) (32, 1.19257567671332730000e+000) (33, 1.62184343811905030000e+000) (0, -9.49731727182054480000e-002) (1, 7.22246971482768510000e-001) (2, -1.38659776226658260000e-001) (3, -8.79650432332052530000e-001) (4, -6.14741451466226390000e-001) (5, 3.13545205916806670000e-002) (6, -5.68007513496558760000e-001) (7, -9.70445024941533170000e-001) (8, 4.47082244457761850000e-001) (9, 6.91221078113200550000e-002) (10, -8.40781484699858720000e-003) (11, -6.38691868713098130000e-001) (12, -9.14763019017677540000e-001) (13, 1.28563172984442000000e-001) (14, -7.46585426199202980000e-001) (15, -1.25720946811053810000e+000) (16, 2.42288381720957350000e-001) (17, -4.94812841210197580000e-001) (18, -1.32893428823558810000e-001) (19, -3.43221214570308630000e-001) (20, 3.60736028511787150000e-001) (21, -2.70086325432906730000e-001) (22, -4.69324583118715440000e-001) (23, -4.92258174983722600000e-001) (24, 3.48565270905889350000e-001) (25, -2.77273653626455230000e-001) (26, 2.64298564229131950000e-001) (27, -3.15320894912531120000e-001) (28, -1.28684643588515700000e-001) (29, 1.08666722709744380000e+000) (30, -1.67991852231238140000e-001) (31, -5.50346810965837710000e-001) (32, 6.91814349143351270000e-001) (33, 6.61608757021768940000e-002) (0, -3.66957783220686010000e-001) (1, -2.06667028359740530000e+000) (2, -1.89032068920905710000e-001) (3, -3.46451797450958830000e-001) (4, -5.16263513266161820000e-001) (5, -1.85416372107690910000e+000) (6, -1.02214718318365260000e+000) (7, 3.52568697615613160000e-001) (8, 6.11959441642459410000e-001) (9, 1.73724818073763850000e+000) (10, 9.46297806153351460000e-001) (11, 1.75321538207822640000e+000) (12, 1.18415276024828460000e+000) (13, 8.55747665853189950000e-001) (14, -2.36743477365511710000e-001) (15, 6.04959773598569340000e-001) (16, 1.59722496441123860000e+000) (17, 2.48760788812416450000e-001) (18, -5.44217315985196400000e-001) (19, 6.05533188087311740000e-002) (20, 1.37276306438763120000e+000) (21, -1.59866308820811230000e+000) (22, -1.45363370432760000000e+000) (23, -3.89007671124761760000e-001) (24, 1.48118215143489310000e-002) (25, 5.65441361964053590000e-001) (26, 1.14903341410904950000e+000) (27, 1.42163964184497420000e-001) (28, 5.81341137015390700000e-001) (29, 5.05870631683152490000e-001) (30, -6.57415725700460580000e-001) (31, 2.91380249785212210000e-001) (32, 8.75288549806510720000e-001) (33, 1.92462166644525260000e-001) (0, -1.64538798228707650000e+000) (1, -1.30135304627907710000e-001) (2, 1.00206056357568730000e-001) (3, -4.67306313466484060000e-002) (4, 6.69914319913157420000e-001) (5, -8.38803415015110660000e-002) (6, 7.42641500306676780000e-002) (7, -2.54345233799204480000e-001) (8, 1.16583582063417520000e+000) (9, 1.17178166720400090000e+000) (10, -1.10926995761008770000e+000) (11, -8.58178840340620750000e-001) (12, 8.47901035698926250000e-002) (13, 3.30917824709917490000e-001) (14, -5.81433643290639960000e-001) (15, -1.37280163076456940000e+000) (16, 1.86919194029980000000e-001) (17, 1.64681001419372650000e+000) (18, -1.09303158234073280000e+000) (19, -6.82591488988251060000e-001) (20, 2.62083798949783230000e-001) (21, 8.72799587554173420000e-001) (22, -3.63256179097562800000e-001) (23, -2.55187747198586220000e-001) (24, 5.76551309207947170000e-001) (25, 1.44385325258562380000e+000) (26, 5.77696479801095840000e-001) (27, 7.54597429409502360000e-001) (28, -3.64331934535802200000e-001) (29, 1.51328554342296420000e+000) (30, 1.14935057772557030000e-001) (31, -2.78492104853269200000e-001) (32, 1.08326628784020020000e+000) (33, -1.11948521067439380000e+000) (0, 5.47945779292676810000e-002) (1, -2.43674693956744060000e+000) (2, 5.31303044568510740000e-001) (3, 7.75098780630922750000e-001) (4, 1.23084412016197530000e+000) (5, -4.24597091083894930000e-001) (6, 3.66593219697892770000e-001) (7, 5.43991221918554310000e-001) (8, 3.58791100466032550000e-002) (9, 4.30782332058702810000e-001) (10, 4.38835785506977990000e-001) (11, -2.62787046458209270000e-001) (12, 6.98654626249583080000e-001) (13, -2.34268129937976590000e-003) (14, 5.69263931083836550000e-001) (15, 3.39879024490306940000e-001) (16, 2.76563167585223090000e-001) (17, 4.66683706282349720000e-002) (18, -1.00411080159003350000e+000) (19, -2.80050076238559600000e+000) (20, -1.84539785898092900000e+000) (21, -1.27278043335246350000e+000) (22, -5.01628582657369090000e-001) (23, -5.60759152656491900000e-001) (24, -6.70769815289190550000e-001) (25, 6.50702361329339230000e-001) (26, 7.18502740025422580000e-001) (27, -6.65399425788329340000e-001) (28, -1.23080729853882980000e-002) (29, -1.30198896302159040000e+000) (30, 1.55814540702900490000e-001) (31, 5.48528570205954750000e-002) (32, 5.66944543849792200000e-001) (33, -2.77525228882314460000e-001) (0, 5.32735078507131710000e-002) (1, 1.16973049129112930000e+000) (2, 1.44899303117405780000e+000) (3, 3.57330869133431870000e-001) (4, 9.21510897194898650000e-001) (5, -3.53865021060701170000e-001) (6, 1.53183245806240680000e-001) (7, -1.28584942487657480000e+000) (8, -2.86086068538259850000e-001) (9, -6.74343605084437800000e-001) (10, -1.42159298171893160000e-001) (11, -1.10375990285037620000e+000) (12, -1.26277571833988600000e+000) (13, -3.00664338591383140000e-001) (14, -8.28767724299896650000e-001) (15, -2.44955947103592300000e+000) (16, -1.59789770745409230000e+000) (17, -1.14660666842566750000e+000) (18, 1.11239829890948020000e-001) (19, 1.53889126338964070000e-001) (20, 9.28814451340643880000e-003) (21, -2.69065003805305130000e-001) (22, -1.50884801163846500000e-001) (23, -1.26130252300649430000e+000) (24, -8.56026137891486070000e-001) (25, 1.10658411543795920000e+000) (26, 4.60485797772632600000e-001) (27, 1.03232872543360690000e+000) (28, 2.08948323244815440000e-001) (29, 1.24748066489594160000e+000) (30, 1.89629488184844650000e-001) (31, -1.12252742732761490000e+000) (32, -6.96395343251197900000e-001) (33, -1.10576728941944770000e-001) (0, 5.50087631509244780000e-001) (1, 8.57237976805387600000e-001) (2, 1.85520703356733500000e+000) (3, -1.09871850132297260000e+000) (4, -4.08006981472663510000e-001) (5, 6.49032522144615990000e-003) (6, -5.23258525585076020000e-001) (7, -2.12471027576211830000e+000) (8, 1.12106196464166310000e+000) (9, -1.73494841670090930000e+000) (10, 1.64248459772473510000e+000) (11, -1.69971810564580590000e+000) (12, -1.60797821568343040000e+000) (13, -8.93866099262957570000e-001) (14, -1.00064027555854710000e+000) (15, -2.63456769825563650000e+000) (16, 4.97385169719684440000e-001) (17, -2.53474933525000570000e+000) (18, 1.13664165642471170000e+000) (19, -1.99441833868860940000e+000) (20, -1.84561505558190150000e+000) (21, -1.34250512482460780000e+000) (22, 2.39394215555188970000e-002) (23, -1.27998656541870930000e+000) (24, 9.06796814504650000000e-001) (25, 4.10516601114724530000e-002) (26, 4.42601185858691180000e-001) (27, -1.13892755884204290000e+000) (28, 1.05643942864982450000e-002) (29, 8.34899582078311160000e-001) (30, 9.97586535318079750000e-002) (31, -1.54288735339589710000e+000) (32, 6.27117647261312030000e-001) (33, 5.20405373301837450000e-001) (34, 2.36394727529793650000e+000) (35, -8.31267445102699830000e+000) (36, 1.08991860593338960000e+001) (37, 1.66762859167179260000e+001) (38, -6.64821669854831750000e+000) (39, -1.12236686769089080000e+001) (40, -6.19687784913023880000e+000) (41, 2.15577115753997230000e+000) (42, -1.32262667674601900000e+001) (43, -1.08394648584517860000e+000) (44, -1.09011184661628440000e+001) (45, -2.49861369356671800000e+000) (46, -7.22074652646999480000e+000) (47, 1.12663276492507090000e+001) (48, -2.41088754630330190000e+000) (49, 7.05483450053341700000e+000) (50, -2.91876761318240030000e+000) (51, 6.40964432053469670000e+000) (52, -3.56305121705406420000e+000) (53, -5.03274226961614790000e+000) (54, 8.38976620400439010000e+000) 
