FANN_FLO_2.1
num_layers=3
learning_rate=0.100000
connection_rate=1.000000
network_type=0
learning_momentum=0.000000
training_algorithm=0
train_error_function=0
train_stop_function=0
cascade_output_change_fraction=0.010000
quickprop_decay=-0.000100
quickprop_mu=1.750000
rprop_increase_factor=1.200000
rprop_decrease_factor=0.500000
rprop_delta_min=0.000000
rprop_delta_max=50.000000
rprop_delta_zero=0.100000
cascade_output_stagnation_epochs=12
cascade_candidate_change_fraction=0.010000
cascade_candidate_stagnation_epochs=12
cascade_max_out_epochs=150
cascade_min_out_epochs=50
cascade_max_cand_epochs=150
cascade_min_cand_epochs=50
cascade_num_candidate_groups=2
bit_fail_limit=3.49999999999999980000e-001
cascade_candidate_limit=1.00000000000000000000e+003
cascade_weight_multiplier=4.00000000000000020000e-001
cascade_activation_functions_count=10
cascade_activation_functions=3 5 7 8 10 11 14 15 16 17 
cascade_activation_steepnesses_count=4
cascade_activation_steepnesses=2.50000000000000000000e-001 5.00000000000000000000e-001 7.50000000000000000000e-001 1.00000000000000000000e+000 
layer_sizes=25 21 2 
scale_included=0
neurons (num_inputs, activation_function, activation_steepness)=(0, 0, 0.00000000000000000000e+000) (0, 0, 0.00000000000000000000e+000) (0, 0, 0.00000000000000000000e+000) (0, 0, 0.00000000000000000000e+000) (0, 0, 0.00000000000000000000e+000) (0, 0, 0.00000000000000000000e+000) (0, 0, 0.00000000000000000000e+000) (0, 0, 0.00000000000000000000e+000) (0, 0, 0.00000000000000000000e+000) (0, 0, 0.00000000000000000000e+000) (0, 0, 0.00000000000000000000e+000) (0, 0, 0.00000000000000000000e+000) (0, 0, 0.00000000000000000000e+000) (0, 0, 0.00000000000000000000e+000) (0, 0, 0.00000000000000000000e+000) (0, 0, 0.00000000000000000000e+000) (0, 0, 0.00000000000000000000e+000) (0, 0, 0.00000000000000000000e+000) (0, 0, 0.00000000000000000000e+000) (0, 0, 0.00000000000000000000e+000) (0, 0, 0.00000000000000000000e+000) (0, 0, 0.00000000000000000000e+000) (0, 0, 0.00000000000000000000e+000) (0, 0, 0.00000000000000000000e+000) (0, 0, 0.00000000000000000000e+000) (25, 4, 5.00000000000000000000e-001) (25, 4, 5.00000000000000000000e-001) (25, 4, 5.00000000000000000000e-001) (25, 4, 5.00000000000000000000e-001) (25, 4, 5.00000000000000000000e-001) (25, 4, 5.00000000000000000000e-001) (25, 4, 5.00000000000000000000e-001) (25, 4, 5.00000000000000000000e-001) (25, 4, 5.00000000000000000000e-001) (25, 4, 5.00000000000000000000e-001) (25, 4, 5.00000000000000000000e-001) (25, 4, 5.00000000000000000000e-001) (25, 4, 5.00000000000000000000e-001) (25, 4, 5.00000000000000000000e-001) (25, 4, 5.00000000000000000000e-001) (25, 4, 5.00000000000000000000e-001) (25, 4, 5.00000000000000000000e-001) (25, 4, 5.00000000000000000000e-001) (25, 4, 5.00000000000000000000e-001) (25, 4, 5.00000000000000000000e-001) (0, 0, 0.00000000000000000000e+000) (21, 3, 5.00000000000000000000e-001) (0, 3, 0.00000000000000000000e+000) 
connections (connected_to_neuron, weight)=(0, 7.78236366209456330000e+000) (1, 4.94801459842616080000e+000) (2, 2.44402799150215210000e+000) (3, -1.49691795420317470000e+000) (4, -7.70392602749371940000e-001) (5, 2.64144128166954450000e+000) (6, -2.85629681356101010000e+000) (7, 2.87173184045274300000e+000) (8, -5.33933162097606660000e-001) (9, 3.02801027797157700000e+000) (10, 6.13571672703100820000e+000) (11, 4.80723337736449090000e+000) (12, -7.40401814390781790000e+000) (13, -2.67253842695993620000e+000) (14, 2.80015976895410960000e+000) (15, 4.65541217430245700000e+000) (16, 1.97028380265362730000e+000) (17, -1.19501804342573800000e+001) (18, -7.48132833677906550000e+000) (19, 3.56886011600597320000e+000) (20, -3.00857700812872690000e+000) (21, 4.07795281817550140000e+000) (22, -5.24273747327284310000e+000) (23, -8.24105873356069200000e+000) (24, -3.54490986204728340000e+000) (0, 3.64370936161731150000e+000) (1, -3.29707169929191080000e-001) (2, 1.59104973780753080000e+000) (3, 3.32112327583540790000e+000) (4, 3.25964612554529910000e+000) (5, -2.60984904973148970000e+000) (6, -1.47770030556711430000e+000) (7, -1.42672274140088470000e+000) (8, -1.26068738518391100000e+001) (9, 2.04199974489430810000e+000) (10, 3.74954823300977940000e+000) (11, -3.29354280192358080000e+000) (12, -3.08994127833844350000e+000) (13, -2.63847567765609580000e+000) (14, 3.07335060629657520000e+000) (15, 5.93898742728727400000e+000) (16, -3.73414816144956680000e+000) (17, -4.09451308724334950000e+000) (18, -7.33782507280572460000e+000) (19, 2.67923409308459080000e+000) (20, 1.47973122011579330000e+000) (21, -1.71254578601071650000e+000) (22, -2.51395996620513570000e+000) (23, -3.48790627794763530000e+000) (24, -6.12792656674964050000e-002) (0, -4.47693781697390580000e+000) (1, 3.75975509867959670000e+000) (2, 1.76831331295596120000e+000) (3, -5.82864296188962610000e+000) (4, 1.08772840410526700000e+001) (5, -2.71007826529491960000e-001) (6, 2.59663762614754430000e+000) (7, 4.26809608193891330000e+000) (8, -2.54906262979058470000e+000) (9, 9.11987273728563360000e-001) (10, 1.24874580885991710000e+001) (11, -8.55881221818215640000e+000) (12, -2.15320551625140500000e+000) (13, 1.82978986874143760000e+000) (14, -3.32538725078015320000e+000) (15, -1.06832130856317900000e+001) (16, -5.64352714527557440000e+000) (17, -5.22806020695390280000e-001) (18, -7.74906516933330350000e-001) (19, -2.53858390656372460000e+000) (20, -2.00216382505935850000e+000) (21, -6.01742316487959970000e+000) (22, -3.52855775928387240000e+000) (23, 5.86971640773375290000e+000) (24, 5.74375821078560380000e+000) (0, -3.67740441088156040000e+000) (1, 9.81336243213343230000e-002) (2, 4.25359800535453920000e+000) (3, -3.05893006309098900000e+000) (4, 1.49996320724510430000e+000) (5, -2.00353843351363640000e+000) (6, -1.17161802241009690000e+000) (7, 4.88628409278691670000e+000) (8, 2.40307660313198780000e-001) (9, 2.66467160825084410000e+000) (10, -3.88180394977749230000e+000) (11, -2.56798041042337030000e+000) (12, -1.78503232351204820000e+000) (13, 4.87035800818299870000e+000) (14, -4.00477193712622410000e-001) (15, -6.72357210097846370000e+000) (16, -4.48649904044305710000e+000) (17, -2.24913310265484600000e+000) (18, 3.77818051687685360000e+000) (19, -1.99054874512876780000e+000) (20, -3.36952417088264020000e+000) (21, -3.35953350044069370000e+000) (22, -5.09033448333990800000e+000) (23, 1.96557137706751740000e+000) (24, 1.24559514113311680000e+000) (0, 1.67216514240932800000e+000) (1, -1.08150957164189790000e+000) (2, -2.22679737804019910000e+000) (3, 2.15014214982482520000e-001) (4, 1.15619878203467060000e+000) (5, -2.87868096865014630000e-001) (6, 1.37679274078898640000e+000) (7, -7.15220847216181400000e-001) (8, -1.42640954370235180000e+000) (9, -3.00817895850140400000e+000) (10, 1.72545675760087700000e-002) (11, -9.63137151668444710000e-001) (12, 8.36472719232242310000e-001) (13, 1.82911989573061810000e+000) (14, -2.06081546062155810000e+000) (15, -5.47736617746580200000e+000) (16, -2.66455043442399560000e+000) (17, -3.65716217635480290000e-001) (18, -1.79396377180813870000e+000) (19, -6.04643932335805600000e-001) (20, 6.33958011401057500000e+000) (21, -2.99461809504225050000e+000) (22, 3.87684494586972910000e-001) (23, 1.47721601710322450000e-001) (24, 2.55551197844869330000e+000) (0, -1.67127125660616600000e-001) (1, 9.12052035198930850000e-002) (2, -3.07489324351576170000e-001) (3, -3.88463864383509220000e-001) (4, -6.23391093923304150000e-002) (5, -3.86414281508892120000e-001) (6, -4.86366960865183610000e-001) (7, -1.09989839980161960000e-001) (8, -1.83450325720435880000e-001) (9, -1.86112993940332840000e-001) (10, 4.92129980703141510000e-002) (11, -1.96612975278238760000e-002) (12, -9.69247717899186180000e-001) (13, -2.55591380883420260000e-001) (14, -3.36280895552870440000e-001) (15, -1.68488582238915140000e-001) (16, -4.20331860263506580000e-002) (17, -7.26835311516493500000e-001) (18, -3.86666276463344120000e-001) (19, -1.40123826537078670000e-001) (20, -5.23654952187456500000e-001) (21, -3.30765806708086810000e-001) (22, -6.54879302681546040000e-001) (23, -3.23210408881525250000e-001) (24, -4.26913482116908050000e-001) (0, 5.70295722187554870000e+000) (1, -5.59394924935734040000e+000) (2, -1.53203545458592360000e+000) (3, 5.88871583527753280000e+000) (4, 3.78417242265335800000e+000) (5, -5.73399159338978940000e+000) (6, -6.09131528874143590000e+000) (7, 9.04853750208926670000e-001) (8, 5.31612694741879640000e+000) (9, -6.87414163587120370000e-001) (10, 1.44639532926319420000e+001) (11, -8.41995647314155100000e-001) (12, -5.25043507775345390000e+000) (13, 2.92831354267058690000e+000) (14, 4.93235742372972390000e+000) (15, 5.83246396529455690000e+000) (16, -1.41718230511509090000e+000) (17, 2.10600887488108100000e+000) (18, 2.56361960964315600000e+000) (19, 1.58820849452810280000e+000) (20, -7.12123234542154030000e+000) (21, -4.67297376979312510000e+000) (22, -4.85103017403762670000e+000) (23, -5.20305702743957890000e-002) (24, 2.58469103026802760000e-001) (0, -4.89616132829887980000e+000) (1, 2.40399027786412840000e+000) (2, 6.94307264904760580000e+000) (3, -1.29927921208116730000e+001) (4, 7.87841659828979070000e+000) (5, 1.15123458785314630000e+000) (6, -2.25519917354738730000e+000) (7, -1.14217808589787830000e+000) (8, 8.92394103785121120000e+000) (9, -2.59195259828780420000e+000) (10, -1.26756747348086910000e+001) (11, -2.82076487504693580000e+000) (12, -1.46610647837695880000e+000) (13, -5.82747391827872270000e+000) (14, -4.93088622710464900000e+000) (15, 6.54986000578346330000e+000) (16, -6.80091776984869250000e+000) (17, -8.29382747016043640000e-001) (18, 5.60230226446551780000e+000) (19, 1.03393455043865190000e+000) (20, 9.73452250497727610000e+000) (21, -3.47079367442739170000e+000) (22, 4.01416502286974720000e-002) (23, 3.80899588705258020000e+000) (24, 4.16244485112253940000e+000) (0, 1.58385368068688410000e+000) (1, -1.79717760242340430000e-001) (2, -2.41022437442201910000e+000) (3, -1.42555971432366200000e+000) (4, -7.38753100373219170000e-001) (5, -1.70401052532859330000e+000) (6, -3.08805547731830510000e+000) (7, -2.09892535521910300000e+000) (8, 6.75740774554486200000e-002) (9, 3.12800795825900920000e+000) (10, 1.57198748368018370000e+000) (11, -1.88856990638868100000e-001) (12, -2.33208192521249820000e+000) (13, -7.63853609838357480000e-001) (14, 5.75112992699030160000e-001) (15, 4.04677035359700510000e-001) (16, 2.37152536012734670000e+000) (17, -6.32507773224012040000e+000) (18, -3.10142378585070190000e+000) (19, -1.37329034847718790000e+000) (20, -8.56336282218234320000e+000) (21, 1.78925077524453640000e+000) (22, -4.80082421234538880000e+000) (23, -1.39769601184415990000e+000) (24, 3.77774682938253560000e-001) (0, 1.56471615591158700000e+000) (1, -6.26268207953569080000e+000) (2, 2.30962716062153510000e+000) (3, -1.05953500091121030000e+001) (4, 7.47260396380276500000e+000) (5, 8.38698669618794800000e-001) (6, -9.87247347136992910000e-001) (7, 4.30889221081760710000e+000) (8, 1.80730886897191500000e+000) (9, -2.30898498925505890000e+000) (10, -4.41124891850573520000e-001) (11, 5.38331842263173320000e-001) (12, -2.86265157789363520000e+000) (13, -1.32449345134658720000e-001) (14, 1.44226102101628980000e+000) (15, 1.33478948575396480000e+001) (16, -3.28907618663077580000e+000) (17, -6.22803045697471270000e+000) (18, -1.02233482961783450000e+000) (19, 1.74780170271293890000e-001) (20, -5.55092790600630080000e+000) (21, -2.81526321071244070000e+000) (22, -5.64773182625915560000e+000) (23, -4.02101171066597020000e+000) (24, 2.12334515951928630000e+000) (0, -2.22929967618369140000e+000) (1, 7.50084861370794980000e+000) (2, 2.04610145889842120000e+000) (3, 5.42370639776472640000e-002) (4, -7.28066629068976390000e+000) (5, -1.70933046990062400000e+000) (6, 1.44750732029106310000e+000) (7, -1.81609361640891230000e+000) (8, -2.53063030132659030000e+000) (9, -2.38265751643418740000e+000) (10, -9.98634509374377030000e-001) (11, -4.79816604719490590000e+000) (12, 1.45885033335884610000e+000) (13, -2.29833531244856590000e+000) (14, 2.41070279113513490000e+000) (15, -9.44874241758020440000e+000) (16, -6.80615872890220630000e-001) (17, -2.94686662645841580000e+000) (18, -2.51480556719475420000e+000) (19, 6.98688761617341660000e+000) (20, -2.62279596715517460000e+000) (21, -4.44432055709212070000e-001) (22, -3.09939592890316900000e+000) (23, -1.68634922095449840000e-001) (24, 3.05844372998878230000e+000) (0, -6.00142198444613490000e+000) (1, -6.05083308468684680000e+000) (2, 4.14574761984495410000e+000) (3, -1.31532375387706280000e+000) (4, 1.17000209384216160000e+001) (5, -3.96395649677232510000e+000) (6, -2.38915167473181400000e+000) (7, 2.48264944362600600000e+000) (8, -5.53562279232303920000e+000) (9, 1.50696511272616700000e+000) (10, 5.93674462384562320000e+000) (11, -3.15939756929370260000e-001) (12, 1.70725808098764790000e+000) (13, 2.86986453218035790000e-001) (14, 2.83598527911610660000e+000) (15, -1.07132698218368070000e+001) (16, -6.54241101756142650000e+000) (17, 1.58924748853382720000e+000) (18, -4.09158218877834300000e+000) (19, 5.87293366392034950000e+000) (20, -1.32244814698372290000e+001) (21, -4.35400931937237060000e-001) (22, -3.53899219259331940000e+000) (23, -8.17236658026935990000e+000) (24, 7.29537171490798110000e+000) (0, -3.34006657071068380000e+000) (1, 6.59159504327858150000e+000) (2, 3.27787980266148040000e+000) (3, 1.74200747269141190000e+000) (4, 4.94036960972131390000e+000) (5, -3.93906246162770390000e+000) (6, -2.35016390642730750000e-001) (7, 2.96595610083359060000e+000) (8, -5.73548922230376150000e+000) (9, -2.66883452338348870000e-001) (10, -2.53985487174676860000e+000) (11, -5.61362563131167840000e+000) (12, -2.97376805871656340000e+000) (13, -2.27137479286875610000e-001) (14, -1.20221138502178930000e+000) (15, -4.45090948881281090000e+000) (16, -9.58223414677094710000e+000) (17, -3.98664711881197810000e+000) (18, 1.95126573208438790000e-001) (19, 5.61734566157287500000e+000) (20, -1.11617009111147290000e+000) (21, -5.13389661117345760000e+000) (22, -4.76461795427832510000e+000) (23, 1.41099489174385680000e+000) (24, 1.87870606184665580000e+000) (0, -2.21959036962143230000e+000) (1, 4.83592496324445010000e-001) (2, -2.08169110886093640000e+000) (3, -2.36536658117078820000e+000) (4, -5.64009838086710120000e-001) (5, -1.37540775476873530000e+000) (6, -4.28103794292994520000e+000) (7, -3.63518803983777070000e+000) (8, -5.97427490347435360000e-001) (9, 5.78838801257974470000e+000) (10, 2.06101051785713810000e+000) (11, 1.68477162553276360000e+000) (12, -1.69188663448599620000e+000) (13, -2.67755515358157670000e-001) (14, 3.71273899005533180000e+000) (15, -6.23290317096388340000e+000) (16, 8.41868909565716450000e+000) (17, -5.78972310145206400000e+000) (18, -2.51980932888553780000e-001) (19, -2.56750736792155500000e+000) (20, -1.46227210596809880000e+001) (21, 4.78515231294740670000e+000) (22, -4.70058476269914220000e+000) (23, -1.19940254408036330000e+000) (24, 1.05769413858435950000e+000) (0, 3.35937964008858400000e+000) (1, -2.91379914987836970000e+000) (2, 4.98357735828106560000e+000) (3, -4.11996046673984220000e+000) (4, -6.23861818078212950000e+000) (5, -1.01572540292917310000e+000) (6, -6.29426842840846710000e-001) (7, 5.50766561774756620000e+000) (8, -2.75766669016485770000e+000) (9, 1.13154386497040350000e+000) (10, -4.05764081249936130000e-001) (11, -4.80164056356381510000e+000) (12, -2.96036683388163090000e+000) (13, -1.46242501869962730000e+000) (14, 7.49799778957478510000e-001) (15, -9.74225923851361200000e-001) (16, -2.67054722806715540000e+000) (17, -4.72393072795374720000e+000) (18, -2.69723668295655590000e+000) (19, 5.95970360031512580000e+000) (20, -1.12630419047065350000e+001) (21, 1.08739466740807210000e+000) (22, -6.47181064371854960000e-001) (23, -2.00197480207685970000e+000) (24, 4.51847464880279270000e-001) (0, 2.85130362838514340000e-001) (1, -4.52848667429134650000e-001) (2, -8.26371228064260000000e-001) (3, -1.07050071194907810000e+000) (4, -7.22440170820413010000e-001) (5, -5.22429806519042690000e-001) (6, -6.27502802100378790000e-001) (7, -6.95821717245965530000e-001) (8, 1.48581353642164990000e-001) (9, -5.09314449029472430000e-001) (10, -1.80808453125742290000e-001) (11, -2.11682701695946050000e-001) (12, -9.96874404454254570000e-001) (13, -9.66854786975796520000e-001) (14, 9.02383403179504990000e-002) (15, -6.09472678432400400000e-002) (16, 8.01237176797813030000e-001) (17, -5.73073903866552880000e-001) (18, -6.80486844721083120000e-001) (19, -1.75796942061896250000e-001) (20, -1.31605977832394890000e+000) (21, 6.43013646375569380000e-002) (22, -4.02511198316153560000e-001) (23, -6.60817003800551860000e-001) (24, -1.71844924872209540000e-001) (0, -1.61293954472255220000e-001) (1, 1.78808119909936590000e-001) (2, -6.22788932273785960000e-001) (3, -5.60165887685299070000e-001) (4, -1.01318940843638350000e-001) (5, -2.67838714967374660000e-001) (6, -8.32088424872429290000e-001) (7, -2.86653603275117350000e-001) (8, -3.26119741334518490000e-001) (9, -3.86733910071584750000e-001) (10, 1.14524578738308510000e-001) (11, -1.27972799222321850000e-001) (12, -1.06812103500759960000e+000) (13, -6.02306010629117710000e-001) (14, 3.88734447745012060000e-002) (15, -3.72432471089996220000e-001) (16, 1.80492173633927860000e-001) (17, -1.33398252776552790000e+000) (18, -7.87088646753294260000e-001) (19, 3.13370753090874920000e-001) (20, -1.61464432922755320000e+000) (21, 3.01544014076100210000e-001) (22, -1.05396508955800060000e+000) (23, -4.24276451360968810000e-001) (24, -1.03145499225894600000e-001) (0, 6.62778974626995860000e+000) (1, -5.58437226038842470000e+000) (2, 3.03251772148967320000e+000) (3, 1.29086843166693570000e+000) (4, 4.92173641678793350000e-001) (5, -2.49618425913504400000e+000) (6, -3.21947710168490310000e+000) (7, 4.51867605292692430000e+000) (8, 3.00665984329670000000e+000) (9, -1.78320220242933010000e+000) (10, -3.94525149074877920000e+000) (11, -2.33987020966558970000e+000) (12, -5.40169348799475020000e+000) (13, -2.78842038918847020000e+000) (14, 3.12254493256215460000e-001) (15, -2.92561902701975510000e+000) (16, -2.15823369938135380000e+000) (17, -4.55272748424351460000e+000) (18, -1.51954669689100340000e+000) (19, 6.61130584551681720000e+000) (20, 3.94623733415333120000e+000) (21, 2.71859294644586850000e+000) (22, -1.45274717678825400000e+000) (23, -1.79081329432543330000e+000) (24, 8.29457718984614840000e-001) (0, 5.54478679867860080000e+000) (1, -2.75150522156567230000e+000) (2, 3.35614429337853880000e+000) (3, -9.36186089240088570000e+000) (4, 9.90103538208117940000e+000) (5, -6.32332721552430410000e+000) (6, 8.31506666813926460000e+000) (7, 1.68611603323531600000e+000) (8, 6.27244786075487500000e+000) (9, -1.49624744549193060000e+000) (10, -3.93565710045155010000e+000) (11, -3.54028477467635440000e+000) (12, 8.21260056213043650000e+000) (13, -5.35029693120930890000e+000) (14, -4.00494553909078550000e+000) (15, 2.74088434508499650000e+000) (16, -3.76053887895311020000e+000) (17, 3.84415216008837570000e+000) (18, -7.31042126538305230000e+000) (19, -7.55404314962708320000e+000) (20, 1.07444972306765370000e+001) (21, -5.21158724707552690000e+000) (22, 6.53568932637289460000e+000) (23, 3.37753613579121260000e+000) (24, -5.16057517084060270000e+000) (0, -1.77063467402977030000e+000) (1, 1.89670363056209660000e+000) (2, 9.68644035530171090000e+000) (3, -6.08159244641692350000e+000) (4, 1.07537726434142190000e+001) (5, -4.37543019232852350000e+000) (6, -4.05143021340346630000e+000) (7, -5.68225286669691430000e+000) (8, 1.50723331699522890000e+001) (9, 2.43614840826040120000e+000) (10, -1.11375848342680030000e+001) (11, -2.32887889342354450000e+000) (12, -3.01864969256637930000e+000) (13, 4.32264266160375770000e+000) (14, 1.45826970538699370000e+000) (15, -9.22363383926677120000e+000) (16, -5.94934352542365200000e+000) (17, 1.42564009260630020000e+000) (18, 5.97882652144194720000e+000) (19, 1.01606028418032750000e+000) (20, 3.81140298169438460000e+000) (21, -1.27124231674127520000e+000) (22, 1.20494601703128620000e+000) (23, -5.03351646769600160000e+000) (24, 2.62415373446793470000e+000) (25, -1.42530405800428920000e+001) (26, -1.80024487265285170000e+001) (27, -2.17277279505608620000e+001) (28, 1.08092230500423980000e+001) (29, 9.26532597520248660000e+000) (30, -4.77128030098534220000e-001) (31, -1.15932291841322690000e+001) (32, -2.40887286910901930000e+001) (33, -1.22609411857962290000e+001) (34, 1.95227572644283500000e+001) (35, 1.76138128712195830000e+001) (36, 2.09694079353085310000e+001) (37, -1.50994196248055010000e+001) (38, -1.96694514421472460000e+001) (39, -1.54171513040855860000e+001) (40, -2.13189701479345970000e+000) (41, -2.15115623737799440000e+000) (42, 1.90271351995102410000e+001) (43, 1.93054863826032130000e+001) (44, -2.02916819528121620000e+001) (45, 1.66097813141850850000e+001) 
