FANN_FLO_2.1
num_layers=3
learning_rate=0.001000
connection_rate=1.000000
network_type=0
learning_momentum=0.000000
training_algorithm=0
train_error_function=1
train_stop_function=0
cascade_output_change_fraction=0.010000
quickprop_decay=-0.000100
quickprop_mu=1.750000
rprop_increase_factor=1.200000
rprop_decrease_factor=0.500000
rprop_delta_min=0.000000
rprop_delta_max=50.000000
rprop_delta_zero=0.100000
cascade_output_stagnation_epochs=12
cascade_candidate_change_fraction=0.010000
cascade_candidate_stagnation_epochs=12
cascade_max_out_epochs=150
cascade_min_out_epochs=50
cascade_max_cand_epochs=150
cascade_min_cand_epochs=50
cascade_num_candidate_groups=2
bit_fail_limit=2.50000000000000000000e+000
cascade_candidate_limit=1.00000000000000000000e+003
cascade_weight_multiplier=4.00000000000000020000e-001
cascade_activation_functions_count=10
cascade_activation_functions=3 5 7 8 10 11 14 15 16 17 
cascade_activation_steepnesses_count=4
cascade_activation_steepnesses=2.50000000000000000000e-001 5.00000000000000000000e-001 7.50000000000000000000e-001 1.00000000000000000000e+000 
layer_sizes=142 142 2 
scale_included=0
neurons (num_inputs, activation_function, activation_steepness)=(0, 0, 0.00000000000000000000e+000) (0, 0, 0.00000000000000000000e+000) (0, 0, 0.00000000000000000000e+000) (0, 0, 0.00000000000000000000e+000) (0, 0, 0.00000000000000000000e+000) (0, 0, 0.00000000000000000000e+000) (0, 0, 0.00000000000000000000e+000) (0, 0, 0.00000000000000000000e+000) (0, 0, 0.00000000000000000000e+000) (0, 0, 0.00000000000000000000e+000) (0, 0, 0.00000000000000000000e+000) (0, 0, 0.00000000000000000000e+000) (0, 0, 0.00000000000000000000e+000) (0, 0, 0.00000000000000000000e+000) (0, 0, 0.00000000000000000000e+000) (0, 0, 0.00000000000000000000e+000) (0, 0, 0.00000000000000000000e+000) (0, 0, 0.00000000000000000000e+000) (0, 0, 0.00000000000000000000e+000) (0, 0, 0.00000000000000000000e+000) (0, 0, 0.00000000000000000000e+000) (0, 0, 0.00000000000000000000e+000) (0, 0, 0.00000000000000000000e+000) (0, 0, 0.00000000000000000000e+000) (0, 0, 0.00000000000000000000e+000) (0, 0, 0.00000000000000000000e+000) (0, 0, 0.00000000000000000000e+000) (0, 0, 0.00000000000000000000e+000) (0, 0, 0.00000000000000000000e+000) (0, 0, 0.00000000000000000000e+000) (0, 0, 0.00000000000000000000e+000) (0, 0, 0.00000000000000000000e+000) (0, 0, 0.00000000000000000000e+000) (0, 0, 0.00000000000000000000e+000) (0, 0, 0.00000000000000000000e+000) (0, 0, 0.00000000000000000000e+000) (0, 0, 0.00000000000000000000e+000) (0, 0, 0.00000000000000000000e+000) (0, 0, 0.00000000000000000000e+000) (0, 0, 0.00000000000000000000e+000) (0, 0, 0.00000000000000000000e+000) (0, 0, 0.00000000000000000000e+000) (0, 0, 0.00000000000000000000e+000) (0, 0, 0.00000000000000000000e+000) (0, 0, 0.00000000000000000000e+000) (0, 0, 0.00000000000000000000e+000) (0, 0, 0.00000000000000000000e+000) (0, 0, 0.00000000000000000000e+000) (0, 0, 0.00000000000000000000e+000) (0, 0, 0.00000000000000000000e+000) (0, 0, 0.00000000000000000000e+000) (0, 0, 0.00000000000000000000e+000) (0, 0, 0.00000000000000000000e+000) (0, 0, 0.00000000000000000000e+000) (0, 0, 0.00000000000000000000e+000) (0, 0, 0.00000000000000000000e+000) (0, 0, 0.00000000000000000000e+000) (0, 0, 0.00000000000000000000e+000) (0, 0, 0.00000000000000000000e+000) (0, 0, 0.00000000000000000000e+000) (0, 0, 0.00000000000000000000e+000) (0, 0, 0.00000000000000000000e+000) (0, 0, 0.00000000000000000000e+000) (0, 0, 0.00000000000000000000e+000) (0, 0, 0.00000000000000000000e+000) (0, 0, 0.00000000000000000000e+000) (0, 0, 0.00000000000000000000e+000) (0, 0, 0.00000000000000000000e+000) (0, 0, 0.00000000000000000000e+000) (0, 0, 0.00000000000000000000e+000) (0, 0, 0.00000000000000000000e+000) (0, 0, 0.00000000000000000000e+000) (0, 0, 0.00000000000000000000e+000) (0, 0, 0.00000000000000000000e+000) (0, 0, 0.00000000000000000000e+000) (0, 0, 0.00000000000000000000e+000) (0, 0, 0.00000000000000000000e+000) (0, 0, 0.00000000000000000000e+000) (0, 0, 0.00000000000000000000e+000) (0, 0, 0.00000000000000000000e+000) (0, 0, 0.00000000000000000000e+000) (0, 0, 0.00000000000000000000e+000) (0, 0, 0.00000000000000000000e+000) (0, 0, 0.00000000000000000000e+000) (0, 0, 0.00000000000000000000e+000) (0, 0, 0.00000000000000000000e+000) (0, 0, 0.00000000000000000000e+000) (0, 0, 0.00000000000000000000e+000) (0, 0, 0.00000000000000000000e+000) (0, 0, 0.00000000000000000000e+000) (0, 0, 0.00000000000000000000e+000) (0, 0, 0.00000000000000000000e+000) (0, 0, 0.00000000000000000000e+000) (0, 0, 0.00000000000000000000e+000) (0, 0, 0.00000000000000000000e+000) (0, 0, 0.00000000000000000000e+000) (0, 0, 0.00000000000000000000e+000) (0, 0, 0.00000000000000000000e+000) (0, 0, 0.00000000000000000000e+000) (0, 0, 0.00000000000000000000e+000) (0, 0, 0.00000000000000000000e+000) (0, 0, 0.00000000000000000000e+000) (0, 0, 0.00000000000000000000e+000) (0, 0, 0.00000000000000000000e+000) (0, 0, 0.00000000000000000000e+000) (0, 0, 0.00000000000000000000e+000) (0, 0, 0.00000000000000000000e+000) (0, 0, 0.00000000000000000000e+000) (0, 0, 0.00000000000000000000e+000) (0, 0, 0.00000000000000000000e+000) (0, 0, 0.00000000000000000000e+000) (0, 0, 0.00000000000000000000e+000) (0, 0, 0.00000000000000000000e+000) (0, 0, 0.00000000000000000000e+000) (0, 0, 0.00000000000000000000e+000) (0, 0, 0.00000000000000000000e+000) (0, 0, 0.00000000000000000000e+000) (0, 0, 0.00000000000000000000e+000) (0, 0, 0.00000000000000000000e+000) (0, 0, 0.00000000000000000000e+000) (0, 0, 0.00000000000000000000e+000) (0, 0, 0.00000000000000000000e+000) (0, 0, 0.00000000000000000000e+000) (0, 0, 0.00000000000000000000e+000) (0, 0, 0.00000000000000000000e+000) (0, 0, 0.00000000000000000000e+000) (0, 0, 0.00000000000000000000e+000) (0, 0, 0.00000000000000000000e+000) (0, 0, 0.00000000000000000000e+000) (0, 0, 0.00000000000000000000e+000) (0, 0, 0.00000000000000000000e+000) (0, 0, 0.00000000000000000000e+000) (0, 0, 0.00000000000000000000e+000) (0, 0, 0.00000000000000000000e+000) (0, 0, 0.00000000000000000000e+000) (0, 0, 0.00000000000000000000e+000) (0, 0, 0.00000000000000000000e+000) (0, 0, 0.00000000000000000000e+000) (0, 0, 0.00000000000000000000e+000) (0, 0, 0.00000000000000000000e+000) (0, 0, 0.00000000000000000000e+000) (0, 0, 0.00000000000000000000e+000) (142, 4, 5.00000000000000000000e-001) (142, 4, 5.00000000000000000000e-001) (142, 4, 5.00000000000000000000e-001) (142, 4, 5.00000000000000000000e-001) (142, 4, 5.00000000000000000000e-001) (142, 4, 5.00000000000000000000e-001) (142, 4, 5.00000000000000000000e-001) (142, 4, 5.00000000000000000000e-001) (142, 4, 5.00000000000000000000e-001) (142, 4, 5.00000000000000000000e-001) (142, 4, 5.00000000000000000000e-001) (142, 4, 5.00000000000000000000e-001) (142, 4, 5.00000000000000000000e-001) (142, 4, 5.00000000000000000000e-001) (142, 4, 5.00000000000000000000e-001) (142, 4, 5.00000000000000000000e-001) (142, 4, 5.00000000000000000000e-001) (142, 4, 5.00000000000000000000e-001) (142, 4, 5.00000000000000000000e-001) (142, 4, 5.00000000000000000000e-001) (142, 4, 5.00000000000000000000e-001) (142, 4, 5.00000000000000000000e-001) (142, 4, 5.00000000000000000000e-001) (142, 4, 5.00000000000000000000e-001) (142, 4, 5.00000000000000000000e-001) (142, 4, 5.00000000000000000000e-001) (142, 4, 5.00000000000000000000e-001) (142, 4, 5.00000000000000000000e-001) (142, 4, 5.00000000000000000000e-001) (142, 4, 5.00000000000000000000e-001) (142, 4, 5.00000000000000000000e-001) (142, 4, 5.00000000000000000000e-001) (142, 4, 5.00000000000000000000e-001) (142, 4, 5.00000000000000000000e-001) (142, 4, 5.00000000000000000000e-001) (142, 4, 5.00000000000000000000e-001) (142, 4, 5.00000000000000000000e-001) (142, 4, 5.00000000000000000000e-001) (142, 4, 5.00000000000000000000e-001) (142, 4, 5.00000000000000000000e-001) (142, 4, 5.00000000000000000000e-001) (142, 4, 5.00000000000000000000e-001) (142, 4, 5.00000000000000000000e-001) (142, 4, 5.00000000000000000000e-001) (142, 4, 5.00000000000000000000e-001) (142, 4, 5.00000000000000000000e-001) (142, 4, 5.00000000000000000000e-001) (142, 4, 5.00000000000000000000e-001) (142, 4, 5.00000000000000000000e-001) (142, 4, 5.00000000000000000000e-001) (142, 4, 5.00000000000000000000e-001) (142, 4, 5.00000000000000000000e-001) (142, 4, 5.00000000000000000000e-001) (142, 4, 5.00000000000000000000e-001) (142, 4, 5.00000000000000000000e-001) (142, 4, 5.00000000000000000000e-001) (142, 4, 5.00000000000000000000e-001) (142, 4, 5.00000000000000000000e-001) (142, 4, 5.00000000000000000000e-001) (142, 4, 5.00000000000000000000e-001) (142, 4, 5.00000000000000000000e-001) (142, 4, 5.00000000000000000000e-001) (142, 4, 5.00000000000000000000e-001) (142, 4, 5.00000000000000000000e-001) (142, 4, 5.00000000000000000000e-001) (142, 4, 5.00000000000000000000e-001) (142, 4, 5.00000000000000000000e-001) (142, 4, 5.00000000000000000000e-001) (142, 4, 5.00000000000000000000e-001) (142, 4, 5.00000000000000000000e-001) (142, 4, 5.00000000000000000000e-001) (142, 4, 5.00000000000000000000e-001) (142, 4, 5.00000000000000000000e-001) (142, 4, 5.00000000000000000000e-001) (142, 4, 5.00000000000000000000e-001) (142, 4, 5.00000000000000000000e-001) (142, 4, 5.00000000000000000000e-001) (142, 4, 5.00000000000000000000e-001) (142, 4, 5.00000000000000000000e-001) (142, 4, 5.00000000000000000000e-001) (142, 4, 5.00000000000000000000e-001) (142, 4, 5.00000000000000000000e-001) (142, 4, 5.00000000000000000000e-001) (142, 4, 5.00000000000000000000e-001) (142, 4, 5.00000000000000000000e-001) (142, 4, 5.00000000000000000000e-001) (142, 4, 5.00000000000000000000e-001) (142, 4, 5.00000000000000000000e-001) (142, 4, 5.00000000000000000000e-001) (142, 4, 5.00000000000000000000e-001) (142, 4, 5.00000000000000000000e-001) (142, 4, 5.00000000000000000000e-001) (142, 4, 5.00000000000000000000e-001) (142, 4, 5.00000000000000000000e-001) (142, 4, 5.00000000000000000000e-001) (142, 4, 5.00000000000000000000e-001) (142, 4, 5.00000000000000000000e-001) (142, 4, 5.00000000000000000000e-001) (142, 4, 5.00000000000000000000e-001) (142, 4, 5.00000000000000000000e-001) (142, 4, 5.00000000000000000000e-001) (142, 4, 5.00000000000000000000e-001) (142, 4, 5.00000000000000000000e-001) (142, 4, 5.00000000000000000000e-001) (142, 4, 5.00000000000000000000e-001) (142, 4, 5.00000000000000000000e-001) (142, 4, 5.00000000000000000000e-001) (142, 4, 5.00000000000000000000e-001) (142, 4, 5.00000000000000000000e-001) (142, 4, 5.00000000000000000000e-001) (142, 4, 5.00000000000000000000e-001) (142, 4, 5.00000000000000000000e-001) (142, 4, 5.00000000000000000000e-001) (142, 4, 5.00000000000000000000e-001) (142, 4, 5.00000000000000000000e-001) (142, 4, 5.00000000000000000000e-001) (142, 4, 5.00000000000000000000e-001) (142, 4, 5.00000000000000000000e-001) (142, 4, 5.00000000000000000000e-001) (142, 4, 5.00000000000000000000e-001) (142, 4, 5.00000000000000000000e-001) (142, 4, 5.00000000000000000000e-001) (142, 4, 5.00000000000000000000e-001) (142, 4, 5.00000000000000000000e-001) (142, 4, 5.00000000000000000000e-001) (142, 4, 5.00000000000000000000e-001) (142, 4, 5.00000000000000000000e-001) (142, 4, 5.00000000000000000000e-001) (142, 4, 5.00000000000000000000e-001) (142, 4, 5.00000000000000000000e-001) (142, 4, 5.00000000000000000000e-001) (142, 4, 5.00000000000000000000e-001) (142, 4, 5.00000000000000000000e-001) (142, 4, 5.00000000000000000000e-001) (142, 4, 5.00000000000000000000e-001) (142, 4, 5.00000000000000000000e-001) (142, 4, 5.00000000000000000000e-001) (142, 4, 5.00000000000000000000e-001) (142, 4, 5.00000000000000000000e-001) (142, 4, 5.00000000000000000000e-001) (142, 4, 5.00000000000000000000e-001) (0, 0, 0.00000000000000000000e+000) (142, 0, 5.00000000000000000000e-001) (0, 0, 0.00000000000000000000e+000) 
connections (connected_to_neuron, weight)=(0, -4.45128557839071450000e+002) (1, -2.41173619664783530000e-002) (2, -4.75508222194020650000e-002) (3, -1.29455571550352030000e-002) (4, -7.21252470066247040000e-002) (5, 3.95874039168120360000e-002) (6, 2.00317390772397630000e-002) (7, 2.77771007131377700000e-001) (8, -6.34756692585992240000e-002) (9, 6.14094957661690880000e-002) (10, -2.96223847356035020000e-001) (11, -2.15802568266430820000e-001) (12, -8.00455157976704270000e-002) (13, 2.81395855576945410000e-001) (14, -7.52197295514633880000e-002) (15, 2.05771095112643600000e-001) (16, 1.65940726481472820000e-001) (17, 2.91546750427828900000e-002) (18, 2.46227279089914490000e-001) (19, -1.13593291848680940000e-001) (20, 5.53398203328606120000e-002) (21, 3.28114973396684500000e-001) (22, -2.39685068117978520000e-002) (23, -1.21120445228933710000e-001) (24, 1.92403933510071100000e-001) (25, -4.95403203224694870000e-002) (26, 1.76966875189309730000e-001) (27, 1.17484758896533250000e-001) (28, 1.88617881446559860000e-001) (29, 1.39999478933259700000e-001) (30, -4.28466813900740820000e-002) (31, 9.53481473045158510000e-002) (32, -1.98453854337136380000e-002) (33, -4.08645282737126250000e-001) (34, -5.36056666597630180000e-001) (35, -1.77554649243549380000e-001) (36, 1.40163552328295170000e-001) (37, -7.01417037313866870000e-002) (38, -1.71551520488719690000e-001) (39, 1.44470220584480560000e-002) (40, 2.45910654302861080000e-001) (41, -1.92132575994037320000e-001) (42, -2.10754402905877210000e-002) (43, 7.35135276895750030000e-002) (44, -4.19394987583281640000e-001) (45, 1.56779315895300950000e-001) (46, 2.01613119972378660000e-002) (47, -1.42635114201380310000e-001) (48, -5.86738121556434280000e-002) (49, -1.96765144537494050000e-001) (50, -1.40528302223771520000e-001) (51, -1.99149174457835090000e-001) (52, -1.65329637402217540000e-001) (53, -4.37994125939715550000e-002) (54, 9.51565746773567600000e-004) (55, -1.94143315223309220000e-001) (56, -1.90422520258966420000e-001) (57, 1.72467047868849480000e-001) (58, -9.17602633089255460000e-002) (59, -1.13134252590543060000e-001) (60, -9.70378807999388860000e-002) (61, -4.21743500740740380000e-002) (62, -8.01224324441671130000e-002) (63, -1.25793932269556740000e-001) (64, 1.32377958064258310000e-001) (65, -2.47576914134697290000e-001) (66, 1.29887017221620440000e-001) (67, -3.01701671722033880000e-001) (68, -2.16213820985718870000e-001) (69, -3.21746579331148200000e-001) (70, -9.12902391212559590000e-002) (71, 1.16248752081193240000e-001) (72, -2.89077554480541950000e-001) (73, 3.46069349689059890000e-002) (74, 1.63549811186385340000e-001) (75, 1.28283696503785900000e-001) (76, -2.51403818583639800000e-002) (77, -2.73486338992370290000e-001) (78, 1.10785206061451650000e-001) (79, 3.80151898484468940000e-002) (80, -2.90605881771603790000e-001) (81, -4.49137875021313610000e-002) (82, -1.14554789537436030000e-001) (83, 3.95761381110337140000e-002) (84, 2.23773202251322800000e-001) (85, 1.61674102312752170000e-001) (86, 1.21716317563816730000e-001) (87, 2.11437374828057410000e-001) (88, 2.04024142878269670000e-001) (89, 5.91510902465389520000e-002) (90, 1.17675604120038880000e-001) (91, -1.74974712968283240000e-001) (92, -2.00555427891231370000e-001) (93, 2.98591018888439640000e-001) (94, -1.00931930622448670000e-001) (95, 2.30437512285293380000e-001) (96, 2.47796387010604300000e-001) (97, -1.58312151642579860000e-001) (98, -1.89295855869210580000e-001) (99, 9.05960199504201310000e-002) (100, 5.53527854026469870000e-002) (101, -5.61950705923663920000e-002) (102, 1.00978652143233000000e-002) (103, -5.74751951436533130000e-001) (104, -6.06382317784424640000e-001) (105, 2.26908788285812290000e-001) (106, -1.45564061639969350000e-001) (107, -1.47443169043385840000e-001) (108, -5.90332054707687350000e-002) (109, 2.25219735511927870000e-001) (110, -2.34228524932404980000e-001) (111, 2.00537117343628780000e-001) (112, 1.17773442179895940000e-001) (113, -1.81829309837681640000e-002) (114, -2.01885472661337270000e-001) (115, 2.12730128649326060000e-001) (116, 1.75706399714670750000e-001) (117, 2.69834478253935810000e-002) (118, -9.88482833645696890000e-002) (119, -2.17909823282909090000e-001) (120, 1.48351321041225810000e-001) (121, -1.67848052343945310000e-002) (122, 1.50783685353175910000e-001) (123, 1.98486336012138050000e-001) (124, 2.99157726731209550000e-001) (125, 5.03309336672948870000e-002) (126, -2.02575354738854660000e-001) (127, -1.64228648474886520000e-001) (128, 2.76999640774344250000e-001) (129, -2.46575259814834840000e-003) (130, -1.51277740557063110000e-001) (131, 1.14535931444225720000e-001) (132, -6.52065962980725570000e-003) (133, 3.98254410356457810000e-002) (134, 2.15373207076305060000e-001) (135, -2.60540781837335090000e-001) (136, 1.26745610505167860000e-001) (137, 2.16663666893603450000e-001) (138, -4.45859955053761410000e-001) (139, -5.82253870154659460000e-001) (140, -1.47490955319535770000e-001) (141, -1.30156423513601210000e-002) (0, -1.09925645536443130000e+005) (1, -7.34445056320121200000e+000) (2, -3.84355483489020930000e-001) (3, -3.60900893247162460000e-002) (4, 1.06567387047107330000e-002) (5, 1.27990727742144370000e-001) (6, 1.43554693204350770000e-002) (7, -9.29626501783786810000e-002) (8, -8.73444423044697160000e+000) (9, -3.81674656768253730000e+001) (10, -3.36160828096318590000e-001) (11, -1.58887610107020130000e-001) (12, -5.12947622111904480000e-002) (13, 3.96742833014202680000e-002) (14, 1.92370613112871070000e-001) (15, -1.28386389299215060000e+000) (16, -1.14858340841559040000e+001) (17, -8.48108323684967770000e-002) (18, 1.52066334476624220000e-002) (19, -2.56357098046445630000e-001) (20, -2.28976161133400310000e-002) (21, 7.88231422471196460000e+000) (22, -1.82244880288635610000e-001) (23, -1.55291365172202570000e-001) (24, 9.78485561726303990000e-002) (25, 3.07436860339178640000e-002) (26, 7.66453759047302510000e-002) (27, 1.50776253028559150000e-001) (28, 2.91224477610846190000e-001) (29, 1.10117399098498690000e-001) (30, 1.79608161433861820000e-001) (31, -1.36597337737156130000e-001) (32, -4.76711450531035560000e+000) (33, -1.02449068537067720000e+002) (34, -1.06899061260445930000e+002) (35, -1.07354791941551150000e+000) (36, -9.17899624298754980000e+000) (37, -1.94994233334061130000e-001) (38, 2.30950936911540340000e-001) (39, 2.85040294529608220000e-001) (40, 5.23864766910264730000e-002) (41, 1.76110846841766030000e-001) (42, -1.59667975094635040000e-002) (43, -1.10561723786999500000e+001) (44, -5.08604622916151430000e+001) (45, -6.74585239021659680000e-001) (46, 2.00164756528670520000e-001) (47, -2.17535385198764110000e-001) (48, -3.13983064482345860000e-001) (49, -1.03344730669050480000e-001) (50, -1.84771133848887640000e+000) (51, -1.53732019438875480000e+001) (52, -8.62110047103123580000e-002) (53, -2.99194294160292640000e-001) (54, 9.17175866075380930000e-002) (55, -1.74755444170132110000e-001) (56, 7.81241582768258080000e+000) (57, 6.63940456070122310000e-002) (58, -1.71202845248230760000e-001) (59, -2.15996858942161090000e-001) (60, 2.28259563023111260000e-001) (61, 4.43679596067138560000e-003) (62, 1.89125192404175160000e-001) (63, 1.31089571992934440000e-001) (64, -7.94663884330207850000e-002) (65, -6.39953638710721860000e-002) (66, 2.47667729906843050000e-001) (67, -5.07280949611640870000e+000) (68, -1.04998972776250060000e+002) (69, -1.12070170808841040000e+002) (70, -3.80556718471837650000e+000) (71, -9.73047469783857900000e+000) (72, -3.88613708682570220000e-001) (73, 1.89129646187211620000e-001) (74, 1.85174567905050940000e-001) (75, 1.14312748683005340000e-001) (76, 1.44635015512903920000e-001) (77, -2.08428963360347550000e-001) (78, -1.14607199502057830000e+001) (79, -5.10459481243995160000e+001) (80, -6.21201894611492360000e-002) (81, 1.16619797689595630000e-001) (82, 2.67113899943747230000e-001) (83, -2.11042114938199660000e-001) (84, 2.54534922223683680000e-001) (85, -2.48973247789895740000e+000) (86, -2.32169813204421410000e+001) (87, 4.34992957522530990000e-003) (88, -2.20220587533499490000e-001) (89, -6.56429446723773980000e-002) (90, 1.81348400421947890000e-001) (91, 3.69783003073480640000e+000) (92, -2.83447276888182390000e-001) (93, 5.19693022852021000000e-002) (94, -1.82809953097327340000e-001) (95, -3.02302537351882250000e-002) (96, 1.40561097078903440000e-001) (97, 3.57462712690303770000e-002) (98, 1.62618530479584320000e-002) (99, -4.48822979218246180000e-002) (100, -2.65777598451677480000e-001) (101, 2.87750255574792390000e-001) (102, -7.39586134447645540000e+000) (103, -1.11982956580357550000e+002) (104, -1.11768384986780990000e+002) (105, -8.52118255599905970000e+000) (106, -1.04696967656453100000e+001) (107, -5.53988468681358650000e-001) (108, -8.25988802353094800000e-002) (109, -1.97625740274816050000e-001) (110, -1.34014897903398380000e-001) (111, -4.79919452664034910000e-002) (112, 2.65795908999280070000e-001) (113, -1.22694287227579370000e+001) (114, -5.57026587640492250000e+001) (115, -7.28185323562162280000e-002) (116, -7.85208154285748640000e-002) (117, -2.83171513225384250000e-001) (118, -3.49825901928846220000e-001) (119, -1.13817995414801640000e-001) (120, -2.87966338312463810000e+000) (121, -2.34123961114046470000e+001) (122, -1.78829140655231530000e-001) (123, -2.75463878133450630000e-001) (124, 2.09051521978835810000e-001) (125, 9.81102745538435000000e-004) (126, 2.14741875789000990000e+000) (127, -3.37322954192689630000e-003) (128, 1.57763508607355250000e-001) (129, -1.28428420510247220000e-001) (130, 2.02075571825166560000e-001) (131, 1.47865674129166510000e-001) (132, -1.31927495476702460000e-001) (133, 2.59149180219537810000e-001) (134, -2.64785672773681200000e-001) (135, -2.38677987999835750000e-001) (136, -1.19458012559334750000e-001) (137, -8.63140172105976330000e+000) (138, -1.22358030609139220000e+002) (139, -1.17209862033400650000e+002) (140, -7.82834585552831810000e+000) (141, -2.20406468594493950000e-001) (0, -1.40255238236448620000e+004) (1, -8.01180660676260930000e-001) (2, 2.29369821133887850000e-001) (3, -2.48876963014481590000e-001) (4, -2.57592783673317170000e-001) (5, -1.09790043425164190000e-001) (6, 1.42126470491348300000e-001) (7, -1.80432136075978630000e-001) (8, -1.04257378466418630000e+000) (9, -4.99987380482830270000e+000) (10, 2.05809949502091690000e-001) (11, -1.53103924294035880000e-001) (12, 2.00913226117374440000e-001) (13, -2.23009711175228750000e-001) (14, 2.68304454020835690000e-001) (15, -2.96120765637016280000e-001) (16, -1.13305119209813700000e+000) (17, 1.32522485700917620000e-001) (18, 2.13731957918215640000e-001) (19, 9.20583690989805330000e-002) (20, 1.42939804520367360000e-001) (21, 1.11078319666385310000e+000) (22, 1.53442388909752480000e-002) (23, 2.27078877814382410000e-001) (24, 2.03880937338694060000e-001) (25, -2.47391047528484900000e-001) (26, -6.38503103712501910000e-002) (27, -2.54442492120863730000e-001) (28, -1.56000773067099370000e-002) (29, 1.78814885771624330000e-001) (30, 2.40582284950505710000e-001) (31, 3.00754907600607470000e-001) (32, -3.28425880247589950000e-001) (33, -1.30260474140045690000e+001) (34, -1.31234830941923150000e+001) (35, -3.47479978128224620000e-001) (36, -9.95420011008094300000e-001) (37, 2.30908679105623960000e-001) (38, 3.18420422809140290000e-002) (39, -2.33276376457070000000e-002) (40, -9.81445351499132810000e-002) (41, 2.32928476052620680000e-001) (42, -1.37146001543442250000e-001) (43, -1.22473508986696070000e+000) (44, -6.44782583253480630000e+000) (45, -1.83607711128156300000e-001) (46, 2.58291613583910450000e-001) (47, -7.34916248219962820000e-002) (48, 3.34006396777841230000e-002) (49, -8.24523958544887140000e-002) (50, -3.47144162924478360000e-001) (51, -2.16780839196289900000e+000) (52, 4.09637701179660290000e-002) (53, 1.81371341753963470000e-001) (54, 2.28386206107030610000e-002) (55, 2.26836530351341880000e-001) (56, 9.58739141728330970000e-001) (57, -1.74810797961981730000e-001) (58, -2.20052065258971390000e-001) (59, -8.86832862838862060000e-002) (60, 6.13124832768403710000e-002) (61, -8.36362417452958530000e-002) (62, -2.69194130738040440000e-001) (63, 7.39431522445189860000e-002) (64, -2.76629834961413360000e-001) (65, 2.77862559869390680000e-001) (66, -1.50320387956340200000e-001) (67, -4.10158462541150740000e-001) (68, -1.30623476101022980000e+001) (69, -1.43226759521241680000e+001) (70, -4.24550250693553010000e-001) (71, -1.00607046709357780000e+000) (72, 1.88339967332199400000e-001) (73, 2.57318125459278240000e-001) (74, -2.00518806796026180000e-001) (75, -2.55432139056210870000e-001) (76, 4.47692888883466370000e-002) (77, 8.73962437071895690000e-002) (78, -1.47191635676365910000e+000) (79, -6.58044557361498580000e+000) (80, -5.86173657522987140000e-002) (81, 1.07872239235055340000e-001) (82, -8.43515327635164510000e-002) (83, -1.79118933745680410000e-001) (84, 8.73962437071895690000e-002) (85, -4.00692345471930720000e-001) (86, -3.12288860456527080000e+000) (87, 1.70691091475032700000e-001) (88, 6.97270581447303470000e-002) (89, -1.90044680693309400000e-001) (90, 1.08372270231160110000e-001) (91, 4.01831770487648290000e-001) (92, 1.05432133095746390000e-001) (93, 2.59225484808948470000e-001) (94, -1.28889902628584600000e-001) (95, 1.55085744106507830000e-001) (96, 2.96672020192346900000e-001) (97, 4.92244965397760570000e-002) (98, -1.82549348205337750000e-001) (99, -1.84046888391682210000e-001) (100, -8.31298861157847570000e-002) (101, -5.63598655207897540000e-002) (102, -7.07915665746301710000e-001) (103, -1.41667238264772360000e+001) (104, -1.37042715444209970000e+001) (105, -1.08698316720912680000e+000) (106, -1.05173725463392030000e+000) (107, -1.51215837958139280000e-001) (108, 2.48583994252840060000e-001) (109, -2.34960946836508810000e-001) (110, -1.72595221702067650000e-001) (111, 1.64923102256580020000e-001) (112, -2.01068123224104060000e-001) (113, -1.70293310919027040000e+000) (114, -6.71844891462199010000e+000) (115, 4.72335100398890010000e-002) (116, 2.67817158613124110000e-001) (117, -8.69040757310971660000e-002) (118, -3.04884045877864330000e-001) (119, -1.22485938814051210000e-002) (120, -6.67481373206403470000e-002) (121, -2.69579651039166060000e+000) (122, 3.88305634884217460000e-002) (123, 4.68566913150425530000e-002) (124, 1.97937019584060180000e-002) (125, -1.06879680193029140000e-001) (126, 5.21489403331333090000e-001) (127, -2.38848678333254960000e-001) (128, 2.06771876008845250000e-001) (129, 1.86007770245112600000e-003) (130, -1.32356120611883480000e-001) (131, 1.05668879276165610000e-001) (132, -1.37248508322489140000e-001) (133, 2.55981455484288740000e-002) (134, 2.26109870570375710000e-001) (135, -1.12994389255618440000e-001) (136, -1.14550785801839080000e-001) (137, -1.33418407825754030000e+000) (138, -1.53123056467950710000e+001) (139, -1.47411840332040340000e+001) (140, -9.18711225260346650000e-001) (141, -1.93367321948404200000e-001) (0, -8.35370269355803200000e+002) (1, -1.12660715158122550000e-001) (2, 4.15564180471391170000e-002) (3, -4.06677262253651860000e-002) (4, 9.53979530095239170000e-003) (5, 2.46826181682990860000e-002) (6, -1.02374271646112900000e-001) (7, 1.76605231627036120000e-001) (8, -2.77393636794382060000e-001) (9, -2.02641343318114680000e-001) (10, 7.04585551586857650000e-002) (11, -5.22741255503681860000e-002) (12, 2.69706248485298890000e-001) (13, 1.77943535413715690000e-001) (14, 1.87554939093388380000e-001) (15, 1.77397725674757340000e-001) (16, -3.70680791073980890000e-001) (17, -1.70086661135898850000e-001) (18, -1.50278837890536310000e-001) (19, 1.31418571134815560000e-003) (20, 9.61445117451974470000e-002) (21, -2.10456125147303720000e-001) (22, 2.68194590735220120000e-001) (23, 4.19222791859594210000e-002) (24, 1.29078992698383910000e-001) (25, 2.17398323899247490000e-001) (26, -1.38831139875973150000e-001) (27, -1.49399527223411320000e-001) (28, -2.84457389682120090000e-001) (29, -2.62294173161521870000e-001) (30, 1.59191900856967550000e-001) (31, -2.84961195306734140000e-001) (32, -2.07215532579584360000e-001) (33, -1.03954457762992320000e+000) (34, -6.04293213802334030000e-001) (35, -1.41035185928077900000e-001) (36, 1.36825029486367380000e-001) (37, -3.31436624640166280000e-002) (38, -8.05297883562161590000e-002) (39, -2.67572032116731860000e-001) (40, -9.69543495557445570000e-002) (41, 2.50726328322343760000e-001) (42, 2.65100108190381430000e-001) (43, 1.56673921970184090000e-001) (44, -4.09014438129604470000e-001) (45, -1.02711616329384860000e-001) (46, 2.58771116011769160000e-001) (47, -5.43132324539117580000e-002) (48, 2.64584447158659030000e-001) (49, 5.55542014262755400000e-002) (50, 2.50738497663303470000e-001) (51, -1.87111986974622140000e-001) (52, 2.92387405560609770000e-001) (53, 8.76662239862395910000e-002) (54, 2.25599579076593480000e-001) (55, -1.33126597342336310000e-001) (56, -1.29382561279041270000e-001) (57, -3.87817398222978230000e-002) (58, -1.23829309485077410000e-001) (59, 1.92721219900812920000e-001) (60, 1.06033573380260070000e-001) (61, -2.86739265199281450000e-001) (62, -2.33186330293769420000e-001) (63, -1.47878572843992120000e-002) (64, 2.85386985847257800000e-001) (65, 1.14385990873415720000e-001) (66, -5.60034884433741050000e-002) (67, 4.68359931662972600000e-002) (68, -8.49091331032987280000e-001) (69, -9.50615606107705010000e-001) (70, -6.56010279401185730000e-002) (71, -2.18635088583858080000e-001) (72, -2.62090597892657780000e-004) (73, 2.09143074716848790000e-001) (74, 3.39843763504177330000e-002) (75, 1.36962896067416300000e-001) (76, -1.17626957799075170000e-001) (77, 2.22711190490372250000e-001) (78, -3.34652020838157370000e-001) (79, -2.23406619553780660000e-001) (80, 2.63175811908997530000e-001) (81, 7.06666499617324830000e-002) (82, 2.99400002186547280000e-001) (83, -1.88933453334140990000e-001) (84, -2.25036630035901910000e-002) (85, -2.55780192693429050000e-001) (86, -2.78106921708071500000e-001) (87, -2.35591433156533610000e-001) (88, -1.66775990625866320000e-001) (89, 1.35645927120941500000e-002) (90, -2.02357622954186110000e-001) (91, 1.58606936808793840000e-001) (92, 1.95263679634081200000e-001) (93, -2.41672791013712670000e-001) (94, -1.43816275179440620000e-001) (95, -2.93322330932589750000e-001) (96, 2.87157130046497680000e-001) (97, -2.23583737901619510000e-001) (98, 2.93251802727890860000e-001) (99, 6.78482954296850680000e-002) (100, -2.01507576366566350000e-001) (101, 3.82690444894251410000e-002) (102, 7.66045697923611320000e-002) (103, -1.04313279360209780000e+000) (104, -7.96910846726133660000e-001) (105, 1.62135169154484120000e-001) (106, -1.51695583087847360000e-001) (107, -6.40977175433602030000e-002) (108, -1.83819587382458850000e-001) (109, -2.19726571231149140000e-004) (110, -1.41595464610873020000e-001) (111, -1.77282721888332160000e-001) (112, -9.60937538184225560000e-002) (113, -3.67092666187031550000e-002) (114, -2.51219959369214980000e-001) (115, -2.53960736677182830000e-001) (116, 1.86015129291062290000e-001) (117, -9.36940483437072310000e-003) (118, -9.04409217971407780000e-002) (119, -2.03324558915699560000e-001) (120, 1.41421883125549040000e-001) (121, -1.64578081818275680000e-001) (122, 2.55524598438962190000e-001) (123, -2.87036144218291160000e-001) (124, -2.60559092384937680000e-002) (125, 5.32930477318699770000e-002) (126, 7.04669316327710400000e-002) (127, 1.63602209185255750000e-001) (128, -2.72898819751872130000e-001) (129, -2.26237393108184640000e-001) (130, 5.11371211175667970000e-002) (131, -2.97674996030944310000e-002) (132, 6.41052271566877610000e-002) (133, 2.43511972566921030000e-001) (134, -2.19383426135565160000e-001) (135, -1.56280523788154820000e-001) (136, 2.12219246714084870000e-002) (137, -1.47083748423202240000e-001) (138, -8.63497578361925640000e-001) (139, -8.36878687266254920000e-001) (140, -1.30733661167054790000e-001) (141, 1.29295620573609160000e-001) (0, -5.79135125708901400000e+004) (1, -3.78248768688951700000e+000) (2, -1.24471062579738810000e-001) (3, 1.28009038289746970000e-001) (4, 2.70391856447531610000e-001) (5, -6.13220239210932050000e-002) (6, -1.25079350673331650000e-001) (7, -1.39379888350958940000e-001) (8, -4.36752309015699680000e+000) (9, -2.02115701827680460000e+001) (10, 7.07386764084238450000e-003) (11, 1.18659819006421110000e-001) (12, 2.39051589977051390000e-001) (13, 2.55168709395553970000e-001) (14, -2.47668466872710270000e-001) (15, -8.56223488097574430000e-001) (16, -6.10100799936141240000e+000) (17, -1.46924312114241880000e-002) (18, -2.77473157373825720000e-001) (19, -1.03797613363177170000e-001) (20, -1.97705104148658720000e-002) (21, 4.13216080188997910000e+000) (22, 1.56719976930617120000e-001) (23, -2.54535777551544230000e-002) (24, -1.18139222130480280000e-001) (25, 1.14261790997583070000e-002) (26, -4.25093001252433090000e-002) (27, 2.79015919475112460000e-002) (28, 1.46696235383596330000e-001) (29, -2.44200433857642670000e-001) (30, 9.26513708691345530000e-002) (31, -3.38131448803756020000e-002) (32, -2.37609187775838930000e+000) (33, -5.39363282127721180000e+001) (34, -5.60595101430814890000e+001) (35, -8.55497996704061680000e-001) (36, -5.00289679564755920000e+000) (37, -6.44278402113202250000e-002) (38, 1.17443852323049210000e-001) (39, -1.02209476717689540000e-001) (40, -1.66754157016839600000e-001) (41, 6.90124539141834250000e-002) (42, -7.95043976904707960000e-002) (43, -5.97155344936146370000e+000) (44, -2.67274498041301810000e+001) (45, 8.86882314757134750000e-002) (46, 1.39313372585025490000e-001) (47, -2.97448198896146100000e-001) (48, -3.00415721876720500000e-001) (49, 1.84533698738960080000e-001) (50, -6.25330644620734070000e-001) (51, -8.32911954461316560000e+000) (52, -2.07056954983251940000e-001) (53, -7.78076848670560940000e-003) (54, -1.96727309197890250000e-001) (55, -2.90110704575444410000e-001) (56, 3.77259994441803580000e+000) (57, 1.73382575248979260000e-001) (58, -2.91598785003169270000e-001) (59, -1.17989300095686540000e-002) (60, -3.74996040943764710000e-002) (61, 3.39265329030484340000e-001) (62, -9.69294448280914880000e-002) (63, 2.72776232524446110000e-001) (64, -7.07007354599174240000e-002) (65, 2.40197763450851200000e-001) (66, 5.40519417313833910000e-002) (67, -2.48447617872309400000e+000) (68, -5.52932505916919870000e+001) (69, -5.92414328939393190000e+001) (70, -2.24890438151633410000e+000) (71, -4.81568002514657770000e+000) (72, -5.04146998508984260000e-001) (73, -1.79443366505438460000e-003) (74, -1.62231451758998450000e-002) (75, 5.08667012400110250000e-002) (76, -9.19555700602359140000e-002) (77, 7.18688993401883640000e-002) (78, -6.38193995772890330000e+000) (79, -2.67616348416359530000e+001) (80, -4.27315283282633630000e-001) (81, 8.57309370601776200000e-002) (82, -1.20304271706441250000e-002) (83, -5.95490620972746950000e-002) (84, 1.07336430046416350000e-001) (85, -8.81010733747736530000e-001) (86, -1.18491696522171990000e+001) (87, -1.11446956331229820000e-001) (88, -9.54524872565920560000e-002) (89, -5.89595658846187030000e-002) (90, 1.53992500129309650000e-001) (91, 2.05485748991407120000e+000) (92, 2.17218026209593520000e-001) (93, -1.92507919294897490000e-001) (94, -2.41415762893378350000e-001) (95, 2.60211589376200260000e-001) (96, -1.61776015205962690000e-001) (97, 2.36551213734050000000e-001) (98, -6.40140579187860050000e-002) (99, 3.59684095416906640000e-002) (100, -1.36285405806120250000e-001) (101, 1.71569831036322280000e-002) (102, -4.04118387579624900000e+000) (103, -5.88477045710965070000e+001) (104, -5.88409761195679200000e+001) (105, -4.52786669509835080000e+000) (106, -5.68192987039066470000e+000) (107, -3.90138172082792940000e-001) (108, 2.13391121760651000000e-001) (109, 4.24072282476117830000e-002) (110, -2.32141122505709060000e-001) (111, 1.62268072854203640000e-001) (112, -5.81726097334467340000e-002) (113, -6.11716561194856560000e+000) (114, -2.93323230476846780000e+001) (115, -2.30540794359460620000e-001) (116, 2.50816901886608100000e-001) (117, 2.38532695806198570000e-001) (118, 4.03860876837283320000e-002) (119, -2.97124858551609530000e-001) (120, -1.53641770163617060000e+000) (121, -1.23971583065635580000e+001) (122, -1.79363140182979860000e-002) (123, 4.59594744825153610000e-002) (124, -1.38629155899252510000e-001) (125, -1.52946868735644310000e-001) (126, 1.36153923456762600000e+000) (127, 5.90405175620344540000e-002) (128, -9.59821786862097710000e-002) (129, -1.63227441273524790000e-001) (130, 5.82828704148019570000e-002) (131, 5.15481979329427200000e-002) (132, 2.63250742882519260000e-001) (133, 2.77825938774185490000e-001) (134, -1.41514355553588520000e-001) (135, -2.54718027699709640000e-001) (136, -3.84521499654510990000e-003) (137, -4.70298911104594810000e+000) (138, -6.42574722461918240000e+001) (139, -6.16261099051814370000e+001) (140, -4.04366974705474290000e+000) (141, 1.29243415181074740000e-001) (0, -3.53241829235599520000e+001) (1, 2.63835623557249150000e-001) (2, 4.15008121797133360000e-003) (3, 1.53076177957700570000e-001) (4, 1.66937262492865560000e-001) (5, -1.70727545846602880000e-001) (6, -2.41333017402212140000e-002) (7, -1.00982670028315620000e-001) (8, 4.59204128621171210000e-002) (9, 9.53355605784381720000e-002) (10, 2.59775311964409840000e-001) (11, 7.42327443862954990000e-002) (12, -3.72022964854761340000e-002) (13, -1.09276951131206760000e-001) (14, -1.37896733995148680000e-001) (15, -2.63005306568019520000e-002) (16, 1.75811100527902470000e-001) (17, -5.07681105484581310000e-002) (18, 2.94338397964451490000e-001) (19, -3.19555603138188820000e-002) (20, 1.89855552245782100000e-001) (21, -2.09189440419918270000e-001) (22, -6.41235377042903560000e-002) (23, 1.89190544006908990000e-001) (24, 2.66582239921776320000e-001) (25, -1.97756709493539180000e-001) (26, 1.51306429041898810000e-001) (27, -4.16960432662929900000e-002) (28, -2.89931851624765650000e-001) (29, -1.69560207622315110000e-001) (30, 1.59667975094635040000e-001) (31, -2.51045075194283650000e-001) (32, 4.19336940722030670000e-003) (33, 1.60607271345809150000e-001) (34, -9.33003728465782440000e-002) (35, 2.02758452969406740000e-002) (36, 2.40598103866683080000e-003) (37, -2.51104051421497110000e-001) (38, 2.29394540365319700000e-001) (39, -6.60827662977681030000e-002) (40, -1.44671636608109110000e-001) (41, 7.24914579586766190000e-002) (42, 1.17407231227844020000e-001) (43, -1.32693337588551670000e-001) (44, 9.34135260741882080000e-002) (45, 9.21191595621352610000e-002) (46, 1.48657266510844430000e-001) (47, -2.38793564426402930000e-002) (48, 1.90321852089731040000e-001) (49, -1.02667240407754430000e-001) (50, -9.23294115130665890000e-002) (51, -1.75181259706017640000e-001) (52, 1.28410730799417530000e-002) (53, -1.84541714758099330000e-001) (54, 2.78001028231099900000e-001) (55, -8.80097215365084900000e-002) (56, -5.05466434614870240000e-002) (57, -2.79620372439239870000e-001) (58, 1.84932894897004010000e-001) (59, 2.77141488374542170000e-001) (60, -5.98416649517366230000e-002) (61, 2.39064090719497660000e-001) (62, 2.59105121127993280000e-001) (63, 2.09533131642892470000e-001) (64, 1.44375832125567930000e-001) (65, 2.70629893566365350000e-002) (66, 2.79877678625435890000e-001) (67, 2.28680331199674570000e-001) (68, -3.26604005709241360000e-001) (69, -2.64453072977680340000e-001) (70, -1.88301947539334740000e-001) (71, -3.35047899996992330000e-002) (72, 2.70482319998085700000e-001) (73, -4.15100114150845910000e-002) (74, -2.65136729285586630000e-001) (75, -2.29614266936550850000e-002) (76, -3.44238294928800310000e-002) (77, -1.32275395881151780000e-001) (78, 2.14693470950361760000e-001) (79, -3.11528663702123450000e-001) (80, 1.57815275514420960000e-001) (81, 1.07488992222292400000e-001) (82, 1.11390072038903510000e-001) (83, -1.89409469389978270000e-001) (84, -1.25427251077780970000e-001) (85, -1.87301347391666510000e-001) (86, -1.56617339002947720000e-001) (87, -2.99448917232645380000e-001) (88, 1.21433560364038680000e-001) (89, 2.89689182284305010000e-001) (90, 2.77280950157069270000e-001) (91, -2.15988064338323270000e-001) (92, -2.84252940982696600000e-001) (93, -1.15832214351900900000e-001) (94, 2.95514398001808410000e-002) (95, -8.58211998222385840000e-002) (96, -2.13957161521869180000e-002) (97, 8.96753154569497470000e-002) (98, 1.68718829439557290000e-001) (99, -1.80958195342949410000e-001) (100, -6.85363796765159350000e-002) (101, -7.37731962908583230000e-002) (102, 7.62544081186285060000e-002) (103, -3.24748375147591970000e-001) (104, -1.02258511429520370000e-001) (105, -2.21473609188883620000e-001) (106, -1.77673117777349510000e-001) (107, 1.97898709890838850000e-001) (108, 2.58636484886665130000e-001) (109, 1.78308112554077520000e-001) (110, -2.59991465409257220000e-001) (111, -2.77917491512198470000e-001) (112, -2.13812264355510710000e-001) (113, -1.77352619969608270000e-001) (114, -3.12652885740362710000e-001) (115, 2.83976951161768950000e-002) (116, 1.34212556821292710000e-001) (117, 5.36472350846276810000e-002) (118, -1.99769774237285010000e-001) (119, -9.67416074676469280000e-002) (120, -1.07834495339738710000e-001) (121, 1.33603122108509940000e-001) (122, -1.23044101575205360000e-001) (123, 2.82183849103603280000e-001) (124, -2.24157723750977310000e-001) (125, 2.98900195933042400000e-001) (126, -1.78390836589742310000e-001) (127, -2.40436057503288780000e-001) (128, -3.18248910698547340000e-002) (129, -2.47614398165423690000e-001) (130, -1.43350199275866540000e-001) (131, 1.07182747457322280000e-002) (132, 1.36992569621702890000e-001) (133, 1.27587895694887270000e-001) (134, 1.42941770699732100000e-001) (135, 1.48992925842321710000e-001) (136, 2.33020028790633660000e-001) (137, -2.04962287075679040000e-001) (138, -2.64422079470231890000e-001) (139, 8.91560486138545800000e-002) (140, -6.56517145360655810000e-002) (141, 1.28736692553439030000e-001) (0, -3.89203096736185080000e+003) (1, -2.00239246823243040000e-001) (2, 2.86861042466253320000e-001) (3, -2.51092539274395680000e-001) (4, -2.22821053775987820000e-001) (5, -1.88342292640300000000e-001) (6, -3.00109875206544530000e-002) (7, 1.50915533340594270000e-001) (8, -8.57075176781038200000e-002) (9, -1.57560648590680330000e+000) (10, -1.24677266577598260000e-001) (11, -4.12704267349874310000e-002) (12, 1.00734623782899320000e-001) (13, -2.32884506556244900000e-001) (14, 2.78210460273840000000e-001) (15, -8.50464760367288240000e-002) (16, -2.40733276804068250000e-001) (17, 1.32932406004743820000e-001) (18, 2.91884127329732120000e-001) (19, -1.71592453587199270000e-001) (20, 5.29490763883804090000e-002) (21, 3.01945105532844370000e-001) (22, -1.85339362833474300000e-001) (23, 2.69916727782024360000e-001) (24, -1.11550293947223090000e-001) (25, -2.60599055191478860000e-002) (26, -1.68993276683113450000e-001) (27, -9.23807298763288790000e-002) (28, 3.64914520523278020000e-002) (29, -2.17718281622369030000e-001) (30, -2.30017098983807950000e-001) (31, -3.12655524076459810000e-002) (32, 8.64822902039806970000e-002) (33, -3.35517375126547050000e+000) (34, -3.53806379376083150000e+000) (35, 1.66790358919400810000e-001) (36, -2.70855465302846770000e-001) (37, 6.83519722348655960000e-002) (38, -2.21374520515382760000e-001) (39, 2.65026865999971050000e-001) (40, 1.76568610531830930000e-001) (41, -1.87792976212222130000e-001) (42, -1.53112799052905760000e-001) (43, -3.33969508532335480000e-001) (44, -1.65911976461484480000e+000) (45, 2.22659660508756820000e-001) (46, 1.98017333068188110000e-001) (47, 2.87106331561377050000e-001) (48, -8.34628507329062410000e-002) (49, -2.72204600660188590000e-001) (50, 1.91218766981022280000e-001) (51, -3.75554882339058260000e-001) (52, 1.34446936240913200000e-001) (53, 8.25191801504309290000e-002) (54, 2.70202293077065000000e-001) (55, 1.93221880511773030000e-001) (56, 2.53989619384855040000e-001) (57, -2.30548104864283230000e-001) (58, 1.26714371976837520000e-001) (59, 2.47149566709313840000e-001) (60, -2.76363660703216380000e-001) (61, 1.33556990741871720000e-001) (62, -5.80291472440938460000e-002) (63, -1.11136444648790730000e-001) (64, 2.03875156402100350000e-001) (65, -4.99328633122786410000e-002) (66, 2.24204543356153280000e-001) (67, -1.95025298907740200000e-001) (68, -3.51645614271197720000e+000) (69, -4.22066810619691780000e+000) (70, -1.68424310404701650000e-001) (71, -4.41458723525908540000e-001) (72, 1.02318015043803810000e-001) (73, 8.36242709010548420000e-002) (74, -1.66827399207249980000e-001) (75, -1.90393073971790730000e-001) (76, 2.39520273189555160000e-001) (77, -1.31268315763009010000e-001) (78, -6.75174067059300280000e-001) (79, -1.54773759457929730000e+000) (80, -3.37998557476801090000e-002) (81, -2.87216808572868080000e-001) (82, 5.33261112684835920000e-002) (83, 2.87917085354434780000e-001) (84, -4.41467302698583810000e-002) (85, 1.07514242675483500000e-001) (86, -9.82018861311412470000e-001) (87, 2.62383933467324690000e-001) (88, 4.21105929393415030000e-002) (89, 2.10073246097952440000e-001) (90, -1.42432478818779660000e-001) (91, 1.51760919665105740000e-001) (92, 2.32635507290979150000e-001) (93, 1.52572044382723950000e-001) (94, 5.10328079721009340000e-002) (95, 2.40913596683486750000e-002) (96, -2.31901755912794810000e-002) (97, 6.00414567523166670000e-002) (98, 7.77607596046513140000e-002) (99, -1.08679510354162370000e-001) (100, 1.88140876616671450000e-001) (101, -1.02282718908099920000e-001) (102, -4.58316443278613540000e-001) (103, -4.24460704508938760000e+000) (104, -3.88381095202836590000e+000) (105, -2.06471481936566250000e-001) (106, -1.41901011641837350000e-001) (107, -4.27959415843590530000e-003) (108, -6.84082058432977650000e-002) (109, 2.44555673780268990000e-001) (110, 2.97766125113412270000e-001) (111, -5.63781760683923490000e-002) (112, 1.44470220584480560000e-001) (113, -2.60053009754907580000e-001) (114, -1.73401446189589660000e+000) (115, -8.29578822085661470000e-002) (116, -1.76670286782359550000e-001) (117, 1.38555403757166350000e-001) (118, -1.69491115801324730000e-001) (119, 2.06682949413324130000e-001) (120, -2.37133581408663110000e-001) (121, -5.60511607608504380000e-001) (122, -1.47812150823129620000e-001) (123, -1.58898932095326020000e-001) (124, -1.81146247432479870000e-001) (125, -1.64269238848427120000e-001) (126, -1.81488475988552580000e-001) (127, -1.41918613842865750000e-001) (128, 5.03349186678117570000e-002) (129, -1.99546817121511290000e-001) (130, -1.25318112413821320000e-001) (131, -1.85380959303601180000e-001) (132, 6.60071746152228330000e-002) (133, 2.56091318769904320000e-001) (134, 2.89164503977843770000e-001) (135, 2.60028086504462410000e-001) (136, 1.57232672263489800000e-001) (137, -2.26506473552431670000e-001) (138, -4.37524507344936000000e+000) (139, -4.19633988979305710000e+000) (140, -4.74652098983882550000e-001) (141, -2.63559982488665360000e-001) (0, -2.22287342114919700000e+004) (1, -1.46067873952989680000e+000) (2, -2.22664798096732950000e-001) (3, 4.20410172955598680000e-002) (4, -1.33959966260590590000e-001) (5, 2.70281993161916030000e-001) (6, -7.11181668884819370000e-002) (7, 1.38958745756099230000e-001) (8, -1.88692966822980180000e+000) (9, -7.40258489181371540000e+000) (10, -7.03661051037015870000e-002) (11, 1.94450902896562970000e-001) (12, 7.04950820948663510000e-002) (13, -2.34398828673493400000e-002) (14, 2.09674080597324060000e-001) (15, -1.15501693271738010000e-001) (16, -2.45221156525366090000e+000) (17, -6.06407335112717040000e-003) (18, -7.43087841951417670000e-002) (19, 2.92982490165299200000e-001) (20, 3.00408807688681590000e-002) (21, 1.41958844408478260000e+000) (22, 2.22180184609896970000e-001) (23, -3.12471719230401460000e-001) (24, 1.09321817890254700000e-001) (25, -2.90720304778217530000e-001) (26, 1.92730706798996180000e-001) (27, -2.77285140712304650000e-001) (28, -4.04764138549445280000e-002) (29, 2.51267001110366590000e-001) (30, -2.75372325395437660000e-001) (31, 1.15633922564383660000e-001) (32, -8.49436497640848390000e-001) (33, -2.08490083720269260000e+001) (34, -2.18061567663744430000e+001) (35, -2.17743355594566780000e-002) (36, -1.79669183241805190000e+000) (37, -3.05768156406351630000e-001) (38, -2.78411876297468550000e-001) (39, 1.73291022510966290000e-001) (40, 5.83007835666649040000e-002) (41, 9.27978552499553190000e-002) (42, -8.80737339684856120000e-003) (43, -2.48679289979930340000e+000) (44, -1.01158659695340900000e+001) (45, -2.96702045251934780000e-001) (46, -6.91569757105052300000e-003) (47, 3.39065300437822180000e-002) (48, -4.49909379748084930000e-002) (49, -1.46374517535150520000e-001) (50, -4.80913018488642150000e-001) (51, -3.42176342386068160000e+000) (52, 6.39303958151043600000e-002) (53, -2.55776374893480820000e-001) (54, -2.58046882796202690000e-001) (55, -7.19957450311062700000e-002) (56, 1.36537240196224690000e+000) (57, -2.65649424618459310000e-001) (58, 1.08030475570729080000e-002) (59, 1.69188408975783250000e-002) (60, -1.65658549385802600000e-001) (61, 1.51436651315356520000e-001) (62, 2.07938025073627010000e-002) (63, -6.66499285306549620000e-002) (64, -2.29699881543655200000e-001) (65, 1.05157474881707460000e-001) (66, -2.68850698883887680000e-001) (67, -1.18908338890297930000e+000) (68, -2.11363153073262500000e+001) (69, -2.26826564620813400000e+001) (70, -1.10251722367773270000e+000) (71, -1.92820280547663180000e+000) (72, -4.05593215784091980000e-002) (73, -2.06286629290843850000e-001) (74, 1.35003667473938550000e-001) (75, 4.23339860572014000000e-002) (76, 2.23059090894821570000e-001) (77, -1.57836920334375460000e-002) (78, -2.29445362475835330000e+000) (79, -1.02173196165677120000e+001) (80, -1.56743626890112840000e-001) (81, -1.05374318011881630000e-001) (82, 2.28231905205432540000e-001) (83, 1.84054849446859370000e-003) (84, -1.29418950455146840000e-001) (85, -3.36474432985185980000e-001) (86, -4.66824589147041100000e+000) (87, -1.30978072889783440000e-003) (88, -1.56611740916813650000e-001) (89, 1.47087001619839650000e-001) (90, -2.10786717229923680000e-001) (91, 5.05064641016030320000e-001) (92, 3.89282242031185890000e-002) (93, 1.10471967916827040000e-001) (94, 2.51381648224946570000e-001) (95, -6.37447255642186040000e-002) (96, -1.97742295412894010000e-001) (97, -7.97937435705122490000e-002) (98, 1.94626174561328830000e-001) (99, -9.03416404616262940000e-002) (100, 2.85589610957686090000e-001) (101, 5.99487328508985230000e-002) (102, -1.72626997464011240000e+000) (103, -2.27791336303449010000e+001) (104, -2.25318343970463990000e+001) (105, -1.67695008238175270000e+000) (106, -1.81585846185276440000e+000) (107, -3.75963705058437510000e-001) (108, -1.40020757517049790000e-001) (109, -2.01434334176155970000e-001) (110, -9.00878942047711460000e-002) (111, 9.86938515779911540000e-003) (112, -1.38061528923572040000e-001) (113, -2.43439690855869980000e+000) (114, -1.14807429174541580000e+001) (115, 1.14040178099555510000e-001) (116, 1.62965669168424200000e-001) (117, -1.23125023278634740000e-002) (118, -2.50138480622640210000e-001) (119, 3.31889379411116970000e-002) (120, -4.07303624670963260000e-001) (121, -4.62830124527964680000e+000) (122, -2.83425033020686560000e-001) (123, 1.68823248895932920000e-002) (124, 1.31616216167458330000e-001) (125, -1.24311155490000020000e-001) (126, 4.48502352402007980000e-001) (127, 9.39751315783291660000e-002) (128, -2.72481001381990500000e-001) (129, -2.60149518720627910000e-001) (130, 2.16450224877145210000e-002) (131, -1.28709352057200050000e-001) (132, -2.62851479949699620000e-002) (133, 1.78582770768116460000e-001) (134, -1.53236480778669820000e-002) (135, 2.90258800596348010000e-001) (136, -2.85516368767275710000e-001) (137, -1.95570756489189800000e+000) (138, -2.47806937545955930000e+001) (139, -2.35803372028039990000e+001) (140, -1.86694941696483640000e+000) (141, -1.24659709169426230000e-001) (0, -1.46894787606100570000e+003) (1, -1.14914049640289670000e-001) (2, 1.83685712973759240000e-001) (3, -6.58996608217421450000e-002) (4, 7.20703153638169170000e-002) (5, -1.28741460193850800000e-001) (6, 2.71252452184853610000e-001) (7, -1.31817632191086890000e-001) (8, 1.02892486400882250000e-001) (9, -6.55515846064594570000e-001) (10, 7.38524294494313640000e-002) (11, -3.54087507281053010000e-002) (12, 2.51140555661701960000e-001) (13, -2.65331352119943460000e-001) (14, 7.89184601671877320000e-003) (15, -1.57197467627071350000e-001) (16, 1.17317542052746980000e-001) (17, 1.32432195730994820000e-001) (18, 1.34362821777697880000e-002) (19, 2.94433840148155060000e-003) (20, 7.58569389550152740000e-002) (21, 3.47620599675730450000e-001) (22, -2.50268564632278870000e-001) (23, -2.00789894854799170000e-001) (24, 5.26629889061318930000e-002) (25, -1.63443721379162850000e-001) (26, -1.28553500716591520000e-001) (27, 8.66242525571878640000e-002) (28, -1.93826542995695850000e-001) (29, 8.38243989223446810000e-002) (30, 2.27948007104714630000e-001) (31, -9.18779640207585400000e-002) (32, 2.62860644290020990000e-002) (33, -1.44045944615512190000e+000) (34, -1.41518770369009170000e+000) (35, 5.89236622745633110000e-002) (36, -1.08312006429692530000e-001) (37, 6.51455455294816240000e-002) (38, -2.22601327204756670000e-001) (39, -1.35772710473247570000e-001) (40, -1.41687017348886000000e-001) (41, -2.69256602496170670000e-001) (42, 1.94055183492309880000e-001) (43, -2.21477031505834950000e-001) (44, -5.28275955219696390000e-001) (45, 2.80526865238714400000e-001) (46, -1.21080502679550380000e-001) (47, 1.87258355357387440000e-001) (48, -2.71076029332277700000e-001) (49, 1.92498786946089240000e-001) (50, -2.81044262069105770000e-001) (51, -4.38147348239665950000e-001) (52, 1.48829509251321930000e-001) (53, 2.70597009992010230000e-002) (54, -2.02181329107012330000e-002) (55, -2.23963369563166980000e-001) (56, 9.39213171183146480000e-004) (57, -1.27294926933245730000e-001) (58, 2.03107908360895400000e-001) (59, -2.82960789053374410000e-001) (60, -2.71915405376967900000e-001) (61, -1.07598637777846410000e-001) (62, 1.82591557817029290000e-001) (63, -1.66961189841286610000e-001) (64, 1.95234735935612860000e-002) (65, 1.96179207014210990000e-001) (66, 2.94477773501731210000e-001) (67, 2.91902156599435840000e-002) (68, -1.22431204728139930000e+000) (69, -1.44586241323998580000e+000) (70, -2.39322039467030930000e-001) (71, -3.72894119427565670000e-001) (72, 1.28909304188050660000e-001) (73, -2.74823008967359780000e-001) (74, -1.17938237108319300000e-001) (75, 2.09912117716157810000e-001) (76, 1.95062263610452650000e-001) (77, 1.40954595444782170000e-001) (78, 1.21147456950066120000e-001) (79, -6.63085966119379420000e-001) (80, -1.54398379475054360000e-001) (81, 1.99351452156402240000e-001) (82, -1.17037246797385140000e-001) (83, -8.70319009682661850000e-002) (84, 2.22070321324281390000e-001) (85, -6.33435820492619490000e-003) (86, -1.58094924555241630000e-001) (87, -1.71769410147449340000e-004) (88, -4.39830490302734610000e-003) (89, -2.49832884968209660000e-001) (90, -1.90656968595013240000e-001) (91, -2.02557723463457130000e-001) (92, 2.31994638124888300000e-001) (93, -1.52108546982251790000e-001) (94, -4.86916404309658670000e-003) (95, -1.69650997016442820000e-001) (96, 1.73483746171684360000e-001) (97, 2.92492822625027070000e-001) (98, 2.05505490109325370000e-001) (99, 2.26939374675160340000e-001) (100, 1.01989750146458390000e-002) (101, -1.97277839870366730000e-001) (102, -6.64925015548564060000e-002) (103, -1.33944569047758980000e+000) (104, -1.54498500435020780000e+000) (105, 1.68877392826945890000e-001) (106, -3.94074584729811550000e-001) (107, -2.57118724905812280000e-001) (108, 1.02081302884471370000e-001) (109, 2.67919932521181180000e-001) (110, 2.48657236443250440000e-001) (111, -4.81567401948268530000e-002) (112, 1.65509039779863090000e-001) (113, -2.83573737653077580000e-001) (114, -5.25227258187050520000e-001) (115, 3.49559515434792540000e-002) (116, -1.63276643979723800000e-001) (117, -5.23611760310421780000e-002) (118, 6.00695566679215820000e-002) (119, 1.29784047718368990000e-002) (120, 4.40916751938049900000e-002) (121, -4.98512812151770460000e-001) (122, 1.98388705810960550000e-001) (123, -1.59301764142583120000e-002) (124, 2.28900155580049610000e-001) (125, -2.27963768028709240000e-001) (126, -1.88521051549127790000e-001) (127, -2.74149977287662380000e-001) (128, 1.65747293814096160000e-002) (129, 1.41024156965841950000e-001) (130, 1.37068985874638780000e-001) (131, 4.48144893720888660000e-002) (132, -2.52246103773359210000e-001) (133, -2.98095714970259000000e-002) (134, -2.16739144087631010000e-001) (135, 1.38336187137610980000e-001) (136, -1.30993657548970080000e-001) (137, -2.61971029712390500000e-001) (138, -1.82886318605236050000e+000) (139, -1.73183935594467280000e+000) (140, -3.35067766316292760000e-001) (141, -7.26571259356474240000e-002) (0, 2.59014854304819920000e+005) (1, 3.36762707714866280000e+001) (2, 9.92265094896497950000e-001) (3, -5.98571801128855440000e-002) (4, -3.75549331329239070000e-002) (5, 2.88922130621358520000e-001) (6, -9.08203161088749770000e-002) (7, 2.10003670454170790000e-001) (8, 3.89896008448089260000e+001) (9, 1.74527332426018120000e+002) (10, 1.31521661858105050000e+000) (11, 4.37172445274271900000e-001) (12, 2.76074061858825990000e-002) (13, 4.49744973973368320000e-001) (14, -2.19726571231149140000e-004) (15, 5.76356104038058530000e+000) (16, 5.05884212005616190000e+001) (17, 5.74572992923173320000e-001) (18, 1.58590485529114780000e-001) (19, 1.14150786497614800000e-001) (20, -4.56488515388293390000e-002) (21, -3.84440006818885750000e+001) (22, -2.12896736975380920000e-001) (23, 5.33835496060552030000e-001) (24, 5.25892261873962760000e-001) (25, 2.46745083109945500000e-001) (26, -5.95671144853769710000e-001) (27, 3.09871680713472260000e-001) (28, -7.06204154752658460000e-002) (29, -4.85909193613342020000e-002) (30, -1.31268315763009010000e-001) (31, 1.67474223184980180000e-001) (32, 2.03492389986817660000e+001) (33, 4.68330989485304880000e+002) (34, 4.87437456420195130000e+002) (35, 2.82346963772962670000e+000) (36, 4.26533000774536080000e+001) (37, 1.27794844397789590000e+000) (38, -2.79840099010471020000e-001) (39, 1.12060551327886060000e-001) (40, -7.35534697196271740000e-002) (41, -2.86560069980623670000e-002) (42, 2.97692882923001890000e-001) (43, 5.12756662256337210000e+001) (44, 2.33654656015822270000e+002) (45, 1.82730018921091220000e+000) (46, 1.65293731022580660000e-001) (47, -9.39576967237060330000e-002) (48, 9.03367619221645320000e-001) (49, -2.74969493348180550000e-001) (50, 7.49623602848505580000e+000) (51, 7.03914871516579550000e+001) (52, 2.91705233721923090000e-001) (53, -2.05837615895900720000e-001) (54, 1.49057417737609970000e-001) (55, -4.34380884650355840000e-003) (56, -3.75717242294690120000e+001) (57, -1.28210454313375520000e-001) (58, 2.56090958137796640000e-001) (59, 9.03651184814975420000e-001) (60, 1.57026888965818260000e-001) (61, -7.72834829790719380000e-001) (62, -6.43470998016172220000e-002) (63, 1.36140583043552460000e-002) (64, 2.43601658974219650000e-001) (65, -1.34564214331476250000e-001) (66, -1.56243927717167830000e-001) (67, 2.31128788123973690000e+001) (68, 4.80329246906615080000e+002) (69, 5.14742214811898180000e+002) (70, 1.67792187576769680000e+001) (71, 4.45779702276095690000e+001) (72, 1.99796842473897370000e+000) (73, 2.13134774094214660000e-001) (74, -1.57617193763144310000e-001) (75, -2.99670422064082230000e-001) (76, -1.22332768532942280000e-001) (77, -1.72998053749324750000e-001) (78, 5.36513059110646610000e+001) (79, 2.34666448692369190000e+002) (80, 1.35290599252731390000e+000) (81, 7.44612645853150040000e-002) (82, 6.30418640249721940000e-002) (83, 6.50539133009451540000e-001) (84, 6.45629908467526550000e-002) (85, 1.03120751405251830000e+001) (86, 1.05137346009678570000e+002) (87, 6.64691427302902870000e-001) (88, 1.51370876595929490000e-001) (89, 2.20548125438536440000e-001) (90, -1.04202677457367860000e-001) (91, -1.95400438263253660000e+001) (92, -1.27972417194541780000e-001) (93, -2.95379523029682400000e-002) (94, 7.38974931599077680000e-001) (95, -2.11095845500684640000e-001) (96, -7.65582464064943570000e-001) (97, -4.51573278336389990000e-001) (98, -3.00772709855236850000e-001) (99, 2.09933969088958340000e-001) (100, -1.25866704220243260000e-001) (101, -4.90722675749566410000e-003) (102, 3.33806909316914040000e+001) (103, 5.14804710605401170000e+002) (104, 5.13388537380053780000e+002) (105, 3.87918470642009370000e+001) (106, 4.87110797051561660000e+001) (107, 2.41257409302819340000e+000) (108, -2.97143566494924020000e-001) (109, 2.98663341945939460000e-001) (110, 2.95623791043908570000e-001) (111, -1.22058110318903350000e-001) (112, -6.73828151775524020000e-002) (113, 5.47907839246016200000e+001) (114, 2.59061031160102060000e+002) (115, 2.01319307972144750000e+000) (116, 3.78741729508345950000e-001) (117, 2.35257698491034560000e-001) (118, 5.84608442265768910000e-001) (119, -1.61577206843536410000e-001) (120, 1.25583117419948690000e+001) (121, 1.09136542920737990000e+002) (122, 4.65646533714984270000e-001) (123, 2.40417490022082350000e-001) (124, 1.15301518253545510000e-001) (125, -6.52835458546606600000e-002) (126, -1.22212592045748230000e+001) (127, -2.13321826602642100000e-001) (128, 3.80723598260536640000e-001) (129, 8.72964273068816960000e-002) (130, -2.70514699090204470000e-002) (131, -7.09521409824484530000e-001) (132, -1.95919066414570960000e-001) (133, -1.27423100766463900000e-001) (134, 4.27889307742601200000e-001) (135, -1.05541996381361970000e-001) (136, -1.78784186791745010000e-001) (137, 3.96762227893703850000e+001) (138, 5.62160356657487910000e+002) (139, 5.38630663270529230000e+002) (140, 3.53443648205107120000e+001) (141, -3.01251205996521890000e-001) (0, -5.45639832523089430000e+004) (1, -3.52131775719464950000e+000) (2, -3.62032484207432230000e-001) (3, 1.79278571577015100000e-001) (4, 1.73931891677057140000e-001) (5, 4.29931657708948480000e-002) (6, 1.55786139002884740000e-001) (7, 1.20410161034669730000e-001) (8, -4.21088908052975250000e+000) (9, -1.84718561715157250000e+001) (10, -9.48900186618825410000e-002) (11, -3.32954192411039770000e-002) (12, -2.22658617080312980000e-001) (13, 2.39782792378041070000e-001) (14, -2.53747568676772060000e-001) (15, -3.97286966840690200000e-001) (16, -5.82195739827254500000e+000) (17, 5.46238735565452020000e-002) (18, 2.62305679591220140000e-001) (19, 2.05488050380338520000e-001) (20, 5.25400462566365870000e-002) (21, 3.72609550453313480000e+000) (22, 2.17291268400003900000e-001) (23, -2.86085811531476110000e-001) (24, -1.53697820026158450000e-001) (25, -1.45109923944510860000e-001) (26, -3.78119227738957580000e-002) (27, -1.24546252992371040000e-001) (28, 1.64651243408602290000e-001) (29, -8.38076836701611700000e-002) (30, -1.39141851232125190000e-001) (31, 2.13334374381078330000e-001) (32, -2.50757648398840740000e+000) (33, -5.06405728981403060000e+001) (34, -5.23588685687367740000e+001) (35, -7.46761562895076110000e-001) (36, -4.37556521276326920000e+000) (37, 4.38575057406180370000e-002) (38, -9.90417519824404740000e-002) (39, -2.64477549571893180000e-001) (40, 2.53234873343899380000e-001) (41, -8.46313510191976090000e-002) (42, -2.54992685913748570000e-001) (43, -5.80393950106641740000e+000) (44, -2.50149795382272940000e+001) (45, -1.60391527329006160000e-001) (46, 8.05632031575357620000e-002) (47, -2.04286639342706690000e-001) (48, -2.25131531989489010000e-001) (49, -1.22332768532942280000e-001) (50, -9.83941057601876000000e-001) (51, -7.89065878366077560000e+000) (52, 8.37559653760596990000e-002) (53, -2.49649541868209230000e-001) (54, -1.70932497724650050000e-001) (55, 4.78169486188816940000e-002) (56, 3.92983644272280360000e+000) (57, -2.11395272071968070000e-001) (58, 7.97997891940020330000e-002) (59, -1.26781758449063310000e-001) (60, 2.86020502647251650000e-001) (61, 3.30259574537816010000e-001) (62, -1.28221796847768300000e-001) (63, -2.58712155916454970000e-001) (64, 2.49628556683954310000e-001) (65, -8.32580599490029270000e-002) (66, 2.65664448464768550000e-001) (67, -2.30870351735972390000e+000) (68, -5.17410782637380610000e+001) (69, -5.56999661457255830000e+001) (70, -2.08260748191328560000e+000) (71, -4.89366240417854480000e+000) (72, -1.22540813892543760000e-001) (73, 4.81933612900320440000e-002) (74, -1.77832038316410030000e-001) (75, -1.26507573386334120000e-001) (76, -2.81414806104294260000e-001) (77, 1.29602055931172800000e-001) (78, -5.60796910962992980000e+000) (79, -2.49754891246049480000e+001) (80, 7.96644430865064870000e-004) (81, 2.40533898924173680000e-001) (82, -1.86711179675445950000e-001) (83, -1.61072153239592730000e-001) (84, -1.95812996062159070000e-001) (85, -1.25245662702962730000e+000) (86, -1.15794634010477750000e+001) (87, -1.18062508793552580000e-001) (88, -2.41779122647907580000e-002) (89, 1.36112621448319090000e-001) (90, -2.43222873801314240000e-001) (91, 1.93879807941156870000e+000) (92, 1.80432136075978630000e-001) (93, -2.99552703699626670000e-001) (94, 1.48205416446726520000e-001) (95, 1.28128992564579910000e-001) (96, 1.76886546725465920000e-001) (97, -7.06665978472650750000e-002) (98, -3.53441459193233190000e-002) (99, -7.31186357320180720000e-002) (100, -8.48693881380313540000e-002) (101, -5.39794943324523050000e-002) (102, -3.34789459503349200000e+000) (103, -5.50002056859235040000e+001) (104, -5.51334065033464850000e+001) (105, -4.00885445624346470000e+000) (106, -5.33863075974364150000e+000) (107, -2.68110921980345350000e-002) (108, -1.75909430818137480000e-001) (109, -2.50012216965842530000e-001) (110, 2.27050790272187440000e-003) (111, 2.59149180219537810000e-001) (112, 3.64196791815629690000e-002) (113, -5.91553147866681870000e+000) (114, -2.78762348045613070000e+001) (115, -4.38338101118354530000e-001) (116, -1.62672143621842990000e-001) (117, -1.77672065265477100000e-001) (118, -5.21691584991797190000e-002) (119, 2.57207661259637340000e-001) (120, -1.51389413575205280000e+000) (121, -1.13090162258662070000e+001) (122, -2.90550269801085840000e-001) (123, 2.43731699138152180000e-001) (124, 1.62707525996665940000e-001) (125, -1.91323738247491350000e-001) (126, 1.34253744555013220000e+000) (127, 1.34196568506313780000e-001) (128, 1.89718415398213130000e-001) (129, -2.34516764355125020000e-002) (130, -7.73644378408524370000e-002) (131, 9.34721812550101810000e-002) (132, -1.81016729244315780000e-001) (133, 1.20648198153503470000e-001) (134, 4.04818107712756960000e-002) (135, -3.63830580863577780000e-002) (136, -1.86181648023193700000e-001) (137, -4.53601171225770370000e+000) (138, -6.00886210882407280000e+001) (139, -5.80695181800412710000e+001) (140, -4.08211006090492480000e+000) (141, 2.81670249719569330000e-001) (0, -2.74635414971589560000e+004) (1, -2.08651964685372220000e+000) (2, -3.03112172391440890000e-001) (3, -1.54888922170357550000e-001) (4, 1.08837894949829210000e-001) (5, -1.10284428210434270000e-001) (6, -2.84490978101530350000e-001) (7, -2.20642098611278930000e-001) (8, -2.22619325248848150000e+000) (9, -9.39796174465756450000e+000) (10, -2.99182054013515550000e-001) (11, 2.46132370905592870000e-001) (12, 1.34471999918736390000e-002) (13, -4.90222524341928440000e-002) (14, -1.38684087542060300000e-001) (15, -3.22752951647706950000e-001) (16, -3.05785624717895790000e+000) (17, 1.53092108876005440000e-001) (18, 2.84178196301203070000e-002) (19, -2.26355139712397120000e-001) (20, -1.06018220868137780000e-001) (21, 2.22316969070243120000e+000) (22, 1.67980963706213520000e-001) (23, -1.23883514430877880000e-001) (24, 7.84286980958281280000e-002) (25, -2.11489101182450460000e-001) (26, -2.57739680923613770000e-001) (27, -7.42361159100142640000e-002) (28, -1.66511171801143940000e-001) (29, -2.35579454769808180000e-001) (30, 2.56530771912366620000e-001) (31, -8.87015486487186390000e-002) (32, -1.05077939783693820000e+000) (33, -2.57171612234987990000e+001) (34, -2.63832670350258740000e+001) (35, -2.98497532385822220000e-001) (36, -2.53319436493863880000e+000) (37, -1.18807917725335730000e-002) (38, -1.23559575222316200000e-001) (39, 1.22094731414108540000e-001) (40, 6.65222194402304010000e-002) (41, 2.20751961896894500000e-001) (42, 2.19726571231149140000e-004) (43, -2.57978561079121030000e+000) (44, -1.30249638938011710000e+001) (45, 1.88458935079329340000e-001) (46, -4.22470141927065100000e-002) (47, 1.58661582122965130000e-001) (48, -8.43348512598811190000e-002) (49, 5.16723653345252390000e-002) (50, -6.93044359351646100000e-001) (51, -3.85745705758255310000e+000) (52, -1.55024459390489030000e-001) (53, 1.64032679263517530000e-001) (54, 1.92084438190694230000e-001) (55, -7.58194601553537770000e-002) (56, 1.63536397204389080000e+000) (57, -9.93347207440820060000e-002) (58, -2.62278631742509300000e-002) (59, 2.07524768087012980000e-001) (60, -1.53682702401055640000e-001) (61, -2.24867094034556400000e-001) (62, 1.70187505390258870000e-001) (63, 2.01892593851351080000e-001) (64, 9.97387268258742990000e-002) (65, -2.92547619046672480000e-001) (66, -2.34938083543967390000e-001) (67, -1.12343318549277080000e+000) (68, -2.62365720990275480000e+001) (69, -2.79002713006948430000e+001) (70, -9.14341661209169150000e-001) (71, -2.49685439200861300000e+000) (72, -2.55962233187763620000e-001) (73, 1.54467779575497840000e-001) (74, 2.57482920387701600000e-001) (75, -1.91619880661164640000e-001) (76, 8.14636262839485430000e-002) (77, 6.81884792720666160000e-002) (78, -3.06417048857406500000e+000) (79, -1.27324396863665450000e+001) (80, 8.15415687249566590000e-002) (81, 1.01251132117805560000e-001) (82, 1.95540614220589550000e-001) (83, -9.37067874615153810000e-002) (84, 1.68585211777099180000e-001) (85, -5.02147000832572240000e-001) (86, -5.54716716226604150000e+000) (87, 3.60664512949208790000e-002) (88, 1.17551439236195380000e-001) (89, -2.13942714561198290000e-001) (90, -1.21623209921379870000e-001) (91, 9.84348013209285440000e-001) (92, -1.63494879543577550000e-001) (93, -1.92717969973393330000e-001) (94, -2.65670273606835820000e-001) (95, 1.12680833573904900000e-001) (96, 3.06743841036467350000e-001) (97, 2.42137798875582680000e-001) (98, 1.34293186058904700000e-001) (99, 2.07096015128801600000e-002) (100, 9.28344763451605100000e-002) (101, -2.05517586291534830000e-001) (102, -1.75374895865505120000e+000) (103, -2.82003013059641030000e+001) (104, -2.79695104220587930000e+001) (105, -2.19441396298195990000e+000) (106, -2.71352371630351600000e+000) (107, -1.87101996680852730000e-001) (108, 2.37908945000526730000e-001) (109, 2.17456063328427260000e-001) (110, -9.15710485605814030000e-002) (111, 1.08801273854624010000e-001) (112, -2.98791515779157630000e-001) (113, -2.98745341676917020000e+000) (114, -1.38079894538083910000e+001) (115, -1.49254377905265160000e-001) (116, 2.47312755240603870000e-001) (117, -6.68769489620879560000e-002) (118, -2.79671038944855840000e-001) (119, -7.64671231609093120000e-002) (120, -5.42908264868292250000e-001) (121, -5.76629905618548030000e+000) (122, -2.55648385751991430000e-005) (123, 1.21948247033287770000e-002) (124, 2.91448986190516730000e-001) (125, -1.62233161913222730000e-001) (126, 3.12108233138690790000e-001) (127, 2.32533835514561970000e-001) (128, 1.94714005550498670000e-001) (129, 2.63042253302256060000e-001) (130, -1.39638512389864690000e-001) (131, 2.22140856695347780000e-001) (132, 1.75469977675675180000e-001) (133, -4.25537126284325500000e-002) (134, -2.18911575487930330000e-001) (135, 2.19470223564712800000e-001) (136, -2.60430918551719510000e-001) (137, -1.85933816538004940000e+000) (138, -3.02955957167875990000e+001) (139, -2.93680247719116140000e+001) (140, -1.72798265661377300000e+000) (141, 8.54923496171070000000e-002) (0, -4.05678073068762900000e+004) (1, -2.91187334529307580000e+000) (2, -3.05849208881867280000e-001) (3, -1.45935064392688220000e-002) (4, -2.53234873343899380000e-001) (5, -6.58996608217421450000e-002) (6, -9.60388221756147690000e-002) (7, 6.02966332553478420000e-002) (8, -3.06599982865053590000e+000) (9, -1.38667225104806280000e+001) (10, -2.75539116180284700000e-001) (11, 1.99302837429582550000e-001) (12, -3.31133684160685520000e-002) (13, -3.12237122599958840000e-001) (14, 2.40032968522427840000e-001) (15, -6.03317745164414610000e-001) (16, -4.16796042920035690000e+000) (17, 2.66307865612425370000e-001) (18, 2.17468637576670120000e-001) (19, -2.52929330333997780000e-001) (20, 2.87579881616162740000e-002) (21, 2.85954038319170990000e+000) (22, -1.79516608695848840000e-001) (23, 7.93364299127583550000e-002) (24, -1.13701121986188190000e-001) (25, 1.86697615224183770000e-001) (26, -4.12065812778307160000e-002) (27, -1.52094120376889440000e-001) (28, -2.61467474497106940000e-001) (29, 1.27095948392825950000e-001) (30, -6.62841823213966560000e-002) (31, -1.23027318807334180000e-001) (32, -1.76890970620532830000e+000) (33, -3.79593647962915240000e+001) (34, -3.96292893104451520000e+001) (35, -2.12208107089019880000e-001) (36, -3.72723868012022090000e+000) (37, -1.49658165621896770000e-001) (38, -2.02569588127516910000e-001) (39, 2.90899669762438860000e-001) (40, -4.38171404130116570000e-002) (41, -1.14440922516223510000e-002) (42, -8.92089879198465500000e-002) (43, -4.06391784404431800000e+000) (44, -1.87067384476866570000e+001) (45, -1.31071798559136280000e-001) (46, 2.12790191816558090000e-001) (47, 2.19311898002886950000e-001) (48, -3.16841079034557600000e-001) (49, -1.34967046378733360000e-001) (50, -5.87079994413934440000e-001) (51, -5.48947151062993570000e+000) (52, 3.14757615346151630000e-002) (53, 5.98304936426523050000e-002) (54, 1.72403740303411050000e-001) (55, -4.70313841745667110000e-002) (56, 3.12578516627159610000e+000) (57, -2.57812510244548320000e-001) (58, -3.85845634406265240000e-002) (59, -2.84053286897532620000e-001) (60, 2.61438676754998270000e-002) (61, 1.52587925557938990000e-001) (62, -3.08903287069616120000e-002) (63, 1.35735594641805110000e-002) (64, -1.03361243993245040000e-002) (65, -5.76782249481766480000e-002) (66, 3.06092306139852610000e-001) (67, -1.63916599524846050000e+000) (68, -3.86902350808019120000e+001) (69, -4.13838213411494000000e+001) (70, -1.76525674508454580000e+000) (71, -3.40984948311793050000e+000) (72, 1.03452933077575830000e-001) (73, 2.29083261056075570000e-001) (74, -1.84661872572178250000e-001) (75, 1.41540532968065240000e-001) (76, -1.93469245969026820000e-001) (77, 8.52355990900832690000e-002) (78, -4.37780916087993080000e+000) (79, -1.85244261376008300000e+001) (80, -2.45850869256613450000e-001) (81, 7.35235037837405900000e-002) (82, -9.76409358978539980000e-002) (83, -2.13212994094127860000e-001) (84, 1.46667486296792050000e-001) (85, -8.29288294793313450000e-001) (86, -8.78947511778797620000e+000) (87, 1.67507674901929480000e-002) (88, -3.57733208818849850000e-003) (89, -1.16516789701000430000e-001) (90, 2.02284451287437180000e-002) (91, 1.28337892916619370000e+000) (92, -3.73168960140901620000e-002) (93, -1.18061858598386920000e-001) (94, 1.12331089662500370000e-001) (95, -3.48203441746080260000e-002) (96, 1.75036219728680410000e-001) (97, 2.66935842418331290000e-001) (98, 2.02689087786760670000e-001) (99, -8.34083170676310460000e-003) (100, -1.89074714544403830000e-001) (101, -9.46655311054200870000e-003) (102, -2.78170997061100690000e+000) (103, -4.13364661492287130000e+001) (104, -4.11300789120261640000e+001) (105, -2.90890751028330370000e+000) (106, -3.58357685755278380000e+000) (107, 2.72055711528191480000e-002) (108, -2.97656261827796700000e-001) (109, -2.20916756825317860000e-001) (110, -1.13726811159722270000e-001) (111, 2.04400642887776480000e-001) (112, -1.25207524506549820000e-001) (113, -4.36454843943833030000e+000) (114, -2.04590542790832010000e+001) (115, -1.25904872780151970000e-001) (116, 3.64275681240654740000e-002) (117, 2.57420711089417080000e-002) (118, 1.55426207364503850000e-001) (119, -3.03467798748215420000e-002) (120, -1.19426702349188400000e+000) (121, -8.43181750442306390000e+000) (122, 1.38619651519890500000e-001) (123, 2.25402840987953820000e-002) (124, -2.98388683731900530000e-001) (125, -2.63228885892399400000e-001) (126, 9.36549407738956340000e-001) (127, 9.80938952972129490000e-002) (128, -2.76536107456764740000e-002) (129, -1.19730014454039010000e-001) (130, 9.07527046442187100000e-002) (131, 2.76347533921011860000e-001) (132, 2.21475975699139160000e-002) (133, -7.03674344367755110000e-002) (134, 1.65446637803670600000e-002) (135, -7.73803741685696880000e-002) (136, 1.99841316534730140000e-001) (137, -3.17605943311818750000e+000) (138, -4.48769180805173780000e+001) (139, -4.31259158877033930000e+001) (140, -2.85679918603096890000e+000) (141, 2.45800060447829480000e-001) (0, -3.53511063011751100000e+004) (1, -2.49448810799736000000e+000) (2, -2.77225928471031170000e-001) (3, -4.83764667660580020000e-002) (4, 1.40423589564306890000e-001) (5, -1.90759284923842640000e-001) (6, -2.88793956788140350000e-001) (7, -6.24206567772489510000e-002) (8, -2.57889799392022480000e+000) (9, -1.20643510142606640000e+001) (10, -2.94735276614841670000e-001) (11, 1.82547817615071690000e-001) (12, -8.47832024866406880000e-002) (13, -1.55155747699216720000e-001) (14, 1.98706062583369200000e-001) (15, -5.03042268674024910000e-001) (16, -3.43371542660093840000e+000) (17, -2.72345732608331110000e-001) (18, -1.24079818853107910000e-001) (19, 1.30326929537371460000e-001) (20, 8.09800037483620200000e-002) (21, 2.72822476767465050000e+000) (22, -2.81799327603948770000e-001) (23, -3.19754524652543840000e-001) (24, -2.45787971375920570000e-001) (25, 8.19660365324254010000e-002) (26, -7.84400896387725670000e-002) (27, 1.22543762537613020000e-001) (28, -1.82013860504774000000e-001) (29, 9.97392707802448740000e-002) (30, 1.89001472353993450000e-001) (31, -2.62905977713586650000e-001) (32, -1.64671329158987280000e+000) (33, -3.30494557050840640000e+001) (34, -3.42201539446876670000e+001) (35, -9.68834022218815340000e-002) (36, -2.98314648421819230000e+000) (37, -1.53958507160520930000e-002) (38, -1.71990973631181990000e-001) (39, 1.33612065856141270000e-001) (40, 2.58599863791459940000e-001) (41, 8.84582554681401230000e-002) (42, -1.06164554999850220000e-001) (43, -3.43935181951658020000e+000) (44, -1.63297735943647630000e+001) (45, -4.18390737815677590000e-001) (46, 1.61672690048340030000e-001) (47, 1.96209357723049070000e-001) (48, 6.70817747307452040000e-005) (49, -2.41918954925495200000e-001) (50, -6.32438960736532830000e-001) (51, -4.87018576241644750000e+000) (52, 2.18371733008084770000e-001) (53, -1.42399738440249530000e-001) (54, -1.79246358378104540000e-002) (55, -1.89999136743777860000e-001) (56, 2.69180172152438950000e+000) (57, -1.78344733649282720000e-001) (58, 2.36525385875401010000e-001) (59, 3.27237451591514200000e-002) (60, -2.15891641318985970000e-001) (61, -1.25822785997005610000e-001) (62, 2.57323443851877540000e-002) (63, 1.76170570050548090000e-001) (64, 9.08406652982534650000e-002) (65, 2.60009775956859810000e-001) (66, -7.43385636453636200000e-002) (67, -1.45599934664098860000e+000) (68, -3.33922785937058750000e+001) (69, -3.63740000877285820000e+001) (70, -1.24240674379510050000e+000) (71, -3.14308422489372270000e+000) (72, 1.45689329870780020000e-002) (73, 7.98889191901253070000e-002) (74, -1.56427008168975590000e-001) (75, -2.72515879969432720000e-001) (76, 1.98651130940561420000e-001) (77, -2.26885995343764080000e-001) (78, -4.02254414733574260000e+000) (79, -1.64595067307321050000e+001) (80, 8.05043610873003300000e-002) (81, -3.88744410884663410000e-002) (82, -3.92546962867438040000e-004) (83, 1.13206250937466900000e-001) (84, 8.22509798308601600000e-002) (85, -5.42757373882432390000e-001) (86, -7.11946785783722720000e+000) (87, 2.07418359859944700000e-001) (88, -2.65018840536750400000e-001) (89, -1.31406774680609130000e-001) (90, -1.85616280668674530000e-001) (91, 1.46421523015288750000e+000) (92, -2.41149911926186180000e-001) (93, 7.14272024600829110000e-002) (94, -2.98934248857462060000e-001) (95, -1.69109205215847710000e-002) (96, 2.56274671132899920000e-001) (97, 9.05636675766987030000e-002) (98, 9.27431596897902310000e-002) (99, 2.71763527828136010000e-001) (100, 1.52233892767981160000e-001) (101, 1.56372076526167800000e-001) (102, -2.02912983540904080000e+000) (103, -3.59850735159552570000e+001) (104, -3.59462548053051950000e+001) (105, -2.68750802631657450000e+000) (106, -3.44012567009521630000e+000) (107, -1.10455856003123740000e-001) (108, -1.17590336703869980000e-001) (109, 2.23498544037283860000e-001) (110, 2.81488048294704640000e-001) (111, 1.86804206641681960000e-001) (112, 1.63549811186385340000e-001) (113, -3.98573104708094350000e+000) (114, -1.79540498707052550000e+001) (115, 9.70144971607675020000e-002) (116, -2.92290652955850770000e-001) (117, -2.64050641134974120000e-001) (118, 1.77400057640856920000e-001) (119, -1.56290808872536770000e-001) (120, -8.35394152535137380000e-001) (121, -7.52480559729478400000e+000) (122, -5.72404661329803180000e-002) (123, 2.33697519051929700000e-001) (124, -7.83325226439046670000e-002) (125, -1.82093190720041040000e-001) (126, 4.58088045561186320000e-001) (127, 1.17867554042400930000e-001) (128, -1.40654889367334780000e-001) (129, 2.41200455907522040000e-001) (130, 5.95905473620583630000e-002) (131, 2.80337038921307510000e-002) (132, 2.57812510244548320000e-002) (133, 1.34326177212642510000e-001) (134, -1.40187567118452840000e-001) (135, -6.36474634666228670000e-002) (136, 6.45080592039448670000e-002) (137, -3.00262983657400010000e+000) (138, -3.90355180079369010000e+001) (139, -3.78800630695097670000e+001) (140, -2.61661434466082720000e+000) (141, -3.27369898286165030000e-002) (0, -4.82023240691532050000e+004) (1, -3.30811137292748910000e+000) (2, -1.36729549278604590000e-001) (3, -1.86914069927297530000e-001) (4, -2.38458261428604600000e-001) (5, 7.32788115055882370000e-002) (6, -9.48852576766512360000e-002) (7, 9.33105505828280000000e-002) (8, -3.55130171560513920000e+000) (9, -1.66538370550250430000e+001) (10, 5.35081578235275730000e-002) (11, -3.10223711899917820000e-001) (12, 1.27787671968552560000e-001) (13, -4.85653094206922810000e-002) (14, -9.99755899101728570000e-002) (15, -8.58531335682630960000e-001) (16, -5.10682854568665250000e+000) (17, -2.62619744866438960000e-001) (18, -1.86802504587542610000e-001) (19, 8.17766076473320220000e-002) (20, -1.88780043728622950000e-001) (21, 3.57774200236322670000e+000) (22, -2.26373300010891400000e-001) (23, 2.35395222120188790000e-001) (24, 1.72373990186265510000e-001) (25, -1.86055503885838030000e-001) (26, -3.25301512706961530000e-002) (27, 9.73089940344474690000e-002) (28, 2.37370859889024870000e-001) (29, 2.11729876190713120000e-001) (30, 1.21398930605209900000e-002) (31, 2.67760993849573300000e-001) (32, -2.21551149107655740000e+000) (33, -4.51571063867654560000e+001) (34, -4.69719773528239980000e+001) (35, -7.13572116061392920000e-001) (36, -4.19443156571866640000e+000) (37, -1.72407235278589340000e-001) (38, 1.97149666037148560000e-001) (39, 2.75427257038245440000e-001) (40, 2.24011239370156550000e-001) (41, -1.95812996062159070000e-001) (42, 1.56994635144656060000e-001) (43, -5.11044310747909410000e+000) (44, -2.20952411629035160000e+001) (45, -3.06703383043491930000e-001) (46, -8.05497017282876810000e-002) (47, -2.47427257911568360000e-001) (48, 1.17050596539820430000e-001) (49, 7.56408721463230900000e-002) (50, -8.66451620403079770000e-001) (51, -6.59446316482587580000e+000) (52, -2.77546523208629210000e-001) (53, 2.89393784558881760000e-001) (54, -1.37882843747690330000e-001) (55, -9.84073328123563630000e-002) (56, 3.23798434823324840000e+000) (57, 1.67175299611699300000e-002) (58, -3.69559545874664220000e-002) (59, -3.79447987081041600000e-002) (60, 2.90201839257677730000e-001) (61, 2.19439129863309380000e-001) (62, -2.49202185653514570000e-001) (63, -9.91412310412211890000e-002) (64, 1.33390356213574980000e-002) (65, -2.58490000505844360000e-001) (66, -2.83461528044060000000e-001) (67, -2.14818763771509860000e+000) (68, -4.59662415791876030000e+001) (69, -4.94432111205732600000e+001) (70, -1.61596441000787050000e+000) (71, -4.33511828915977220000e+000) (72, -4.44154742161914250000e-001) (73, 1.73052985392132540000e-001) (74, 1.85485847214295060000e-001) (75, 2.23663338965707230000e-001) (76, 1.85998542547167740000e-001) (77, 5.86669945187168200000e-002) (78, -4.80669434999945900000e+000) (79, -2.23504197182998040000e+001) (80, -3.00895316724580140000e-001) (81, -1.77888101166554510000e-001) (82, 8.92110176157090430000e-002) (83, -1.66961514809595150000e-001) (84, 1.78527839125308670000e-001) (85, -7.13205229531122090000e-001) (86, -9.89355935985225270000e+000) (87, 8.29273690461257850000e-002) (88, -6.15071590929816560000e-002) (89, -2.72993983902962700000e-001) (90, -2.08890786442137430000e-001) (91, 1.53304405250778150000e+000) (92, 2.06597908600087980000e-001) (93, -6.72264059129545070000e-002) (94, -6.22472965587461470000e-002) (95, -9.01081911633960790000e-003) (96, -8.62508349108876690000e-002) (97, -1.61292372703249500000e-001) (98, -6.35518744723490430000e-002) (99, -1.85972180929757310000e-001) (100, -1.38171392209187620000e-001) (101, 7.24182157682662360000e-002) (102, -3.11107298612413040000e+000) (103, -4.94303622707397990000e+001) (104, -4.92403838656925150000e+001) (105, -4.02739440960425110000e+000) (106, -4.29634311875221010000e+000) (107, -3.20408313808680960000e-001) (108, 1.15759281943610400000e-001) (109, -8.69567905647272710000e-002) (110, 4.34143083657545500000e-002) (111, 2.11138924405531720000e-001) (112, -2.44995126922731290000e-001) (113, -5.53750606302730300000e+000) (114, -2.47616785271390820000e+001) (115, 1.20007884436151070000e-001) (116, 1.35467763445932650000e-002) (117, -2.49414057982544350000e-001) (118, 3.92666327866979680000e-003) (119, 1.30826832924684220000e-001) (120, -1.29779326415060430000e+000) (121, -1.02305039071051420000e+001) (122, -2.31764889318072010000e-001) (123, 2.60284434170898750000e-001) (124, 1.51025396626209840000e-001) (125, -2.35093642759393260000e-001) (126, 8.91052839695110290000e-001) (127, -1.30828693016880600000e-001) (128, 2.69684970370865420000e-001) (129, -4.87776077391827090000e-002) (130, -1.36122640573559380000e-001) (131, -5.97458210306436520000e-002) (132, -4.42749041030765510000e-002) (133, 2.93078624927147760000e-001) (134, -1.35372668929881940000e-003) (135, -1.74060065510275310000e-001) (136, 2.46826181682990860000e-002) (137, -4.01359627505824790000e+000) (138, -5.33965917228527620000e+001) (139, -5.14221889232041960000e+001) (140, -3.28531680178142290000e+000) (141, -2.20459089996451060000e-001) (0, -2.29243602008993370000e+004) (1, -1.76658412985960060000e+000) (2, -8.21752448210280320000e-002) (3, -5.77697776861896270000e-002) (4, -2.72845469826279440000e-001) (5, -2.15277108163718370000e-001) (6, -5.62683127827767750000e-002) (7, 6.50024439892149530000e-002) (8, -1.76762944689641750000e+000) (9, -8.21393818322999710000e+000) (10, -3.86822327458008070000e-002) (11, -2.04066202481241160000e-001) (12, 1.43853142354036400000e-001) (13, 1.51640677616445370000e-001) (14, 1.96563728513865500000e-001) (15, -1.29037324455413630000e-001) (16, -2.05942933225996240000e+000) (17, -8.69166763142598660000e-002) (18, 2.54067228458243420000e-001) (19, 1.65096277657230640000e-001) (20, -1.20166604541852680000e-001) (21, 1.60270865031782890000e+000) (22, -7.79113800490449650000e-002) (23, -1.71258891183937110000e-001) (24, -2.77032755482711390000e-001) (25, 2.54520730857364600000e-001) (26, 6.78920545085655860000e-002) (27, 1.36819593739598760000e-001) (28, -1.08416863970368630000e-001) (29, 2.65624894841408780000e-001) (30, -1.46612554653984260000e-001) (31, -1.91248779584900890000e-001) (32, -7.80923665285078060000e-001) (33, -2.11689176423590800000e+001) (34, -2.22449690805775940000e+001) (35, -4.11985927860047810000e-002) (36, -2.16845942881441540000e+000) (37, 5.53740180436887090000e-002) (38, -1.91033943137881580000e-001) (39, -1.70306403251743180000e-001) (40, -2.28881845032447020000e-003) (41, -2.43347177638497670000e-001) (42, 1.29949956335622120000e-001) (43, -2.09475364608163210000e+000) (44, -1.04766859131959600000e+001) (45, -4.78712525685194050000e-003) (46, 2.71570952367788440000e-001) (47, 2.07010021903202390000e-001) (48, -2.79686554909440440000e-001) (49, -4.57763690064894040000e-002) (50, -3.66081673223627780000e-001) (51, -3.45515142801443400000e+000) (52, -1.05847203559055660000e-002) (53, 8.95784263311655560000e-002) (54, -1.13247509462787690000e-001) (55, -3.04967530018726400000e-001) (56, 1.67109986953972970000e+000) (57, -2.05224617529893290000e-001) (58, 1.01912916521519900000e-002) (59, -1.57175067988452680000e-001) (60, -2.37735739258139180000e-001) (61, 7.44172404178526090000e-002) (62, 1.37808135593305790000e-001) (63, -7.13351607886228560000e-002) (64, -3.85104748176282670000e-002) (65, 1.58679205524094870000e-001) (66, 2.14048582297470920000e-001) (67, -7.78965674064755140000e-001) (68, -2.16585635354457690000e+001) (69, -2.32407573191521170000e+001) (70, -8.63110597475440390000e-001) (71, -2.09300474119311990000e+000) (72, -1.42748402832059500000e-001) (73, -7.08251981268404050000e-002) (74, 1.91986091613216560000e-001) (75, -2.48272714943595930000e-001) (76, 4.29016130328818690000e-002) (77, 1.13305668564862570000e-001) (78, -2.21952384333188400000e+000) (79, -1.04951782650888340000e+001) (80, -2.40335180790473580000e-001) (81, 2.51643306002559350000e-001) (82, -1.51560842024129810000e-001) (83, 1.87203405459317350000e-001) (84, 8.88061558725894430000e-003) (85, -5.77141232438380560000e-001) (86, -4.94907871810167870000e+000) (87, -1.05766676056204490000e-002) (88, 7.18592103665001980000e-002) (89, 1.61324545952796830000e-001) (90, -2.77177699983396200000e-001) (91, 5.68142018937663580000e-001) (92, -1.09295658639894100000e-001) (93, -2.17786376308269050000e-001) (94, 1.53553094757325730000e-001) (95, -1.35772863426555760000e-001) (96, -7.89129499295101180000e-002) (97, -1.80705973571977710000e-001) (98, -1.31594421673306480000e-001) (99, -1.36261346076229830000e-003) (100, 2.26611337129725140000e-001) (101, -2.07696541456243720000e-001) (102, -1.38381646170638390000e+000) (103, -2.35661447383359860000e+001) (104, -2.34137796417047990000e+001) (105, -1.98403493160300150000e+000) (106, -2.40229953053070840000e+000) (107, -3.10582046485088140000e-001) (108, -2.76763927013234930000e-001) (109, 3.12011731148231770000e-002) (110, 2.46240244159707800000e-001) (111, -2.06542976957280190000e-001) (112, 2.47503671944286910000e-001) (113, -2.61797316728339750000e+000) (114, -1.18277593172471920000e+001) (115, -2.21938751067652710000e-001) (116, -3.49173351082360870000e-002) (117, -1.41144062015345820000e-001) (118, 2.50558119562630190000e-001) (119, 1.25504248236001450000e-001) (120, -5.30249143026696790000e-001) (121, -4.86582392975910590000e+000) (122, 2.83064347002785650000e-001) (123, 1.94970710872439670000e-001) (124, 5.03723164547409400000e-002) (125, 2.93143500118801750000e-001) (126, 6.91460792228547280000e-001) (127, -2.36129502834499350000e-001) (128, 2.69589177820625080000e-001) (129, 1.37645313036422120000e-002) (130, 2.20289902694157520000e-001) (131, 3.04574511806523990000e-002) (132, 1.73063734479735500000e-001) (133, 1.38500982066034340000e-001) (134, 2.82275099911391380000e-001) (135, -9.16809118461969770000e-002) (136, -2.11779793571622580000e-001) (137, -1.60695762093323750000e+000) (138, -2.56568689166279750000e+001) (139, -2.42492398455480400000e+001) (140, -1.60916982903934440000e+000) (141, -1.66485330691612030000e-001) (0, -1.49236440561980610000e+003) (1, 6.10228615164670540000e-002) (2, 2.17827873715792460000e-001) (3, 2.42926035043637970000e-001) (4, 1.40240484088280940000e-001) (5, 2.03228767841210360000e-001) (6, -2.94891369139804740000e-001) (7, 1.60198980975110320000e-001) (8, -3.96569945119337080000e-001) (9, -6.84548060994777500000e-001) (10, 2.94125221075271500000e-001) (11, -1.84418807986222070000e-001) (12, 4.09515082845542870000e-002) (13, -2.92606754517649060000e-001) (14, -2.47576914134697290000e-001) (15, 1.55082061468352350000e-001) (16, -4.45162300964646320000e-001) (17, 1.31319146105939730000e-001) (18, -2.55631750551102320000e-001) (19, -2.13810459826773550000e-001) (20, -2.75207156487580820000e-001) (21, -1.77153359269212750000e-001) (22, -1.73950202224659730000e-002) (23, 2.86079962714420160000e-001) (24, -1.12635399479924430000e-001) (25, -1.07533807280397210000e-001) (26, 2.88048699768520430000e-001) (27, -1.08466906649280230000e-001) (28, 2.03859568325673230000e-001) (29, 1.24016833755334870000e-001) (30, -2.03320320579223330000e-001) (31, -2.33107589187817070000e-001) (32, -1.39525129555008870000e-001) (33, -1.18619331326715760000e+000) (34, -1.22727933108098460000e+000) (35, 2.72784207241693780000e-001) (36, -3.00724566417933880000e-001) (37, -1.23228670391370420000e-001) (38, -7.42309599809232170000e-002) (39, -4.72595233622996600000e-002) (40, 1.43499761561542980000e-001) (41, -2.31591806077631190000e-001) (42, -3.44604505880852230000e-002) (43, -2.75022063004779940000e-001) (44, -8.05714071723204080000e-001) (45, 3.16490119974751840000e-002) (46, 2.36867191478050370000e-002) (47, 9.43526492708672000000e-002) (48, -2.14500678438487190000e-001) (49, 8.53454623756988440000e-002) (50, -1.31637968961875050000e-001) (51, -4.06184373866361690000e-001) (52, -3.63612052261840650000e-002) (53, -9.81734209243084600000e-002) (54, -6.29622378845168110000e-002) (55, 1.42228749980400390000e-001) (56, 3.45074055081472030000e-002) (57, -2.11322029881557680000e-001) (58, 2.21049378620717770000e-001) (59, 1.73755733582787510000e-001) (60, -1.96518061717987940000e-001) (61, 2.00420531348182610000e-001) (62, -1.55381799417238790000e-001) (63, -2.79197440112044340000e-001) (64, 3.63742671924367630000e-002) (65, 2.00518806796026180000e-001) (66, -1.69093112896953830000e-001) (67, 3.23177272921694320000e-002) (68, -1.36830088342475250000e+000) (69, -1.45512939862783930000e+000) (70, -1.75614996015507370000e-001) (71, -2.54278223758572620000e-001) (72, -1.57405045134814350000e-001) (73, -3.67309584908070970000e-002) (74, -3.84521499654510990000e-003) (75, -1.09790043425164190000e-001) (76, 1.62908942020294490000e-001) (77, -1.84570319834165280000e-002) (78, -3.37436256725111850000e-001) (79, -8.81619856233854750000e-001) (80, 2.87003292943671660000e-001) (81, -2.70463082137856690000e-001) (82, -5.49109737290428000000e-002) (83, 1.26499203024772800000e-001) (84, -2.91009533048054440000e-001) (85, 1.72541340940489450000e-001) (86, -2.62002642450684220000e-001) (87, -1.48952995637322670000e-001) (88, 1.47041113875044900000e-001) (89, 2.65027790071638710000e-002) (90, 2.52617469438939420000e-001) (91, -1.45226575024446390000e-001) (92, 5.14892598584992810000e-002) (93, -1.50356288686306130000e-001) (94, 1.98385888150813340000e-001) (95, -1.71588257068336910000e-001) (96, 5.79918628561982290000e-002) (97, 9.75939113526766020000e-002) (98, -2.72719432520343140000e-001) (99, -2.91993177913133450000e-001) (100, 5.44921896653249860000e-002) (101, -7.20336942686117250000e-002) (102, -3.73357987412200830000e-001) (103, -1.24715999985895130000e+000) (104, -1.46578272140242950000e+000) (105, 1.05022790425575720000e-003) (106, 2.29331865063311660000e-002) (107, 1.18044844163352200000e-001) (108, -1.93762214730668350000e-001) (109, 2.38018808286142300000e-001) (110, 1.79644782529067020000e-001) (111, -2.32232675243722040000e-001) (112, 2.92675792879890650000e-001) (113, 1.02338784939376300000e-002) (114, -9.67993089018809320000e-001) (115, 1.76000898044910510000e-001) (116, 2.92702160457646960000e-001) (117, -2.36628366840247070000e-001) (118, 1.20947750466320690000e-003) (119, -1.92167882636550570000e-001) (120, 5.77569904984037360000e-002) (121, -7.66604618950344900000e-002) (122, -1.43311810218552720000e-001) (123, -9.40246619393292350000e-002) (124, 1.49560552818002180000e-001) (125, -1.78744698858469580000e-001) (126, 1.53423038535331020000e-002) (127, -1.31309466240154830000e-001) (128, 1.90485625967519450000e-001) (129, -9.26117793308531140000e-002) (130, 2.87797020843497180000e-001) (131, 3.00887476318415610000e-001) (132, 2.81006199516248560000e-001) (133, -2.14270028045575600000e-001) (134, -7.03981791638776530000e-002) (135, 2.03009041269979210000e-001) (136, -2.84655773029953710000e-001) (137, -3.73914323113345990000e-001) (138, -1.32778202133430570000e+000) (139, -1.34674629043816200000e+000) (140, 6.06366886384614930000e-002) (141, -2.05080540520229030000e-001) (0, -6.43816139338482750000e+003) (1, -1.59592282633927000000e-001) (2, -6.73560570386089740000e-002) (3, -1.12646488851169120000e-001) (4, -2.01141365414514440000e-001) (5, -9.66980018893082160000e-002) (6, 2.21704110372229480000e-001) (7, 2.25787362487608330000e-001) (8, -6.31646286645381920000e-001) (9, -2.18147806939355960000e+000) (10, -1.99062809343777400000e-001) (11, -1.84831322364670560000e-001) (12, -2.68991685274541930000e-001) (13, -2.76566623595493890000e-001) (14, 6.92871121282223610000e-002) (15, -3.27550674652639540000e-001) (16, -8.08652184468349850000e-001) (17, -1.43278886190417510000e-001) (18, -7.16549290315313390000e-002) (19, 1.24817246744310770000e-001) (20, 1.89801380185919690000e-001) (21, 4.44768443635564950000e-001) (22, -1.57818609786772870000e-001) (23, -2.58238566438425190000e-001) (24, 1.01725982206603120000e-001) (25, 8.80125477536147780000e-002) (26, -3.05684176838406890000e-002) (27, -4.73903351339672320000e-002) (28, 5.29755980140122280000e-002) (29, 1.30265091938930210000e-001) (30, -2.06762703528511340000e-001) (31, 1.36224269541182300000e-001) (32, -1.53696839290530350000e-001) (33, -6.08612869641486220000e+000) (34, -6.38036771350936420000e+000) (35, 1.14897937160449630000e-001) (36, -5.99307642301690200000e-001) (37, -2.26783016430362190000e-001) (38, -3.26110852802230510000e-002) (39, -2.81561290485115020000e-001) (40, 2.21557625991408710000e-003) (41, 2.42175302591931540000e-001) (42, -1.57781988691567680000e-001) (43, -8.55771105291513350000e-001) (44, -2.99521240730336570000e+000) (45, 2.52282169271600020000e-001) (46, -5.13615598951277090000e-002) (47, -4.32367628879856970000e-002) (48, 1.42866575232141190000e-001) (49, 7.34252958864090030000e-002) (50, -2.70226989591248860000e-001) (51, -1.08108374706868600000e+000) (52, -7.50578964958621700000e-002) (53, -1.59012924124971030000e-001) (54, -1.05399640744556810000e-001) (55, 8.82647666760355140000e-002) (56, 6.20166151552229650000e-001) (57, 2.40710458783723880000e-001) (58, 2.60370858009004220000e-001) (59, -1.42562273340174100000e-001) (60, 9.55185127648673640000e-003) (61, 1.16268164224148000000e-001) (62, -1.81602982987632190000e-001) (63, -1.64266408359966500000e-001) (64, -2.05985061139613600000e-001) (65, 3.54309096110227980000e-002) (66, -4.34567308644223660000e-002) (67, -5.57877079719144690000e-001) (68, -6.01817691684678380000e+000) (69, -6.30646961085571170000e+000) (70, -6.76284571648985010000e-002) (71, -4.99196796932793230000e-001) (72, -1.59588535001741800000e-001) (73, -2.77459727822133570000e-001) (74, -6.14318872067087800000e-002) (75, -2.16192635543848160000e-001) (76, 1.75286872199649220000e-001) (77, 9.78698769358743450000e-002) (78, -5.77675736032713380000e-001) (79, -2.70427942577251780000e+000) (80, -2.45468587910084080000e-001) (81, -1.88050441095755330000e-001) (82, -2.97613386160542340000e-001) (83, -3.00854370253781090000e-001) (84, 1.98303230536112100000e-002) (85, 1.34044964931854890000e-001) (86, -1.38103653395400920000e+000) (87, -2.02443209978902010000e-002) (88, -2.48663491015327360000e-001) (89, 1.02862401859319940000e-001) (90, 3.12252850658883970000e-002) (91, 4.00741294485567890000e-001) (92, -3.53759779682150110000e-002) (93, 1.08353974164912730000e-001) (94, -2.78967071268110210000e-001) (95, -3.84584045375210850000e-002) (96, -2.80943216349943510000e-001) (97, -2.87414295159574450000e-001) (98, -3.84001144235487990000e-002) (99, 1.50585485235327970000e-002) (100, 2.26171883987262850000e-001) (101, -6.41235377042903560000e-002) (102, -5.75899747181990880000e-001) (103, -6.37751042712603940000e+000) (104, -6.67793847218246480000e+000) (105, -6.55165964644627730000e-001) (106, -8.51396181922856270000e-001) (107, -2.67223250791645000000e-001) (108, -1.69573981347639350000e-001) (109, 8.53271518280962480000e-002) (110, -1.95977790990582430000e-001) (111, 1.78527839125308670000e-002) (112, -2.93353283141186690000e-001) (113, -8.71575346237965510000e-001) (114, -3.42583550139780300000e+000) (115, 2.08162808620856930000e-001) (116, -2.09103131272804920000e-001) (117, -1.91016085758907160000e-001) (118, 