FANN_FLO_2.1
num_layers=3
learning_rate=0.001000
connection_rate=1.000000
network_type=0
learning_momentum=0.000000
training_algorithm=0
train_error_function=1
train_stop_function=0
cascade_output_change_fraction=0.010000
quickprop_decay=-0.000100
quickprop_mu=1.750000
rprop_increase_factor=1.200000
rprop_decrease_factor=0.500000
rprop_delta_min=0.000000
rprop_delta_max=50.000000
rprop_delta_zero=0.100000
cascade_output_stagnation_epochs=12
cascade_candidate_change_fraction=0.010000
cascade_candidate_stagnation_epochs=12
cascade_max_out_epochs=150
cascade_min_out_epochs=50
cascade_max_cand_epochs=150
cascade_min_cand_epochs=50
cascade_num_candidate_groups=2
bit_fail_limit=2.50000000000000000000e+000
cascade_candidate_limit=1.00000000000000000000e+003
cascade_weight_multiplier=4.00000000000000020000e-001
cascade_activation_functions_count=10
cascade_activation_functions=3 5 7 8 10 11 14 15 16 17 
cascade_activation_steepnesses_count=4
cascade_activation_steepnesses=2.50000000000000000000e-001 5.00000000000000000000e-001 7.50000000000000000000e-001 1.00000000000000000000e+000 
layer_sizes=142 142 2 
scale_included=0
neurons (num_inputs, activation_function, activation_steepness)=(0, 0, 0.00000000000000000000e+000) (0, 0, 0.00000000000000000000e+000) (0, 0, 0.00000000000000000000e+000) (0, 0, 0.00000000000000000000e+000) (0, 0, 0.00000000000000000000e+000) (0, 0, 0.00000000000000000000e+000) (0, 0, 0.00000000000000000000e+000) (0, 0, 0.00000000000000000000e+000) (0, 0, 0.00000000000000000000e+000) (0, 0, 0.00000000000000000000e+000) (0, 0, 0.00000000000000000000e+000) (0, 0, 0.00000000000000000000e+000) (0, 0, 0.00000000000000000000e+000) (0, 0, 0.00000000000000000000e+000) (0, 0, 0.00000000000000000000e+000) (0, 0, 0.00000000000000000000e+000) (0, 0, 0.00000000000000000000e+000) (0, 0, 0.00000000000000000000e+000) (0, 0, 0.00000000000000000000e+000) (0, 0, 0.00000000000000000000e+000) (0, 0, 0.00000000000000000000e+000) (0, 0, 0.00000000000000000000e+000) (0, 0, 0.00000000000000000000e+000) (0, 0, 0.00000000000000000000e+000) (0, 0, 0.00000000000000000000e+000) (0, 0, 0.00000000000000000000e+000) (0, 0, 0.00000000000000000000e+000) (0, 0, 0.00000000000000000000e+000) (0, 0, 0.00000000000000000000e+000) (0, 0, 0.00000000000000000000e+000) (0, 0, 0.00000000000000000000e+000) (0, 0, 0.00000000000000000000e+000) (0, 0, 0.00000000000000000000e+000) (0, 0, 0.00000000000000000000e+000) (0, 0, 0.00000000000000000000e+000) (0, 0, 0.00000000000000000000e+000) (0, 0, 0.00000000000000000000e+000) (0, 0, 0.00000000000000000000e+000) (0, 0, 0.00000000000000000000e+000) (0, 0, 0.00000000000000000000e+000) (0, 0, 0.00000000000000000000e+000) (0, 0, 0.00000000000000000000e+000) (0, 0, 0.00000000000000000000e+000) (0, 0, 0.00000000000000000000e+000) (0, 0, 0.00000000000000000000e+000) (0, 0, 0.00000000000000000000e+000) (0, 0, 0.00000000000000000000e+000) (0, 0, 0.00000000000000000000e+000) (0, 0, 0.00000000000000000000e+000) (0, 0, 0.00000000000000000000e+000) (0, 0, 0.00000000000000000000e+000) (0, 0, 0.00000000000000000000e+000) (0, 0, 0.00000000000000000000e+000) (0, 0, 0.00000000000000000000e+000) (0, 0, 0.00000000000000000000e+000) (0, 0, 0.00000000000000000000e+000) (0, 0, 0.00000000000000000000e+000) (0, 0, 0.00000000000000000000e+000) (0, 0, 0.00000000000000000000e+000) (0, 0, 0.00000000000000000000e+000) (0, 0, 0.00000000000000000000e+000) (0, 0, 0.00000000000000000000e+000) (0, 0, 0.00000000000000000000e+000) (0, 0, 0.00000000000000000000e+000) (0, 0, 0.00000000000000000000e+000) (0, 0, 0.00000000000000000000e+000) (0, 0, 0.00000000000000000000e+000) (0, 0, 0.00000000000000000000e+000) (0, 0, 0.00000000000000000000e+000) (0, 0, 0.00000000000000000000e+000) (0, 0, 0.00000000000000000000e+000) (0, 0, 0.00000000000000000000e+000) (0, 0, 0.00000000000000000000e+000) (0, 0, 0.00000000000000000000e+000) (0, 0, 0.00000000000000000000e+000) (0, 0, 0.00000000000000000000e+000) (0, 0, 0.00000000000000000000e+000) (0, 0, 0.00000000000000000000e+000) (0, 0, 0.00000000000000000000e+000) (0, 0, 0.00000000000000000000e+000) (0, 0, 0.00000000000000000000e+000) (0, 0, 0.00000000000000000000e+000) (0, 0, 0.00000000000000000000e+000) (0, 0, 0.00000000000000000000e+000) (0, 0, 0.00000000000000000000e+000) (0, 0, 0.00000000000000000000e+000) (0, 0, 0.00000000000000000000e+000) (0, 0, 0.00000000000000000000e+000) (0, 0, 0.00000000000000000000e+000) (0, 0, 0.00000000000000000000e+000) (0, 0, 0.00000000000000000000e+000) (0, 0, 0.00000000000000000000e+000) (0, 0, 0.00000000000000000000e+000) (0, 0, 0.00000000000000000000e+000) (0, 0, 0.00000000000000000000e+000) (0, 0, 0.00000000000000000000e+000) (0, 0, 0.00000000000000000000e+000) (0, 0, 0.00000000000000000000e+000) (0, 0, 0.00000000000000000000e+000) (0, 0, 0.00000000000000000000e+000) (0, 0, 0.00000000000000000000e+000) (0, 0, 0.00000000000000000000e+000) (0, 0, 0.00000000000000000000e+000) (0, 0, 0.00000000000000000000e+000) (0, 0, 0.00000000000000000000e+000) (0, 0, 0.00000000000000000000e+000) (0, 0, 0.00000000000000000000e+000) (0, 0, 0.00000000000000000000e+000) (0, 0, 0.00000000000000000000e+000) (0, 0, 0.00000000000000000000e+000) (0, 0, 0.00000000000000000000e+000) (0, 0, 0.00000000000000000000e+000) (0, 0, 0.00000000000000000000e+000) (0, 0, 0.00000000000000000000e+000) (0, 0, 0.00000000000000000000e+000) (0, 0, 0.00000000000000000000e+000) (0, 0, 0.00000000000000000000e+000) (0, 0, 0.00000000000000000000e+000) (0, 0, 0.00000000000000000000e+000) (0, 0, 0.00000000000000000000e+000) (0, 0, 0.00000000000000000000e+000) (0, 0, 0.00000000000000000000e+000) (0, 0, 0.00000000000000000000e+000) (0, 0, 0.00000000000000000000e+000) (0, 0, 0.00000000000000000000e+000) (0, 0, 0.00000000000000000000e+000) (0, 0, 0.00000000000000000000e+000) (0, 0, 0.00000000000000000000e+000) (0, 0, 0.00000000000000000000e+000) (0, 0, 0.00000000000000000000e+000) (0, 0, 0.00000000000000000000e+000) (0, 0, 0.00000000000000000000e+000) (0, 0, 0.00000000000000000000e+000) (0, 0, 0.00000000000000000000e+000) (0, 0, 0.00000000000000000000e+000) (0, 0, 0.00000000000000000000e+000) (0, 0, 0.00000000000000000000e+000) (0, 0, 0.00000000000000000000e+000) (0, 0, 0.00000000000000000000e+000) (0, 0, 0.00000000000000000000e+000) (0, 0, 0.00000000000000000000e+000) (0, 0, 0.00000000000000000000e+000) (142, 4, 5.00000000000000000000e-001) (142, 4, 5.00000000000000000000e-001) (142, 4, 5.00000000000000000000e-001) (142, 4, 5.00000000000000000000e-001) (142, 4, 5.00000000000000000000e-001) (142, 4, 5.00000000000000000000e-001) (142, 4, 5.00000000000000000000e-001) (142, 4, 5.00000000000000000000e-001) (142, 4, 5.00000000000000000000e-001) (142, 4, 5.00000000000000000000e-001) (142, 4, 5.00000000000000000000e-001) (142, 4, 5.00000000000000000000e-001) (142, 4, 5.00000000000000000000e-001) (142, 4, 5.00000000000000000000e-001) (142, 4, 5.00000000000000000000e-001) (142, 4, 5.00000000000000000000e-001) (142, 4, 5.00000000000000000000e-001) (142, 4, 5.00000000000000000000e-001) (142, 4, 5.00000000000000000000e-001) (142, 4, 5.00000000000000000000e-001) (142, 4, 5.00000000000000000000e-001) (142, 4, 5.00000000000000000000e-001) (142, 4, 5.00000000000000000000e-001) (142, 4, 5.00000000000000000000e-001) (142, 4, 5.00000000000000000000e-001) (142, 4, 5.00000000000000000000e-001) (142, 4, 5.00000000000000000000e-001) (142, 4, 5.00000000000000000000e-001) (142, 4, 5.00000000000000000000e-001) (142, 4, 5.00000000000000000000e-001) (142, 4, 5.00000000000000000000e-001) (142, 4, 5.00000000000000000000e-001) (142, 4, 5.00000000000000000000e-001) (142, 4, 5.00000000000000000000e-001) (142, 4, 5.00000000000000000000e-001) (142, 4, 5.00000000000000000000e-001) (142, 4, 5.00000000000000000000e-001) (142, 4, 5.00000000000000000000e-001) (142, 4, 5.00000000000000000000e-001) (142, 4, 5.00000000000000000000e-001) (142, 4, 5.00000000000000000000e-001) (142, 4, 5.00000000000000000000e-001) (142, 4, 5.00000000000000000000e-001) (142, 4, 5.00000000000000000000e-001) (142, 4, 5.00000000000000000000e-001) (142, 4, 5.00000000000000000000e-001) (142, 4, 5.00000000000000000000e-001) (142, 4, 5.00000000000000000000e-001) (142, 4, 5.00000000000000000000e-001) (142, 4, 5.00000000000000000000e-001) (142, 4, 5.00000000000000000000e-001) (142, 4, 5.00000000000000000000e-001) (142, 4, 5.00000000000000000000e-001) (142, 4, 5.00000000000000000000e-001) (142, 4, 5.00000000000000000000e-001) (142, 4, 5.00000000000000000000e-001) (142, 4, 5.00000000000000000000e-001) (142, 4, 5.00000000000000000000e-001) (142, 4, 5.00000000000000000000e-001) (142, 4, 5.00000000000000000000e-001) (142, 4, 5.00000000000000000000e-001) (142, 4, 5.00000000000000000000e-001) (142, 4, 5.00000000000000000000e-001) (142, 4, 5.00000000000000000000e-001) (142, 4, 5.00000000000000000000e-001) (142, 4, 5.00000000000000000000e-001) (142, 4, 5.00000000000000000000e-001) (142, 4, 5.00000000000000000000e-001) (142, 4, 5.00000000000000000000e-001) (142, 4, 5.00000000000000000000e-001) (142, 4, 5.00000000000000000000e-001) (142, 4, 5.00000000000000000000e-001) (142, 4, 5.00000000000000000000e-001) (142, 4, 5.00000000000000000000e-001) (142, 4, 5.00000000000000000000e-001) (142, 4, 5.00000000000000000000e-001) (142, 4, 5.00000000000000000000e-001) (142, 4, 5.00000000000000000000e-001) (142, 4, 5.00000000000000000000e-001) (142, 4, 5.00000000000000000000e-001) (142, 4, 5.00000000000000000000e-001) (142, 4, 5.00000000000000000000e-001) (142, 4, 5.00000000000000000000e-001) (142, 4, 5.00000000000000000000e-001) (142, 4, 5.00000000000000000000e-001) (142, 4, 5.00000000000000000000e-001) (142, 4, 5.00000000000000000000e-001) (142, 4, 5.00000000000000000000e-001) (142, 4, 5.00000000000000000000e-001) (142, 4, 5.00000000000000000000e-001) (142, 4, 5.00000000000000000000e-001) (142, 4, 5.00000000000000000000e-001) (142, 4, 5.00000000000000000000e-001) (142, 4, 5.00000000000000000000e-001) (142, 4, 5.00000000000000000000e-001) (142, 4, 5.00000000000000000000e-001) (142, 4, 5.00000000000000000000e-001) (142, 4, 5.00000000000000000000e-001) (142, 4, 5.00000000000000000000e-001) (142, 4, 5.00000000000000000000e-001) (142, 4, 5.00000000000000000000e-001) (142, 4, 5.00000000000000000000e-001) (142, 4, 5.00000000000000000000e-001) (142, 4, 5.00000000000000000000e-001) (142, 4, 5.00000000000000000000e-001) (142, 4, 5.00000000000000000000e-001) (142, 4, 5.00000000000000000000e-001) (142, 4, 5.00000000000000000000e-001) (142, 4, 5.00000000000000000000e-001) (142, 4, 5.00000000000000000000e-001) (142, 4, 5.00000000000000000000e-001) (142, 4, 5.00000000000000000000e-001) (142, 4, 5.00000000000000000000e-001) (142, 4, 5.00000000000000000000e-001) (142, 4, 5.00000000000000000000e-001) (142, 4, 5.00000000000000000000e-001) (142, 4, 5.00000000000000000000e-001) (142, 4, 5.00000000000000000000e-001) (142, 4, 5.00000000000000000000e-001) (142, 4, 5.00000000000000000000e-001) (142, 4, 5.00000000000000000000e-001) (142, 4, 5.00000000000000000000e-001) (142, 4, 5.00000000000000000000e-001) (142, 4, 5.00000000000000000000e-001) (142, 4, 5.00000000000000000000e-001) (142, 4, 5.00000000000000000000e-001) (142, 4, 5.00000000000000000000e-001) (142, 4, 5.00000000000000000000e-001) (142, 4, 5.00000000000000000000e-001) (142, 4, 5.00000000000000000000e-001) (142, 4, 5.00000000000000000000e-001) (142, 4, 5.00000000000000000000e-001) (142, 4, 5.00000000000000000000e-001) (142, 4, 5.00000000000000000000e-001) (142, 4, 5.00000000000000000000e-001) (142, 4, 5.00000000000000000000e-001) (142, 4, 5.00000000000000000000e-001) (142, 4, 5.00000000000000000000e-001) (142, 4, 5.00000000000000000000e-001) (142, 4, 5.00000000000000000000e-001) (142, 4, 5.00000000000000000000e-001) (0, 0, 0.00000000000000000000e+000) (142, 0, 5.00000000000000000000e-001) (0, 0, 0.00000000000000000000e+000) 
connections (connected_to_neuron, weight)=(0, -1.22833343807446000000e+001) (1, 6.09590281804231250000e-001) (2, 7.19637263549547930000e-002) (3, 1.50494390745734560000e-001) (4, -5.37231466660159640000e-002) (5, 4.02648941781080790000e-002) (6, -9.57824745091784280000e-002) (7, 2.04876717125443970000e-001) (8, 8.95994225445169270000e-001) (9, 3.32057858216363930000e+000) (10, 1.45901017085114410000e-001) (11, 2.98718273588747250000e-001) (12, 7.74536163589800710000e-003) (13, 2.60488423982159430000e-001) (14, -2.96575939519243550000e-001) (15, -7.52915707636255400000e-002) (16, -2.73847646520553160000e-001) (17, 5.48584006173769010000e-002) (18, -2.95568859401100780000e-001) (19, -6.49475123464071660000e-002) (20, -2.36865243787178770000e-001) (21, 4.54284686020400840000e-002) (22, -1.79901130195503360000e-001) (23, -2.32196054148516850000e-001) (24, 2.27218158988242160000e-001) (25, -9.58557166995888110000e-002) (26, -1.94641121015592940000e-001) (27, -2.86669933266239240000e-001) (28, 1.03143314645421920000e-001) (29, 2.46862802778196060000e-001) (30, 2.13006600260996490000e-001) (31, 2.12347420547303050000e-001) (32, 2.43799779249279480000e-001) (33, 3.71114045061255650000e+000) (34, 3.68016364482362720000e+000) (35, 5.18625569384715710000e-001) (36, 5.18682408554810740000e-001) (37, -7.80545901531123220000e-002) (38, -2.59442148981179340000e-001) (39, -2.44427499947050820000e-001) (40, -2.24505624155426630000e-001) (41, 2.04931648768251760000e-001) (42, -1.03234867383434900000e-001) (43, 4.79926992413467980000e-001) (44, 2.61974196761152860000e+000) (45, 2.41521270453496810000e-001) (46, 3.05825339846185930000e-001) (47, -9.40429724869318310000e-002) (48, 1.61172013785679250000e-001) (49, -1.71569831036322280000e-002) (50, 1.44782200382848720000e-001) (51, -1.37236853792331190000e-001) (52, -1.25152592863742030000e-001) (53, 2.11596688095596620000e-001) (54, 1.14514164706633890000e-001) (55, -1.84844978048204210000e-001) (56, -6.17065454207477160000e-002) (57, 2.33953866718366040000e-001) (58, 2.30676278697501400000e-001) (59, 5.24963399766420480000e-002) (60, 6.22009302060178020000e-002) (61, -2.25549325368774590000e-001) (62, 1.28906255122274160000e-002) (63, 2.74035655420448170000e-001) (64, 1.55072027646383500000e-001) (65, 3.70239272524486300000e-002) (66, -3.94592300835938660000e-002) (67, 3.38011785239326850000e-001) (68, 3.60001373721240500000e+000) (69, 4.09539193280774240000e+000) (70, 1.98465644553327350000e-001) (71, 4.12899376244200980000e-001) (72, 3.17361685324944460000e-001) (73, -8.62243686606234410000e-002) (74, 8.20312532596290110000e-003) (75, -1.51428228673466950000e-001) (76, -2.51220713107613850000e-001) (77, -2.92639171784685460000e-001) (78, 5.13995021852945320000e-001) (79, 1.29815809765854630000e+000) (80, -2.22692879942769650000e-001) (81, 1.43719488132774130000e-001) (82, -2.56292734793532870000e-001) (83, -1.81658942765352550000e-001) (84, -2.46350107445323370000e-001) (85, -1.29901410942782130000e-001) (86, -2.69510556053206450000e-001) (87, -1.36065679234889100000e-001) (88, -4.08142106061859520000e-002) (89, 5.40161154276574960000e-002) (90, -3.07800305199634750000e-002) (91, 9.99939004577754530000e-002) (92, 1.52087408387160390000e-001) (93, -6.34636575014727870000e-002) (94, 1.90503637746530340000e-001) (95, 7.81860382630839010000e-002) (96, 2.55010996461351170000e-001) (97, 8.42834506147482900000e-002) (98, -2.75537120323861020000e-001) (99, 9.85656777447729840000e-002) (100, -4.35974138417805080000e-002) (101, -5.00061055026890240000e-002) (102, 3.97972701660572080000e-001) (103, 3.68493805699324240000e+000) (104, 3.68551032472358560000e+000) (105, 4.64096758624185480000e-001) (106, -1.40172824677090490000e-002) (107, 1.61557235774457800000e-001) (108, -8.77075230164336970000e-003) (109, -2.35400399978971110000e-001) (110, 2.55926523841480960000e-001) (111, 2.68432627854053860000e-001) (112, -9.08569372040801680000e-002) (113, 5.03918779062060950000e-001) (114, 9.87546343424709820000e-001) (115, -1.68491085251454840000e-001) (116, 9.28527868927631060000e-002) (117, -5.50415060934028590000e-002) (118, 1.45989996035496010000e-001) (119, 2.44757089803897540000e-001) (120, -1.12567838408518460000e-002) (121, -5.07922537321046360000e-002) (122, 1.44396978394070170000e-001) (123, 2.35675058193010050000e-001) (124, -1.66625983183621430000e-002) (125, 2.67773448140360410000e-001) (126, -4.35424821989727210000e-002) (127, -2.08593758288770910000e-001) (128, -9.75585976266302170000e-002) (129, 6.52221705604461020000e-002) (130, -2.41204843568993970000e-001) (131, 2.23498544037283860000e-001) (132, 2.19781502873956920000e-001) (133, -1.20281987201451560000e-001) (134, -2.06488045314472400000e-001) (135, -4.84680195040709800000e-002) (136, 1.38665776994457700000e-001) (137, 1.12375673672353850000e-001) (138, 3.49324493414166910000e+000) (139, 3.82954109216560750000e+000) (140, 6.56229334618223970000e-001) (141, 2.46243518436463190000e-001) (0, -2.04444564990697990000e+000) (1, -1.26531896474668420000e-001) (2, -1.81868902937224800000e-001) (3, 1.66296393326774710000e-001) (4, -3.21899426853633490000e-002) (5, -2.10681160715466830000e-001) (6, -4.54834002448478710000e-002) (7, -5.39794943324523050000e-002) (8, 2.11400816896795490000e-001) (9, 2.61263385000273460000e-001) (10, -2.44652229458704710000e-001) (11, 2.60797129503771430000e-001) (12, 9.83276406259392390000e-002) (13, 1.87714731081389000000e-001) (14, -6.48376490607915910000e-002) (15, -2.37568127011719120000e-001) (16, 1.42174480585857860000e-003) (17, -1.76055915198958250000e-001) (18, -1.83544929168419910000e-001) (19, -2.27417001224239360000e-001) (20, 2.35345468336163320000e-001) (21, 1.57287603906297590000e-001) (22, 4.99328633122786410000e-002) (23, -7.09716825076611710000e-002) (24, -2.72337777433835910000e-001) (25, 2.39794931403594090000e-001) (26, -8.48693881380313540000e-002) (27, 1.46539312463573880000e-001) (28, -2.22180184609896970000e-001) (29, -8.58581577085715250000e-002) (30, 2.94396984354534650000e-001) (31, -1.53405767814547290000e-001) (32, -1.21002522890769040000e-001) (33, 3.56142656748926030000e-001) (34, 5.23912669638612940000e-001) (35, 2.88182763456667600000e-001) (36, -1.54544787002191290000e-001) (37, 2.82852795216649410000e-001) (38, -2.30529794316680640000e-001) (39, -1.17791752727498530000e-001) (40, 2.26739510962943310000e-001) (41, -2.56219492603122490000e-001) (42, -1.56024176121718480000e-001) (43, 8.95248292842997230000e-002) (44, 2.74052580688309460000e-001) (45, 2.18837659065374360000e-001) (46, -3.97938228808643460000e-002) (47, -6.25854517056723130000e-002) (48, 1.86671029868041040000e-001) (49, 2.29888925150589780000e-001) (50, -1.60252703600922250000e-002) (51, -8.07849270056566070000e-003) (52, 1.44708257703314300000e-001) (53, 7.82043488106864970000e-002) (54, 2.62060557288350540000e-001) (55, 2.02404793199093550000e-001) (56, 2.70684825209173140000e-001) (57, 2.03045662365184400000e-001) (58, 2.78723155606712680000e-001) (59, -1.19934086797002240000e-001) (60, -4.88159199085203000000e-002) (61, -6.83715847480925730000e-002) (62, 2.51110849821998270000e-001) (63, -1.16638188228535000000e-001) (64, 1.95172126896068220000e-001) (65, 1.92352302565268470000e-001) (66, 2.27966317652317230000e-001) (67, 2.96816841876509700000e-001) (68, 5.97988369484023230000e-001) (69, 6.01457838735612540000e-001) (70, 2.11974264334659270000e-001) (71, -7.31501074629543610000e-002) (72, 2.81735851812891070000e-001) (73, 1.41943365015322340000e-001) (74, 2.65136729285586630000e-001) (75, 2.53765879224374660000e-001) (76, -1.95190437443670820000e-001) (77, -7.36816435528453440000e-002) (78, 2.17614897390457250000e-001) (79, 2.08272294914027790000e-001) (80, 2.97912609494233040000e-002) (81, 1.07025150737172230000e-001) (82, 2.64367686286277600000e-001) (83, 1.06219486642658010000e-001) (84, 2.96191418019589040000e-001) (85, 1.16601932160336550000e-001) (86, 2.08186862702187320000e-002) (87, 2.98004162232246020000e-001) (88, -2.08154305146308620000e-001) (89, 1.25024419030523860000e-001) (90, -7.17773466021753850000e-002) (91, 6.95434597946587020000e-002) (92, 2.15698250758578070000e-001) (93, 9.78297146328483000000e-002) (94, 2.88900278865935170000e-001) (95, -1.18450932441191980000e-001) (96, 5.45654318557353690000e-002) (97, -1.38299566042405790000e-001) (98, -1.50604254031350140000e-001) (99, 1.96179207014210990000e-001) (100, -8.54736362089170140000e-002) (101, -2.81744395961140980000e-001) (102, 8.63701560904853730000e-002) (103, 9.05514016469619490000e-001) (104, 9.27385586061821980000e-001) (105, -9.31343903673903660000e-002) (106, 2.84714412897536850000e-001) (107, -6.31799333772013190000e-002) (108, 1.35369878425990460000e-001) (109, 8.80188023256778250000e-002) (110, 2.37963876643334520000e-001) (111, -1.93615730349847580000e-001) (112, 2.05444344101124440000e-002) (113, 7.61958341010936240000e-002) (114, -7.31714702049817980000e-002) (115, -1.08714724057036120000e-001) (116, -2.82110606913192900000e-001) (117, -2.86706554361444430000e-001) (118, -6.33361841573787390000e-002) (119, -9.22119177266722550000e-002) (120, -4.48088466828747280000e-002) (121, -1.16389960308402390000e-001) (122, -1.68823248895932920000e-001) (123, -2.37634286786487790000e-001) (124, -2.09106453621643600000e-002) (125, -5.78247093289974150000e-002) (126, 1.80395514980773440000e-001) (127, 8.15551790219615210000e-002) (128, 3.62365737055370120000e-002) (129, -1.90429695066995920000e-002) (130, -1.29364018812339050000e-001) (131, 2.79730235724855450000e-001) (132, 1.68951422729151090000e-001) (133, -9.33837927732383830000e-004) (134, -2.26721200415340720000e-001) (135, 8.32946810442081190000e-002) (136, -1.23522954127111010000e-001) (137, -1.85604608065626290000e-001) (138, 7.39199312595245070000e-001) (139, 7.39501057111586200000e-001) (140, 2.75493553968069400000e-001) (141, 1.96994637508084100000e-001) (0, -1.25298868759181480000e+000) (1, -1.22113330310957050000e-002) (2, -2.57243432800229040000e-001) (3, 8.48510775904287580000e-002) (4, -7.35534697196271740000e-002) (5, 1.01971439598855800000e-001) (6, -1.43389898275927410000e-001) (7, 1.02740482598164820000e-001) (8, 8.10665348587450570000e-002) (9, 4.92018483842724810000e-002) (10, -2.29557140478130860000e-001) (11, -2.01086433771706650000e-001) (12, 2.23828133894130590000e-001) (13, 1.99989995731163110000e-001) (14, -1.32073979857523230000e-001) (15, 1.32292217734853470000e-001) (16, -1.38945645637145230000e-001) (17, 2.17510994971235050000e-001) (18, -1.12207035708706830000e-001) (19, 2.57336436006880830000e-001) (20, 1.20153813368233390000e-001) (21, -2.03796394816890820000e-002) (22, 7.08801297696481920000e-002) (23, -1.52014166196750010000e-001) (24, -1.15299323437933180000e-001) (25, -1.89422614948853150000e-001) (26, -1.90539558352611490000e-001) (27, -7.02758816987625320000e-002) (28, -2.85644542600493880000e-002) (29, 2.79052745463559400000e-001) (30, 3.68408217764226720000e-002) (31, 2.84509288649132940000e-001) (32, 1.92430938216639810000e-001) (33, 3.65679178246204470000e-002) (34, -2.56585411818417820000e-001) (35, 2.04373938045947280000e-001) (36, 1.72234225482893990000e-001) (37, 1.13764882723589340000e-001) (38, -2.22052010776678800000e-001) (39, 2.99194347826414740000e-002) (40, 1.40075689159857570000e-001) (41, -9.35852087968669370000e-002) (42, -2.68084727449604540000e-001) (43, 1.43643245527218520000e-001) (44, 4.01825818138843370000e-002) (45, 1.70515094492344200000e-002) (46, -7.22878471194357410000e-002) (47, 8.36242709010548420000e-002) (48, 4.06516104933680520000e-002) (49, 1.17297367942228450000e-001) (50, 2.75554686524517530000e-001) (51, 4.16923725441612560000e-002) (52, 2.95166027353843670000e-001) (53, -2.45819101564848100000e-001) (54, 1.95208747991273410000e-001) (55, 9.01611363951815290000e-002) (56, -1.65875250731915000000e-001) (57, -3.29589856846723710000e-002) (58, -1.79919440743105950000e-001) (59, -3.28857434942619880000e-002) (60, -7.66662628120684530000e-002) (61, 1.54541021765908230000e-002) (62, 2.98278820446284950000e-001) (63, -2.52264414320961810000e-001) (64, 2.79052745463559400000e-001) (65, 2.54699717152107040000e-002) (66, 1.26947026528796410000e-001) (67, -1.83207212028721090000e-001) (68, -1.30735555620294150000e-001) (69, 3.17285460594535940000e-001) (70, -2.29293071373930730000e-001) (71, -6.84470420656480870000e-003) (72, -3.75221178987314870000e-003) (73, 1.47894292986165960000e-001) (74, 7.63549835028243250000e-002) (75, -1.93634040897450180000e-001) (76, -2.32836923314607700000e-001) (77, 4.13818375818664210000e-002) (78, 2.25025564155804740000e-001) (79, -2.32905528608654320000e-001) (80, -2.06707771885703550000e-001) (81, -2.97454845804168140000e-001) (82, -2.15203865973307980000e-001) (83, 1.28887944574671560000e-001) (84, -3.83605972274381200000e-002) (85, -1.43955406886469210000e-001) (86, -6.54819466417885940000e-002) (87, 2.94506847640150230000e-001) (88, -1.34271245569834720000e-001) (89, -2.72094737374573010000e-002) (90, -1.86767585546476770000e-003) (91, -2.43511972566921030000e-001) (92, -1.43573003751953370000e-001) (93, 2.96868163933939000000e-001) (94, -1.41596208957823540000e-001) (95, -2.87200939146714520000e-001) (96, 6.89941433665808290000e-002) (97, -2.65393076952022970000e-001) (98, -2.40417490022082350000e-001) (99, -1.53735357671394010000e-001) (100, -7.98522980949201160000e-002) (101, 1.40222173540678340000e-001) (102, 1.28126599728519810000e-001) (103, -1.31944051762065470000e-001) (104, 3.09430235673022360000e-001) (105, 2.13327795823616610000e-001) (106, 1.54913412379952460000e-001) (107, -2.90403834508529970000e-001) (108, -6.58447291789343580000e-002) (109, 2.96777355542872100000e-001) (110, 2.33312997552275190000e-001) (111, 2.44665537065884560000e-001) (112, 1.65069586637400790000e-001) (113, 1.93377601428978310000e-001) (114, -2.72014571670146420000e-001) (115, -2.42575939823576450000e-001) (116, -2.45709238279232520000e-001) (117, -2.70465098637941990000e-001) (118, -9.52514686287031510000e-002) (119, -2.63488780001353010000e-002) (120, -2.09055988060534020000e-001) (121, -6.13988397515919030000e-002) (122, 1.52178961125173370000e-001) (123, 2.21923836943460630000e-002) (124, 1.47619634772127030000e-001) (125, 1.42767339657439150000e-001) (126, 9.50317420574720020000e-003) (127, 5.33020040711562610000e-002) (128, 8.85131871109479110000e-002) (129, 8.74145542547921650000e-002) (130, 6.39038111330592070000e-002) (131, 2.54443369485670700000e-001) (132, 1.04150394763564690000e-001) (133, 2.47009287159016820000e-001) (134, -2.53784189771977250000e-002) (135, -7.32788115055882370000e-002) (136, -4.51904314832063390000e-002) (137, 2.52981304263296620000e-001) (138, 2.67573786378973550000e-001) (139, -1.67046834041747500000e-001) (140, 2.27939612810488020000e-001) (141, -9.32387459073564440000e-004) (0, -1.54862802243933720000e+000) (1, 2.59364569270502610000e-001) (2, -2.80052972039188840000e-002) (3, -1.15338139348750700000e-001) (4, -9.85839882923755790000e-002) (5, 2.08758553217194280000e-001) (6, 1.76586921079433520000e-001) (7, -1.84240729977318550000e-001) (8, 2.27452411780167290000e-001) (9, 1.66203498203607050000e-001) (10, 1.94911959041857490000e-001) (11, 8.10791047842940320000e-002) (12, -1.90484626709803710000e-001) (13, -6.43287739156893220000e-002) (14, -1.57434088287118360000e-001) (15, 1.64694076221791610000e-001) (16, 2.57651788288884190000e-001) (17, -1.34399419403052890000e-002) (18, -1.64392096376104750000e-001) (19, -2.60083018147270200000e-001) (20, -1.78125007078051570000e-001) (21, 4.34326189133571460000e-002) (22, -7.97058137140993490000e-002) (23, -2.66491709808178710000e-001) (24, 2.60482030006747970000e-001) (25, 1.24877934649703090000e-002) (26, 1.92810066255333370000e-002) (27, -7.43774443617439830000e-002) (28, 2.91339122904901160000e-001) (29, 2.45159921851154650000e-001) (30, 2.15148934330500200000e-001) (31, -4.25170915332273580000e-002) (32, -1.30218265153830030000e-001) (33, 4.80901684662904170000e-001) (34, 4.77557131928466990000e-001) (35, 2.47531581009637260000e-001) (36, -5.24884742735095350000e-002) (37, 1.22595969741891160000e-002) (38, -1.99255379011447080000e-001) (39, -2.52429209249385170000e-001) (40, 7.21435575542273000000e-002) (41, -2.74310313634487100000e-001) (42, 1.62048346282972490000e-002) (43, 1.71729844464457020000e-001) (44, 3.64353999611705060000e-001) (45, 1.05479424363012590000e-001) (46, 2.59017186198540310000e-001) (47, 1.73474127986992240000e-001) (48, 1.49831390844266720000e-001) (49, -1.26342778457910750000e-001) (50, 1.76362544776424770000e-001) (51, -1.58793718541488050000e-001) (52, -6.57714869885239750000e-002) (53, 2.61053477170207770000e-001) (54, -2.47924814539146610000e-002) (55, -7.00927762227365750000e-002) (56, 1.31433110691432380000e-001) (57, -2.41424570140225110000e-001) (58, -2.03869637007301210000e-001) (59, 1.84075935048895190000e-001) (60, 4.57946795540919990000e-002) (61, -2.98333752089092740000e-001) (62, -4.20227067479572720000e-002) (63, 1.76367194508202370000e-001) (64, 2.81964122532372130000e-001) (65, 1.45385747964610350000e-002) (66, -2.64404307381482790000e-002) (67, 2.35378632810386510000e-001) (68, 5.60479324543772250000e-001) (69, 2.18481193899333790000e-001) (70, 1.21701497884596080000e-001) (71, 1.67990024627874410000e-001) (72, -2.08199396161065810000e-001) (73, -2.57391367649688620000e-001) (74, 1.83453376430406930000e-001) (75, -2.29010018865665190000e-001) (76, -2.63049326858890710000e-001) (77, 1.77227790245524370000e-001) (78, 2.10722762632929970000e-001) (79, -7.45034998835394510000e-002) (80, -1.89495857139263530000e-001) (81, 1.94274910063541030000e-002) (82, -2.51715097892883930000e-001) (83, -1.63220221329538620000e-001) (84, -1.79516608695848840000e-001) (85, -1.95156554207243650000e-001) (86, 1.30311663557316380000e-001) (87, 1.60198980975110320000e-001) (88, -2.44628915970679370000e-002) (89, -1.92443855303281450000e-002) (90, -1.19567875844950320000e-002) (91, 2.67279063355090330000e-001) (92, 1.16290287824085680000e-001) (93, 3.86489162573014360000e-002) (94, -3.11875122989987010000e-002) (95, -1.47088628891651750000e-001) (96, -2.33880624527955660000e-001) (97, -1.19860844606591850000e-001) (98, -1.55493170241243210000e-001) (99, -2.69805918924248540000e-001) (100, 1.42364507610182050000e-001) (101, 1.81494147836929190000e-001) (102, -6.92417576721058720000e-002) (103, 7.17052817093568610000e-001) (104, 4.61150881276540970000e-001) (105, -2.23580498257549080000e-001) (106, 7.36715287008249830000e-003) (107, 2.07981040298333250000e-001) (108, 5.53894064978521780000e-002) (109, 6.69433620350901040000e-002) (110, 3.77380386089498640000e-002) (111, 1.36853032781800720000e-001) (112, 2.14233406950370410000e-002) (113, 1.29734420195399020000e-001) (114, -1.40502724062068900000e-001) (115, -1.34787761090481790000e-001) (116, -1.81182868527685060000e-001) (117, 1.92095954898832130000e-001) (118, 1.71405036107898920000e-001) (119, 1.42108159943745700000e-001) (120, 1.82271913540774290000e-001) (121, 2.02721334658754640000e-001) (122, 2.66455088712973520000e-001) (123, 1.10888676281319930000e-001) (124, 2.45764169922040310000e-001) (125, -2.20642098611278930000e-001) (126, 3.59069838486902880000e-002) (127, -2.21722420919832080000e-001) (128, 2.62792979192454370000e-001) (129, -1.68804938348330320000e-001) (130, 2.89929210739501290000e-001) (131, -1.67578131658956410000e-001) (132, -8.30383333777717780000e-002) (133, 2.31445321696810420000e-002) (134, -1.62176520116190660000e-001) (135, 2.56237803150725090000e-001) (136, 1.27001958171604200000e-001) (137, 1.33186316240473360000e-001) (138, 5.29790846761822640000e-001) (139, 6.67181162900943430000e-001) (140, 2.77683886832789660000e-002) (141, -8.62877702229802730000e-002) (0, -1.31674580972591260000e+000) (1, -1.24148312143757540000e-001) (2, -2.34798707157785200000e-001) (3, 2.25109872226312290000e-001) (4, -2.34027108908776430000e-001) (5, 1.48223882843012690000e-001) (6, -1.37329107019468210000e-002) (7, 2.19873055611969900000e-001) (8, 2.70841330524890840000e-001) (9, -7.96244427554079240000e-003) (10, -2.07391813811612610000e-002) (11, 3.52661146825994360000e-002) (12, -1.28448491432209270000e-001) (13, -2.55590264932057720000e-001) (14, -1.04132084215962100000e-001) (15, 8.67552364841465140000e-002) (16, -1.87729372494942590000e-001) (17, -6.26220728008775040000e-002) (18, 1.67248541802109680000e-001) (19, 3.19335950189270080000e-002) (20, -2.32781991671799910000e-001) (21, -1.03454593954666050000e-001) (22, 2.33660897956724510000e-001) (23, -4.47326677931414450000e-002) (24, -2.33342949594903950000e-001) (25, 1.78875739529757990000e-001) (26, -2.20971688468125650000e-001) (27, 4.01000992496847180000e-002) (28, 5.53161643074417950000e-002) (29, -2.34429940956033530000e-001) (30, 1.32202153690741400000e-002) (31, 9.64416542228718750000e-002) (32, 1.84506847549779280000e-001) (33, -2.31772693679766410000e-001) (34, -1.47303262539196960000e-001) (35, 1.41093412415548080000e-002) (36, 1.28156324682114460000e-001) (37, -1.79445921755138210000e-001) (38, 9.85290566495677920000e-002) (39, 1.04992679953284100000e-001) (40, -7.95410187856759880000e-002) (41, 2.00408943510410610000e-001) (42, -2.11285408786352490000e-001) (43, 1.89191442523179290000e-002) (44, 1.68133943542906030000e-002) (45, -1.09007662320688930000e-001) (46, 4.70830869388568220000e-002) (47, -2.96997082114103250000e-002) (48, 2.25652636989777150000e-002) (49, 1.08856205497431800000e-001) (50, 2.93508853767333930000e-001) (51, -9.71381453165262590000e-003) (52, -9.75402870790276210000e-002) (53, -5.84106468522804790000e-003) (54, -1.72393805678439090000e-001) (55, -2.77478038369736170000e-001) (56, -1.04187015858769880000e-002) (57, -1.79901130195503360000e-001) (58, 2.71765147517726290000e-001) (59, -1.28027348837349560000e-001) (60, -2.48822031371673800000e-001) (61, -2.62115488931158320000e-001) (62, -1.86566169522848210000e-001) (63, 5.37414572136185600000e-002) (64, 1.10266117662831680000e-001) (65, -2.26318368368083610000e-001) (66, -1.11584477090218570000e-001) (67, 1.17565509487433580000e-001) (68, 1.53719264997682150000e-001) (69, -9.63816296563783790000e-002) (70, 2.50773169005124920000e-001) (71, -2.85806714637003470000e-001) (72, 2.74289447837184900000e-001) (73, -1.19000248869269850000e-001) (74, 6.78405788676172960000e-002) (75, 1.77172858602716590000e-001) (76, 2.66308604332152750000e-001) (77, 1.67449957825738240000e-001) (78, 1.98957279081435010000e-001) (79, -1.15511087244143300000e-001) (80, 5.89965843755635430000e-002) (81, -1.34857183093117780000e-001) (82, 2.74365245277294890000e-001) (83, -2.42010507663508180000e-001) (84, 9.05639684424386360000e-002) (85, 2.90736157273292000000e-001) (86, 1.52395067917830580000e-001) (87, -8.66638218030857390000e-002) (88, 9.14794958225684240000e-002) (89, -2.42431650258367880000e-002) (90, -3.22814954233763270000e-002) (91, -1.45184331940981790000e-001) (92, -2.87530529003561240000e-001) (93, -2.41177446776064950000e-001) (94, -6.70258285277768320000e-002) (95, 5.72753929009195420000e-002) (96, -1.15191654967929940000e-001) (97, 2.78833018892328250000e-001) (98, 1.33428960380115310000e-001) (99, -3.98071304880431850000e-002) (100, -9.32189978448150210000e-002) (101, 2.90808117024425880000e-001) (102, 2.54750862212959390000e-001) (103, -2.36789783722877650000e-001) (104, -4.35740103705000850000e-002) (105, -2.77705855900993950000e-001) (106, 8.87494438406443430000e-002) (107, -1.52291379660488700000e-001) (108, -2.19927987254777690000e-001) (109, 2.84674083577556300000e-001) (110, 1.67980963706213520000e-001) (111, -8.05847199990239460000e-002) (112, -2.16943367995554580000e-001) (113, -2.26839470701623020000e-001) (114, -2.37352705486163440000e-001) (115, -6.94635485516718470000e-002) (116, -1.04882816667668520000e-001) (117, -1.54833990527549760000e-001) (118, -1.86950691022502720000e-002) (119, 1.59906012213468780000e-001) (120, 1.25701495120965320000e-001) (121, 3.49511078356672940000e-002) (122, 2.48052988372364780000e-001) (123, 1.95043953062850050000e-001) (124, 7.00195340323261920000e-002) (125, 1.85961921451962550000e-001) (126, 4.92004414081748110000e-002) (127, 2.51953135011717680000e-002) (128, -9.66430702465004290000e-002) (129, 2.40673837688518690000e-001) (130, 2.42321786972752310000e-001) (131, 1.09552006306330440000e-001) (132, 2.52410898701782570000e-001) (133, -1.92956550636154130000e-001) (134, 2.42816171758022390000e-001) (135, -1.13891606088145640000e-002) (136, -1.64154059257271000000e-001) (137, 2.09174150472828700000e-001) (138, -2.52994618351178650000e-001) (139, 1.13988251749844320000e-001) (140, 2.69468238107375190000e-001) (141, 4.70921731841820180000e-002) (0, -1.21535327889234780000e+000) (1, -1.63298679804900480000e-001) (2, 1.25408550686788660000e-001) (3, 1.90539558352611490000e-001) (4, 2.24560555798234420000e-001) (5, -1.53002935767290180000e-001) (6, 2.48529062610032270000e-001) (7, 2.10589607977453850000e-001) (8, 2.30176852699985750000e-001) (9, -1.59456609563673440000e-001) (10, 1.55037675925214800000e-002) (11, -2.17492684423632450000e-001) (12, 1.12719731041579510000e-001) (13, -1.56322411110240620000e-001) (14, -7.66479522644658570000e-002) (15, 2.70273435381295170000e-001) (16, 1.56827353805457040000e-001) (17, 1.19366459821321770000e-001) (18, -1.69702155180857520000e-001) (19, 2.16027840615424790000e-001) (20, -1.05267338167323030000e-001) (21, -1.23559575222316200000e-001) (22, -1.98632820392958820000e-001) (23, -2.54205332366836960000e-001) (24, 6.75789649743010620000e-002) (25, -1.93927009659091710000e-001) (26, 8.80737339684856120000e-002) (27, -1.77484137911960720000e-001) (28, 1.34930425283528170000e-001) (29, 1.79150397743796930000e-001) (30, 1.63330084615154190000e-002) (31, -4.72412128146970640000e-002) (32, -1.63419918851096910000e-001) (33, 2.96742915216419210000e-001) (34, 2.13746834863922930000e-001) (35, 8.76773443605862040000e-002) (36, 1.73219771690292010000e-001) (37, -8.82607378783797050000e-003) (38, -1.48095709009794520000e-001) (39, 3.35266126603528390000e-002) (40, 2.33917245623160850000e-001) (41, -3.22814954233763270000e-002) (42, 1.49047857485129500000e-001) (43, 1.52776574722358550000e-002) (44, -1.26263420894476560000e-001) (45, 9.37211607239353960000e-002) (46, -2.58293850709081230000e-001) (47, -4.21325700335728470000e-002) (48, -2.46512632999696810000e-002) (49, 1.45367437417007750000e-001) (50, -2.01392836697459910000e-001) (51, -4.47827230524590470000e-002) (52, -1.09680180139548610000e-002) (53, -2.84326183173106980000e-001) (54, -2.60870371694181810000e-001) (55, -2.99469006040453680000e-001) (56, -1.04699711191642560000e-001) (57, 5.11230489064473660000e-002) (58, 1.32147222047933610000e-001) (59, -1.62982184210704870000e-001) (60, -1.70288092704140580000e-003) (61, -1.72100836916797560000e-001) (62, -1.24566655340458960000e-001) (63, -6.26220728008775040000e-003) (64, 1.45971685487893410000e-001) (65, -1.90429695066995920000e-003) (66, -2.75372325395437660000e-001) (67, -2.58556787787740280000e-002) (68, -1.99380055704839080000e-002) (69, 3.18647962079195710000e-001) (70, -1.04488802417256540000e-002) (71, -1.41359439942610550000e-001) (72, -2.02478425232893670000e-001) (73, 1.20666508701106070000e-002) (74, 1.88763435235159700000e-001) (75, 4.09240738918015270000e-002) (76, 8.86596714917686770000e-002) (77, -2.19836434516764710000e-001) (78, 1.70312379479121730000e-001) (79, -7.06703141118298910000e-002) (80, 1.31854253286292080000e-001) (81, 1.52600103720033080000e-001) (82, -1.89294441115634980000e-001) (83, 2.03082283460389590000e-001) (84, 2.42376718615560090000e-001) (85, 2.74426599289997570000e-002) (86, 2.16206707431017610000e-001) (87, -4.14733903198794000000e-002) (88, 2.16870125805144200000e-001) (89, 9.08203161088749770000e-003) (90, -1.37878423447546080000e-001) (91, 1.19915776249399640000e-001) (92, -1.22094731414108540000e-001) (93, -3.67443926549195080000e-002) (94, 2.67357181928988660000e-001) (95, 2.55670176175044620000e-001) (96, -2.57684336411330150000e-001) (97, -2.28131112580740590000e-001) (98, 1.86749274998874170000e-001) (99, 2.15606698020565090000e-001) (100, 2.56347666436340660000e-001) (101, 2.08886727050412450000e-001) (102, 2.68418118718219410000e-001) (103, -1.67630882533013530000e-001) (104, 2.72340587192229420000e-001) (105, -1.07165192678635290000e-001) (106, 2.69451440351309690000e-001) (107, 2.88445666540313560000e-001) (108, 9.35668982492643410000e-002) (109, 8.88427769677946340000e-002) (110, 1.85046394071832760000e-001) (111, 1.89111335639609020000e-001) (112, -2.17437752780824670000e-001) (113, -1.50496435105138080000e-001) (114, -2.34882526879379410000e-001) (115, 2.97998896005380600000e-001) (116, -2.09362801288079940000e-001) (117, -5.07385274067928550000e-002) (118, -2.33203134266659620000e-001) (119, -2.99212658374017340000e-001) (120, 3.73278437674288840000e-002) (121, -2.00640003587210400000e-001) (122, 2.40856943164544650000e-001) (123, -2.67297373902692930000e-001) (124, -2.60650645122950660000e-001) (125, 2.39025888404285070000e-001) (126, -1.71936041988374200000e-002) (127, -2.81964122532372130000e-001) (128, 2.76672374275221960000e-002) (129, 2.07952889122680060000e-001) (130, 7.40661650524998550000e-002) (131, -2.48620615348045250000e-001) (132, -9.73571816030016630000e-002) (133, -2.31500253339618210000e-001) (134, -9.57275428663706410000e-002) (135, -2.79913341200881400000e-001) (136, -1.66204840588761730000e-001) (137, -1.72596608268951930000e-001) (138, -1.08249776657804580000e-001) (139, 4.23842058056107580000e-001) (140, 8.45828618157475200000e-002) (141, -2.56164950803692170000e-001) (0, -2.53809068859258570000e+001) (1, -1.39286653188682860000e-001) (2, 1.96190502633131700000e-001) (3, -2.73065196397510590000e-001) (4, -8.36975130914652250000e-002) (5, -3.07067883295530920000e-002) (6, 1.88470466473518170000e-001) (7, -2.27948007104714630000e-001) (8, 2.05920177439464640000e-002) (9, -2.05322714158954560000e-001) (10, -1.16206695692689310000e-001) (11, -1.76367194508202370000e-001) (12, 2.99963390825723760000e-001) (13, -7.11993696855089260000e-002) (14, 1.66937262492865560000e-001) (15, 2.52412790057652160000e-001) (16, -2.17394511940072280000e-001) (17, -1.46008306583098600000e-001) (18, -2.67572032116731860000e-001) (19, -1.34948735831130760000e-001) (20, 2.60394297456514320000e-001) (21, -2.96154796924383850000e-001) (22, -2.42138681496726350000e-001) (23, -2.75573741419066210000e-001) (24, 9.19292989060167130000e-002) (25, 1.14459233063826100000e-001) (26, 1.59338385237788320000e-001) (27, -2.75665294157079190000e-001) (28, -2.31994638124888300000e-001) (29, 8.27636751637328420000e-003) (30, -2.87969982146023540000e-001) (31, -1.88085944973863660000e-001) (32, 1.04734586254338440000e-001) (33, -3.38407338846341330000e-001) (34, -2.98639135137038380000e-001) (35, -1.79789498334832000000e-002) (36, -8.29296877259562000000e-002) (37, -5.63119488066638890000e-002) (38, 9.24682653931085950000e-003) (39, -2.75958262918720720000e-001) (40, -5.56640647118911150000e-003) (41, 2.30859384173527360000e-001) (42, 2.96630871162051330000e-003) (43, 2.66897749996920440000e-002) (44, -4.88076070579086320000e-002) (45, -4.10132372954519690000e-002) (46, -3.80389679772080230000e-002) (47, 1.42272954872169070000e-001) (48, -1.44732932126689660000e-002) (49, -1.69482428609626370000e-001) (50, -2.93865032796124860000e-001) (51, -5.39602381069150050000e-002) (52, 2.88226329812459880000e-001) (53, -2.04583748363802440000e-001) (54, 2.04748543292225800000e-001) (55, 2.78338634107058170000e-001) (56, -2.29980477888602760000e-001) (57, 5.74951194721506910000e-003) (58, -2.78173839178634810000e-001) (59, -2.62921153025672540000e-001) (60, 1.00708011814276690000e-003) (61, -2.20037850540393260000e-001) (62, -6.82617214624769990000e-002) (63, 1.07849125379289030000e-001) (64, 9.31274451068020430000e-002) (65, 7.27111845299077690000e-002) (66, -2.01159675962117030000e-001) (67, -1.00414689236620270000e-001) (68, -3.16361439532817370000e-001) (69, -1.21576139819932010000e-001) (70, 2.15645327028028520000e-001) (71, -2.98966964269514680000e-002) (72, -2.36506047763808740000e-001) (73, -1.50549322388542350000e-001) (74, -2.46276865254912990000e-001) (75, 2.07165535575768440000e-001) (76, -2.70666514661570550000e-001) (77, 7.13928251025208740000e-002) (78, -2.70381698336247310000e-001) (79, -9.16795822183078120000e-002) (80, -9.92797891012742180000e-002) (81, 1.08270267974148740000e-001) (82, -8.43566928051586730000e-002) (83, 9.61120643660251520000e-002) (84, 1.68878180538740710000e-001) (85, 1.38922227456254570000e-001) (86, -1.48070468093324050000e-001) (87, -2.24267587036592890000e-001) (88, -1.53240972886123930000e-001) (89, -1.96893318370712220000e-001) (90, -1.56134039407334060000e-001) (91, 2.37982187190937110000e-001) (92, 6.91223171997989990000e-002) (93, -2.52171915905014310000e-001) (94, -1.39214147744600780000e-001) (95, -2.12677010404149770000e-001) (96, -2.20220956016419220000e-001) (97, 2.71893321350944460000e-001) (98, 1.20776371986721640000e-001) (99, 9.73205605077964720000e-002) (100, -1.98669441488164010000e-001) (101, 2.78778087249520470000e-001) (102, 8.34178519696490980000e-002) (103, -2.00052841161134030000e-001) (104, -4.84509503851005220000e-001) (105, 1.84334290627589770000e-001) (106, 5.19279892026356690000e-003) (107, 1.38933420279814760000e-001) (108, 1.06549076499504740000e-001) (109, 2.93463146426802270000e-001) (110, 1.71166998989065180000e-001) (111, -1.61242682188458280000e-001) (112, 1.85522468309500250000e-001) (113, 1.06637148781318910000e-002) (114, -8.93084383461398980000e-003) (115, 2.04465924471570190000e-001) (116, -2.17639168804453220000e-001) (117, 5.42541525464912410000e-002) (118, 2.98370373184297930000e-001) (119, 1.05816654595400910000e-001) (120, 2.08416326880352750000e-001) (121, 2.82676204640912280000e-002) (122, -2.33184823719057020000e-001) (123, 5.29724142143095380000e-002) (124, 4.45678728647180830000e-002) (125, -1.55822760098089930000e-001) (126, -1.51904302911134440000e-001) (127, -2.49517832180572440000e-001) (128, 2.33715829599532300000e-001) (129, -8.58581577085715250000e-002) (130, -1.21215825129183940000e-001) (131, 2.78540050130686720000e-001) (132, -3.60351576819084580000e-002) (133, -1.43609624847158560000e-001) (134, 2.44628915970679370000e-002) (135, 9.66796913417056200000e-003) (136, 9.37500037252902980000e-003) (137, -2.46224411980784680000e-001) (138, -5.15543001040822680000e-002) (139, -2.48449924158318790000e-001) (140, -2.51493363409394490000e-001) (141, -1.42408143634069120000e-001) (0, -1.24472692591337210000e+001) (1, 7.13168621284089310000e-001) (2, -1.02716684706452450000e-001) (3, 2.79016124368354210000e-001) (4, 1.10339359853242060000e-001) (5, -1.90063484114944000000e-001) (6, 7.74353058113774750000e-002) (7, -1.64904791708977430000e-001) (8, 9.65711943231466920000e-001) (9, 3.20123381658284330000e+000) (10, 3.26848802613334770000e-001) (11, 2.12951668618188710000e-002) (12, 2.50744638869946360000e-001) (13, 7.87408825981598950000e-002) (14, -1.31671147810266120000e-001) (15, -2.13629240005261340000e-001) (16, 2.25732146904582630000e-001) (17, 2.41241464664199160000e-001) (18, 2.73248301873536550000e-001) (19, 2.94506847640150230000e-001) (20, 1.37603765233507150000e-001) (21, -1.88470466473518170000e-001) (22, 1.08380131259764310000e-001) (23, -2.26684579320135530000e-002) (24, -1.27051361907415870000e-001) (25, -1.48278814485820480000e-001) (26, -1.44836431536532470000e-002) (27, 7.26562528870999810000e-002) (28, 1.99768074344319760000e-002) (29, 2.28790292294434040000e-001) (30, 1.18963627774064660000e-001) (31, 1.92114265446434730000e-001) (32, 4.52700100241264890000e-001) (33, 3.71674309385453270000e+000) (34, 3.94048767768696930000e+000) (35, 1.99864876334358230000e-001) (36, 4.30528435575682320000e-001) (37, -9.37994480239883190000e-002) (38, 7.16674833165598100000e-002) (39, 1.82189948645827830000e-001) (40, 2.06359871481254230000e-002) (41, -2.60412608004116920000e-001) (42, -2.52813730749039680000e-001) (43, 5.71641440977275210000e-001) (44, 2.79830384895241260000e+000) (45, 2.01701737656588440000e-001) (46, -2.29192776914518730000e-002) (47, -2.72753917088266460000e-001) (48, 3.20824632452080760000e-001) (49, 2.47229013730247970000e-001) (50, 8.00536735556603710000e-002) (51, -2.03540087713342640000e-001) (52, -1.19165043797693220000e-001) (53, 9.56543006759602580000e-002) (54, -2.13500985046266580000e-001) (55, -2.64129649167443860000e-001) (56, 3.85803237986692690000e-002) (57, 1.28393559789401480000e-001) (58, 1.36962896067416300000e-002) (59, -2.52081308844935850000e-001) (60, 1.11657719280628950000e-001) (61, 2.10809334548685000000e-001) (62, -2.63854990953404920000e-002) (63, 1.10394291496049850000e-001) (64, -9.34753455112513620000e-002) (65, -4.76623554095567670000e-002) (66, -1.48498541057051630000e-001) (67, 1.16859477747922240000e-001) (68, 3.62191276782068930000e+000) (69, 3.81811828805882090000e+000) (70, 2.89018932611396160000e-001) (71, -8.41820155440005800000e-002) (72, 2.45238651385673000000e-001) (73, 1.40441900111909490000e-001) (74, 1.36962896067416300000e-001) (75, -8.29284700921562030000e-002) (76, -2.64147959715046450000e-001) (77, -1.01953129051253200000e-001) (78, 2.97727962367216100000e-001) (79, 1.44531077524528780000e+000) (80, -2.54443369485670700000e-001) (81, -1.00140384838596220000e-001) (82, 2.60925303336989600000e-002) (83, -8.13171419031277760000e-002) (84, 2.10736092358274620000e-001) (85, -1.77266381544667480000e-001) (86, 1.06203314097029540000e-001) (87, -1.79937751290708550000e-001) (88, -1.11749272018641930000e-001) (89, 1.32000737667112840000e-001) (90, -3.30688489702879450000e-002) (91, -6.95251492470561060000e-002) (92, 2.34136972194392000000e-001) (93, 2.36810271581482820000e-001) (94, -1.50622605141840890000e-001) (95, 2.53601084295951300000e-002) (96, 3.33435071843268820000e-002) (97, 1.16217045633675300000e-001) (98, 2.48803720824071210000e-001) (99, -9.75769081742328130000e-002) (100, -9.76867714598483870000e-002) (101, -2.44079599542601500000e-002) (102, 3.24017953981454610000e-001) (103, 3.92057610976663140000e+000) (104, 4.07525330804208430000e+000) (105, 4.06023331791983470000e-001) (106, 4.45362151780383080000e-001) (107, 2.84569707636051220000e-001) (108, 5.09765645256266000000e-002) (109, -2.96301281305204610000e-001) (110, 7.02758816987625320000e-002) (111, 1.70965582965436620000e-001) (112, 2.43530283114523630000e-001) (113, 3.38643054698802740000e-001) (114, 8.78633688610758520000e-001) (115, -1.51642427337701970000e-001) (116, 1.48352056676230860000e-001) (117, 1.33557134213333480000e-001) (118, 9.51416053430875760000e-002) (119, 1.11712650923436740000e-001) (120, -1.32715092400942670000e-001) (121, 7.92627671596017950000e-003) (122, -1.13067631446028830000e-001) (123, 4.51171892927959560000e-002) (124, -1.36834722234198130000e-001) (125, 2.45764169922040310000e-001) (126, 1.43994146346813070000e-001) (127, 1.42218023229361280000e-001) (128, 7.59155303603620270000e-002) (129, 1.68347174658265430000e-001) (130, 2.74694835134141610000e-001) (131, 1.12188725161104230000e-001) (132, 1.07556156617647500000e-001) (133, 1.65655524160683850000e-001) (134, 2.55743418365455000000e-001) (135, 1.01348880980367540000e-001) (136, 1.89642341520084300000e-001) (137, 5.28275823854169600000e-001) (138, 3.92916375659224840000e+000) (139, 4.10508119008671100000e+000) (140, 3.92729874232498720000e-001) (141, 2.30938113708045710000e-001) (0, -2.26035332170967520000e+000) (1, 2.31802802478731300000e-003) (2, -1.63578163226516860000e-001) (3, 1.89331062210840170000e-001) (4, 1.59796148927853210000e-001) (5, -2.00500496248423590000e-002) (6, 2.33496103028301150000e-001) (7, -2.95202648449048870000e-001) (8, -5.23307649353009220000e-002) (9, 9.96549545865928140000e-001) (10, 2.17546605470113340000e-003) (11, -1.91876228327600980000e-001) (12, -1.57653814858349510000e-002) (13, 2.16500425743082900000e-001) (14, -6.77490261296043170000e-003) (15, -2.14411306643832620000e-001) (16, -1.16977023667812470000e-001) (17, -1.40020757517049790000e-001) (18, 1.87316901974554640000e-001) (19, -2.00482185700820990000e-001) (20, -1.93139656112180090000e-001) (21, -1.26947026528796410000e-001) (22, 2.49737558751803590000e-001) (23, -2.58361826672626190000e-002) (24, -1.96988360218734590000e-001) (25, 1.62561041615845170000e-001) (26, -2.00537117343628780000e-001) (27, 8.06945832846395210000e-002) (28, 1.78472907482500890000e-001) (29, 8.91723668246413580000e-003) (30, 1.88598640306736340000e-003) (31, -9.66430702465004290000e-002) (32, -7.53233299109167670000e-002) (33, 6.84896429603754410000e-001) (34, 1.08069900569330260000e+000) (35, 3.08009229851466730000e-001) (36, 2.47036848699944970000e-001) (37, -2.36802043089297310000e-001) (38, 1.24713139721279730000e-001) (39, 2.62152110026363520000e-001) (40, 8.01269563089590520000e-002) (41, -1.86822517189284550000e-001) (42, 1.19604496940155510000e-001) (43, 3.31275688941472580000e-001) (44, 6.85057577639715750000e-001) (45, 5.06949280915718410000e-002) (46, 1.43715999022764750000e-001) (47, -1.20611577058298280000e-001) (48, -1.76974931689097420000e-001) (49, 1.71331793917488540000e-001) (50, -6.18229610888826750000e-002) (51, -1.57001187527175600000e-001) (52, 9.17541540366073600000e-002) (53, -2.04309090149763510000e-001) (54, -1.53204351790918740000e-001) (55, -2.02624519770324700000e-001) (56, -4.40551775318454020000e-002) (57, -1.66625983183621430000e-002) (58, 8.95751988718984650000e-002) (59, -1.87628181283798770000e-001) (60, 1.99255379011447080000e-001) (61, -1.66497809350403260000e-001) (62, -1.35864263211260550000e-001) (63, -8.20129427120264150000e-002) (64, -2.18280037970544070000e-001) (65, 2.26867684796161480000e-001) (66, -5.42358419988886450000e-002) (67, -1.20626618907998310000e-001) (68, 1.16360738612602390000e+000) (69, 7.22746110610143490000e-001) (70, -1.00425844972029080000e-001) (71, 2.53303900023948040000e-001) (72, -8.35793807507735080000e-002) (73, -2.44647226518281970000e-001) (74, 2.31298837315989660000e-001) (75, -1.06237797190260610000e-001) (76, -3.58886733010876920000e-003) (77, -1.64813238970964450000e-001) (78, 2.03541721380686210000e-001) (79, 2.70794226578448590000e-001) (80, -9.25964392263267650000e-002) (81, 6.27685571816982700000e-002) (82, 1.22717290032596790000e-001) (83, -1.19238285988103600000e-001) (84, 1.44525152227288340000e-001) (85, -4.26120757373634790000e-003) (86, -9.04437405185068160000e-002) (87, 2.75262462109822080000e-001) (88, 1.63146979139128230000e-001) (89, 2.23590096775296840000e-001) (90, -1.69738776276062710000e-001) (91, 2.65393076952022970000e-001) (92, 2.36865243787178770000e-001) (93, 2.63830128023283650000e-001) (94, 1.31920943094182920000e-001) (95, -1.70874030227423650000e-001) (96, 2.65612803523254120000e-001) (97, 7.58056670747464520000e-003) (98, 2.53271494439104570000e-001) (99, 1.23797612341149940000e-001) (100, 1.22259526342531900000e-001) (101, 2.98059093875053800000e-001) (102, 2.34051687263124360000e-001) (103, 9.19106643988557010000e-001) (104, 7.40580583975070650000e-001) (105, -1.30107242635837510000e-001) (106, -2.39156097145757950000e-001) (107, -2.46708049342300700000e-001) (108, -2.39685068117978520000e-002) (109, 6.40869166090851650000e-004) (110, 1.15594487015187040000e-001) (111, -2.30914315816335150000e-001) (112, 1.99035652440215930000e-002) (113, 2.20900985505510820000e-001) (114, -5.65860823461691380000e-002) (115, 3.73317174516857100000e-002) (116, -2.50854502155561930000e-001) (117, 3.78845229897706300000e-002) (118, 7.09350614124559800000e-002) (119, -1.08416752354969500000e-001) (120, -2.90224872701053790000e-001) (121, 7.03798167327819860000e-002) (122, 2.10534676334646060000e-001) (123, -1.77282721888332160000e-001) (124, -1.07592777712852690000e-001) (125, 2.50250254084676270000e-001) (126, -8.09692414986784570000e-002) (127, 5.64514182588027320000e-002) (128, 2.00555427891231370000e-001) (129, 2.36352548454306090000e-001) (130, -1.86932380474900130000e-001) (131, 2.65521250785241140000e-001) (132, -2.44244394471024860000e-001) (133, 2.55944834389083550000e-001) (134, 1.42822271300246940000e-003) (135, -1.49285894603963240000e-001) (136, 2.73925792134832590000e-001) (137, -2.54526801372862360000e-002) (138, 6.24013858825121610000e-001) (139, 8.11497334839923260000e-001) (140, 3.62739456635626790000e-001) (141, -1.66874061794984100000e-001) (0, -5.49061217334813630000e+000) (1, 4.01286484123750740000e-002) (2, -1.09529331849210030000e-001) (3, 1.00524906338250730000e-001) (4, 2.39135751689900640000e-001) (5, -2.38861093475861710000e-001) (6, 5.82641624714597130000e-002) (7, 2.47558603587094690000e-001) (8, 5.07046528256339890000e-001) (9, 1.31859022181449230000e+000) (10, 1.99030925866983820000e-001) (11, -2.90954601405246650000e-002) (12, 3.81408706562069710000e-002) (13, -1.75474704248907290000e-001) (14, 1.35736089378042380000e-001) (15, 2.40965510629152360000e-002) (16, -1.68137056898188170000e-001) (17, 6.34094263477891220000e-002) (18, 1.46246343701932350000e-001) (19, -1.59484869618609080000e-002) (20, -2.37451181310461830000e-001) (21, -1.33666997498949060000e-003) (22, 1.33374028737307530000e-001) (23, 2.63305674525327050000e-002) (24, 2.90803390451192740000e-001) (25, -2.88757335692935160000e-002) (26, -2.59918223218846830000e-001) (27, 1.02539066574536260000e-002) (28, -2.14947518306871640000e-001) (29, -1.44854742084135070000e-001) (30, 1.09881596163177160000e-001) (31, -9.49401893194590230000e-002) (32, 2.35146277736245320000e-002) (33, 2.15964215637124070000e+000) (34, 2.25774026560039110000e+000) (35, 4.06686312516161720000e-001) (36, 3.49049225152414490000e-001) (37, 2.91032207505174780000e-001) (38, -6.64672877974226140000e-003) (39, -2.00720222819654740000e-001) (40, 2.98352062636695340000e-001) (41, 9.31640662020072340000e-002) (42, 4.65087909105932340000e-003) (43, 8.67608905518735540000e-002) (44, 1.34684860447026170000e+000) (45, -2.72214053806652810000e-001) (46, -2.81035011177872880000e-001) (47, -6.32080103241605680000e-002) (48, 2.89045577881343550000e-001) (49, 1.57159430073079420000e-001) (50, -7.15302190005905750000e-002) (51, -8.74054637720411000000e-002) (52, 5.79528831622155850000e-002) (53, 2.04602058911405040000e-001) (54, -3.90380874887341630000e-002) (55, 4.17846696291235280000e-002) (56, -1.66699225374031810000e-001) (57, -1.94293220611143620000e-001) (58, 2.00811775557667720000e-001) (59, -2.81011974057037150000e-001) (60, -1.66992194135673340000e-001) (61, 2.48309336038801120000e-001) (62, 1.41339116944436680000e-001) (63, -2.87695323931984600000e-001) (64, -2.51477060774050190000e-001) (65, -2.05462654648727040000e-001) (66, 8.63159213986364190000e-002) (67, -1.65223711327138170000e-001) (68, 1.92356426613095040000e+000) (69, 1.71865943363237060000e+000) (70, 6.27043652538012700000e-002) (71, -1.63122538637571590000e-001) (72, -9.44231300770685260000e-002) (73, 6.46911646799708250000e-002) (74, -1.20611577058298280000e-001) (75, -4.11804215582378670000e-002) (76, -3.98254410356457810000e-002) (77, 1.06402592118683970000e-001) (78, 7.32537279845631580000e-002) (79, 4.46135661317591580000e-001) (80, 6.02233910649374590000e-002) (81, 2.88629161859716990000e-001) (82, -1.47509771486511450000e-001) (83, -1.11639408733026360000e-001) (84, 7.42309599809232170000e-002) (85, -6.72508992627334070000e-002) (86, -1.43109336966483370000e-001) (87, 2.28607186818408080000e-001) (88, 2.40344247831671960000e-001) (89, 1.91326911899523110000e-001) (90, -1.04479984620411410000e-001) (91, 2.64440928476687990000e-001) (92, -4.52819842212193180000e-002) (93, -1.34518502753520700000e-001) (94, -5.41168882305221030000e-002) (95, 2.46643076206964910000e-002) (96, -1.93743904183065750000e-001) (97, 2.46386728540528570000e-001) (98, -1.72448737321246880000e-001) (99, -2.89727794715872730000e-001) (100, -1.09387211377907080000e-001) (101, -1.57232672263489800000e-001) (102, 2.46586859621581220000e-001) (103, 2.02782452418013110000e+000) (104, 1.72424415065116230000e+000) (105, -3.47809901824194590000e-002) (106, -1.07355330313775570000e-001) (107, 1.87138160408046930000e-001) (108, 1.63897711590834660000e-001) (109, -2.14453133521601560000e-001) (110, -1.77410895721550330000e-001) (111, 1.41119390373205530000e-001) (112, 1.89642341520084300000e-001) (113, 2.83929566381469930000e-001) (114, 5.04260708126983090000e-001) (115, 1.68891764513111190000e-001) (116, -1.94934089777234480000e-001) (117, -1.20776371986721640000e-001) (118, 2.32965097147825870000e-001) (119, 6.90307644617860210000e-003) (120, -2.27820222017798340000e-001) (121, -3.36240084343187250000e-001) (122, -6.76391628439887430000e-002) (123, 2.72167979564983400000e-001) (124, 2.23626717870502030000e-001) (125, -1.55456549146038010000e-001) (126, -1.07940678117302010000e-001) (127, -8.93737828482699110000e-002) (128, -4.13818375818664210000e-003) (129, 1.44396978394070170000e-001) (130, -9.50317420574720020000e-002) (131, 2.48144541110377760000e-001) (132, -8.65173374222649730000e-002) (133, -1.76074225746560840000e-001) (134, 9.99206582673650700000e-002) (135, -2.29943856793397570000e-001) (136, -1.94714363206003330000e-001) (137, 1.90916918132541360000e-001) (138, 2.04716046244847450000e+000) (139, 1.81845191806651570000e+000) (140, 2.51650905964987850000e-001) (141, -1.49171667408829420000e-001) (0, -1.10902879975635750000e+001) (1, -2.37222215226086580000e-001) (2, 1.67169276957637200000e-001) (3, -1.12792973231989890000e-001) (4, 3.70788588952564170000e-002) (5, 1.62323004497011420000e-001) (6, -1.37072759353031870000e-001) (7, 2.29449472008127490000e-001) (8, 1.12703215673678150000e-001) (9, 8.64242030319400600000e-003) (10, 8.49092419307838490000e-002) (11, -1.80725104837620170000e-002) (12, 8.82385288969089740000e-002) (13, -3.92362708148085440000e-002) (14, 1.31835942738689480000e-001) (15, 5.13059542268331300000e-002) (16, -9.79712854924296160000e-002) (17, -2.67535411021526670000e-001) (18, -1.94274910063541030000e-002) (19, 4.88525410037254910000e-002) (20, -1.23596196317521390000e-002) (21, 9.64416542228718750000e-002) (22, -1.73364264701376670000e-001) (23, 6.98181180086976380000e-002) (24, 1.27462954559230040000e-001) (25, 2.19726571231149140000e-002) (26, -2.63598643286968580000e-001) (27, 2.98242199351079760000e-001) (28, 1.19274907083308790000e-001) (29, -2.92968761641532180000e-002) (30, 2.70538340828352370000e-001) (31, 1.15374760443955890000e-001) (32, 1.19928716725831330000e-001) (33, -8.87675048768309380000e-002) (34, -2.87674454569312730000e-001) (35, -1.36714305810487070000e-001) (36, 2.22559591953796400000e-001) (37, -2.51940847118177270000e-001) (38, 2.79016124368354210000e-001) (39, -1.84442146000947100000e-001) (40, 1.93267829945398260000e-001) (41, 8.68469272791116960000e-002) (42, 5.96923851844621820000e-002) (43, -1.37535435843884810000e-001) (44, -6.55604277344581380000e-002) (45, -5.60604313640467380000e-002) (46, -2.10476511994277330000e-001) (47, -2.95019542973022910000e-001) (48, 7.28792121558784340000e-002) (49, -5.37963888564263470000e-002) (50, -2.57473865191722160000e-001) (51, 1.63943387882019400000e-001) (52, 2.13391121760651000000e-001) (53, 1.91601570113562050000e-001) (54, -2.93701183545636010000e-002) (55, -2.91302501809695970000e-001) (56, -7.91931183812266680000e-002) (57, -4.93286152413929810000e-002) (58, 1.27423100766463900000e-001) (59, 1.03216556835832310000e-001) (60, -1.57946783619991040000e-001) (61, 1.73565680725005220000e-001) (62, -2.04766853839828400000e-001) (63, -1.99273689559049670000e-001) (64, 1.15118412777519550000e-001) (65, -1.47473150391306260000e-001) (66, -1.20941166915145000000e-001) (67, -2.63421344074456610000e-001) (68, -2.47336847115301490000e-001) (69, -3.57034808887925550000e-001) (70, -1.08369578121668670000e-001) (71, -1.65727922122395980000e-001) (72, -3.65538756688488790000e-002) (73, 2.97381603613757760000e-001) (74, 1.56518560906988570000e-001) (75, 1.12829594327195080000e-001) (76, -1.91528327923151660000e-001) (77, 3.06152355915401130000e-002) (78, -8.01951948376852520000e-002) (79, -2.66814531260255340000e-001) (80, 7.63732940504269210000e-002) (81, -9.84558144591574090000e-002) (82, 1.82043464265007060000e-001) (83, -2.62939463573275130000e-001) (84, -1.11511234899808190000e-002) (85, 6.25762387838038750000e-002) (86, 1.07592450038625780000e-001) (87, 2.12585457666136790000e-001) (88, 1.17370610132638830000e-002) (89, -9.56726112235628530000e-002) (90, 8.37707552818756080000e-002) (91, -1.08453373450174690000e-001) (92, -2.31079110744758510000e-002) (93, -1.45980940839516460000e-001) (94, -5.32380172323677900000e-002) (95, -1.70965582965436620000e-001) (96, 2.04565437816199850000e-001) (97, 1.95410164014901970000e-001) (98, 2.13757332712702920000e-001) (99, 5.68359397584572430000e-002) (100, -2.79235850939585360000e-001) (101, 1.86657722260861190000e-001) (102, -4.92121050585591580000e-003) (103, 1.39693197560765120000e-001) (104, -3.41415911782913810000e-001) (105, -9.44718724912984860000e-002) (106, -6.48858278717908690000e-002) (107, -2.62670828013298390000e-001) (108, 7.04040555319807030000e-002) (109, -1.82189948645827830000e-001) (110, 9.49584998670616190000e-002) (111, -5.66894553776364770000e-002) (112, -2.55084238651761550000e-001) (113, 2.29800229014420350000e-001) (114, 9.62656932473204000000e-002) (115, 5.94758913107852060000e-002) (116, -2.10662850167864240000e-001) (117, 2.37231454739230680000e-001) (118, 7.23266630302532580000e-003) (119, -2.74658214038936420000e-003) (120, -9.54901062144583870000e-002) (121, -2.67668989057038680000e-001) (122, 2.29595956388948250000e-001) (123, -2.59295664600358580000e-001) (124, -1.58642584428889680000e-001) (125, 9.02709996807971040000e-003) (126, 2.82476817865244810000e-001) (127, -1.22955327151430540000e-001) (128, -2.84216319887491410000e-001) (129, 2.30328378293052080000e-001) (130, -1.99969490367948310000e-001) (131, -1.65856940184312410000e-001) (132, -4.77539081475697460000e-002) (133, 2.86340343409392520000e-001) (134, 6.98181180086976380000e-002) (135, -2.90570079905592140000e-001) (136, 7.82775910010968800000e-002) (137, 2.71040136466042980000e-002) (138, -2.03684501630715550000e-001) (139, -2.50778701150094540000e-001) (140, 3.48372146782270980000e-002) (141, -9.93773644933606400000e-002) (0, -9.48730695789413400000e+001) (1, -2.38755946861428430000e-001) (2, 2.77920931311519240000e-001) (3, -9.50500526050745980000e-002) (4, -1.08489994545379890000e-001) (5, 2.68487559496861650000e-001) (6, -4.10522477250196970000e-002) (7, -1.70617682560987300000e-001) (8, -1.19998971938976780000e-001) (9, -9.71610124326228400000e-001) (10, -1.38808815351713300000e-001) (11, -5.18920919057563880000e-002) (12, -2.92163097547017970000e-001) (13, -3.49513893497915350000e-002) (14, -1.78289802006474930000e-001) (15, 2.32836910866163650000e-001) (16, -2.11358694546311900000e-001) (17, 1.65216071018221560000e-001) (18, -6.25854517056723130000e-002) (19, -1.58551031690876700000e-001) (20, -2.64495860119495770000e-001) (21, 1.30682378239725950000e-001) (22, -7.43225127189361960000e-002) (23, 2.61328135384246710000e-001) (24, 1.98892614082960330000e-001) (25, -1.21929936485685180000e-001) (26, -2.35345468336163320000e-001) (27, 3.34167493747372650000e-002) (28, 2.25292977702338250000e-001) (29, 4.13818375818664210000e-003) (30, 5.73486350913299250000e-002) (31, 6.88476589857600630000e-002) (32, -7.46258718498612610000e-002) (33, -1.19784430606844720000e+000) (34, -9.51350326858739990000e-001) (35, -3.91572085558395070000e-001) (36, 1.69618607097847560000e-003) (37, -2.64583973058187980000e-001) (38, 1.10522465329268020000e-001) (39, 1.51794439625518860000e-001) (40, 1.22918706056225350000e-001) (41, -2.09198006359656570000e-001) (42, -2.54901133175735590000e-001) (43, -1.60903636180728980000e-001) (44, -9.41642611937450800000e-001) (45, -6.35490186814855750000e-002) (46, 1.66080112779108720000e-001) (47, -9.77600136502587700000e-002) (48, -1.74587625367185420000e-001) (49, 2.57739268054137940000e-001) (50, -7.18139739216026030000e-002) (51, 2.07952882898458290000e-001) (52, 2.36535653930332050000e-001) (53, -1.52655035362840860000e-001) (54, 8.82934605397167620000e-002) (55, 1.19989018439810020000e-001) (56, -6.27685571816982700000e-002) (57, -7.91748078336240720000e-002) (58, 2.47027597706619420000e-001) (59, -1.12243656803912020000e-002) (60, 2.48638925895647840000e-001) (61, -2.47375498111068740000e-002) (62, 2.92456066308659500000e-001) (63, -9.74853554362198340000e-002) (64, 1.28887944574671560000e-001) (65, -2.44372568304243030000e-001) (66, 3.13659680432465390000e-002) (67, -3.28812588797873920000e-002) (68, -8.81181695829156290000e-001) (69, -1.11588890761565510000e+000) (70, -3.87159243586169490000e-001) (71, -1.23471871003045420000e-001) (72, -1.94972933974235960000e-002) (73, -5.00244160502916200000e-002) (74, 1.43664556489966340000e-001) (75, 1.38427739875623960000e-002) (76, 2.26959237534174460000e-001) (77, -1.15649418657994830000e-001) (78, -2.65403235185396990000e-001) (79, -3.28598294206442650000e-001) (80, 5.56091330690833270000e-002) (81, 2.62573252621223220000e-001) (82, 1.10174564924818700000e-001) (83, 1.97479255893995290000e-001) (84, 3.82141128466173540000e-002) (85, -8.38336967469195950000e-002) (86, 1.83228868212747640000e-001) (87, 2.64422617929085390000e-001) (88, 7.85522492151358160000e-003) (89, 1.56591803097398950000e-001) (90, 1.18725590655230920000e-001) (91, 7.11181668884819370000e-002) (92, 2.06213387100433470000e-001) (93, -2.00701918496273920000e-001) (94, 2.11248781466925520000e-001) (95, -2.22473153371538500000e-002) (96, -1.32843022856832250000e-001) (97, -9.17358434890047650000e-002) (98, 9.29260290831734890000e-002) (99, 6.81152370816562320000e-003) (100, -2.14123543664754830000e-001) (101, 1.35864263211260550000e-002) (102, -1.35544586936920980000e-001) (103, -9.68889218845590540000e-001) (104, -8.99128645096136770000e-001) (105, 1.77684528858686570000e-001) (106, -1.47597147733461490000e-002) (107, 1.90964140746814590000e-001) (108, -5.25695821670524310000e-002) (109, 2.26739510962943310000e-001) (110, -4.78637714331853200000e-002) (111, 1.07537846070044910000e-001) (112, 8.18847688788082450000e-002) (113, 1.12580318545209760000e-001) (114, -3.38233268106295120000e-001) (115, -2.74806859279343490000e-002) (116, -5.58471701879170720000e-003) (117, -2.36389169549511280000e-001) (118, -2.86376964504597710000e-001) (119, 2.90478527167579160000e-001) (120, -1.18835827394142240000e-002) (121, 3.20196209818624960000e-001) (122, -5.82275413762545210000e-002) (123, -5.57006858070963060000e-002) (124, 5.65612815444183070000e-002) (125, -2.53399668272322740000e-001) (126, -2.63342295620532240000e-001) (127, 6.38305689426488240000e-002) (128, 5.68359397584572430000e-002) (129, 2.54699717152107040000e-001) (130, -2.70996104518417270000e-001) (131, 2.06854256266524320000e-001) (132, 2.57885752434958700000e-001) (133, 1.90557868900214090000e-001) (134, 1.66992194135673340000e-002) (135, -7.82775910010968800000e-002) (136, -2.11651619738404410000e-001) (137, 7.05952759769060410000e-002) (138, -1.18605231341237590000e+000) (139, -7.54310524107207560000e-001) (140, -1.53315240153436230000e-001) (141, -1.31887434582153880000e-001) (0, -1.20123545106448490000e+001) (1, 1.65532659952109000000e-001) (2, 1.62066637814669460000e-001) (3, 1.59777838380250610000e-001) (4, 6.81152370816562320000e-003) (5, -1.88433845378312980000e-001) (6, 7.77282745730190070000e-002) (7, 1.83782966287253660000e-001) (8, -7.88531125396754740000e-003) (9, 9.63197358099196490000e-002) (10, 3.43801486116899410000e-002) (11, -1.98486336012138050000e-001) (12, -1.53002935767290180000e-001) (13, -3.49435846117376120000e-002) (14, 7.70141632165177730000e-002) (15, -2.60380215916355850000e-001) (16, -1.30596471753965910000e-001) (17, -2.76177989489951870000e-001) (18, -2.41168222473788770000e-001) (19, 1.62268072854203640000e-001) (20, -2.12438973285316020000e-001) (21, 2.18261727422941480000e-002) (22, -1.62158209568588060000e-001) (23, 1.85430915571487280000e-001) (24, 1.98753934440192130000e-001) (25, 1.54998785455973120000e-001) (26, 8.99047887287451890000e-002) (27, -2.47192392635042780000e-003) (28, -1.10668949710088780000e-001) (29, 1.49780279389233330000e-002) (30, -2.00189216939179460000e-001) (31, -2.34869394098495830000e-001) (32, -2.14518392881676930000e-001) (33, -1.32631480117633340000e-001) (34, -1.48764104327340160000e-001) (35, -2.61999811907142470000e-002) (36, 1.98291150908508680000e-001) (37, 4.61425609426356910000e-002) (38, -2.04711922197020610000e-002) (39, -1.34674077617091830000e-001) (40, -2.19030770422250500000e-001) (41, -2.60412608004116920000e-001) (42, -2.26959237534174460000e-001) (43, 1.48299525868260530000e-001) (44, 5.08719271557487450000e-002) (45, -1.44611416304195780000e-002) (46, 2.62767608858866910000e-001) (47, -6.20361352775944400000e-002) (48, 2.68517120806081980000e-001) (49, 1.14477543611428700000e-001) (50, -1.47063277573969920000e-001) (51, 1.42170132356632730000e-001) (52, 8.53820834709040350000e-002) (53, 1.51464849768672140000e-001) (54, 1.76495368341420540000e-001) (55, -3.95507828216068450000e-003) (56, 5.98205590176803530000e-002) (57, -2.17822274280479180000e-001) (58, -2.68762217710900590000e-001) (59, 2.64294444095867220000e-001) (60, -1.61517340402497210000e-001) (61, -4.66186541962088090000e-002) (62, -7.61901885744009630000e-002) (63, -1.15136723325122150000e-001) (64, 3.16223157096828800000e-002) (65, 2.60778818956168830000e-001) (66, -2.12310799452097850000e-001) (67, 1.89909046889317920000e-001) (68, -3.00520891085836460000e-001) (69, -1.85311957342122140000e-001) (70, -3.03092082037150660000e-001) (71, 1.24092866490524520000e-001) (72, 3.27756900495830080000e-003) (73, -2.76910411394055700000e-001) (74, 1.23779301793547350000e-002) (75, 2.39007577856682470000e-001) (76, 7.09899930552637670000e-002) (77, -4.68383807674399580000e-002) (78, -2.78658595910981020000e-001) (79, 1.09839764655538380000e-001) (80, -1.27203374195232750000e-001) (81, -2.13647469427087340000e-001) (82, 3.70605483476538210000e-002) (83, 4.88159199085203000000e-002) (84, 7.94677765952656050000e-003) (85, 1.87850662569948370000e-001) (86, 2.46445744946220040000e-001) (87, -1.36047368687286510000e-001) (88, 2.22875985418795610000e-001) (89, 7.72155792401463260000e-002) (90, -1.59558111809019460000e-001) (91, 1.13031010350823640000e-001) (92, -1.14862065111083210000e-001) (93, 6.94040161839172280000e-002) (94, -9.41824160976733050000e-002) (95, -1.39672857112600470000e-001) (96, 1.40075689159857570000e-002) (97, -2.28479012985189910000e-001) (98, -7.13562040073156820000e-002) (99, 1.25427251077780970000e-002) (100, 6.22924829440307800000e-002) (101, 6.77490261296043170000e-003) (102, 1.87346100140441450000e-001) (103, 2.31180377900461680000e-002) (104, -3.73965529291667150000e-001) (105, 9.61144767946193050000e-002) (106, -2.15840409409975810000e-001) (107, 5.39245436737388890000e-002) (108, 2.95129406258638480000e-001) (109, -9.72106972221808970000e-002) (110, -2.86999523123085960000e-001) (111, -1.80780036480427950000e-001) (112, -1.19329838726116580000e-001) (113, 7.00487947981194990000e-002) (114, 3.41916253268224670000e-003) (115, 2.80437287295371820000e-001) (116, -2.90515148262784350000e-001) (117, -1.77410895721550330000e-001) (118, -7.34436064340115990000e-002) (119, 2.74420176920102680000e-001) (120, -1.63090743886412060000e-002) (121, -2.83836118303201320000e-001) (122, -2.35656747645407450000e-001) (123, -1.46740728487202430000e-001) (124, -1.49304205151565840000e-001) (125, -1.51739507982711070000e-001) (126, 2.38275155952578640000e-001) (127, 1.62799078734678910000e-001) (128, 2.77514659464941360000e-001) (129, 5.25512716194498350000e-002) (130, 1.17663578894280360000e-001) (131, -1.91583259565959450000e-001) (132, 7.67211944548762400000e-003) (133, -2.93957531212072350000e-001) (134, 2.90625011548399930000e-001) (135, -1.06365971023478780000e-001) (136, -2.73065196397510590000e-001) (137, 5.34637400301598080000e-002) (138, -1.47774302984980200000e-001) (139, 7.82134437544360770000e-002) (140, -2.00827673676676060000e-001) (141, -3.20800984156534020000e-002) (0, -5.18779097358418320000e-001) (1, -1.47586172405379500000e-001) (2, 1.63959807166260300000e-001) (3, -2.55340586318197890000e-001) (4, 1.63934332686039850000e-001) (5, -1.83837897930061440000e-002) (6, 1.13031010350823640000e-001) (7, 3.23181165185815190000e-002) (8, 4.63349967306864520000e-002) (9, 2.10117486863953540000e-001) (10, -2.97171439882743580000e-001) (11, 1.35589604997221610000e-001) (12, 6.84997585813107430000e-002) (13, -2.61319387676861080000e-001) (14, -2.74621592943731230000e-001) (15, 6.97050871735500200000e-002) (16, -6.73206594105055650000e-002) (17, -2.92730724522698440000e-001) (18, 2.71911631898547060000e-002) (19, 3.88000503699004180000e-002) (20, 1.00030521552980640000e-001) (21, -1.02685550955357030000e-001) (22, 5.48217795221717100000e-002) (23, -2.42578134639188650000e-001) (24, -2.44620168263294390000e-001) (25, 2.54882822628133000000e-001) (26, -4.73144550051074480000e-002) (27, -2.59149180219537810000e-001) (28, 2.07531746527820360000e-001) (29, -1.37512212495494170000e-002) (30, 1.96710212894686260000e-001) (31, -2.23168954180437140000e-001) (32, -4.67622160753383560000e-002) (33, 2.25763775602713100000e-001) (34, -7.05089164899734690000e-002) (35, -2.91541332048781800000e-001) (36, 2.07526678787819140000e-001) (37, 3.64085325665738090000e-002) (38, -8.96850621575140390000e-002) (39, 9.32373083924176170000e-002) (40, -1.11090092304948480000e-001) (41, -1.16894535894971340000e-001) (42, 2.13262947927432830000e-001) (43, 2.26709835046455250000e-001) (44, 1.86034977987606600000e-001) (45, -3.41133653164789680000e-002) (46, 2.68569549394657660000e-001) (47, -1.92700202969717790000e-001) (48, 1.21700647074237130000e-001) (49, 5.24414083338342610000e-002) (50, 1.36686654078610220000e-001) (51, 2.58836317135526520000e-001) (52, 2.39758310308388900000e-001) (53, -6.27868677293008660000e-002) (54, 1.79864509100298160000e-001) (55, -2.17474373876029860000e-001) (56, -1.24273686578817430000e-001) (57, -8.66088901602779520000e-002) (58, 2.86303722314187330000e-001) (59, 2.97015392661705850000e-001) (60, 2.14819344473653470000e-001) (61, -1.03564457240281630000e-001) (62, 1.92041023256024350000e-001) (63, 2.47631845777505080000e-001) (64, 6.23107934916333760000e-002) (65, -2.52172861582948830000e-001) (66, -2.19085702065058290000e-001) (67, 8.13054835726711310000e-002) (68, -3.29825725695604560000e-002) (69, 1.42863894723066600000e-001) (70, -2.30603829627318730000e-001) (71, -2.38800709912959100000e-002) (72, -2.61375903094436040000e-001) (73, 7.06420926508144480000e-002) (74, -1.84204108882113360000e-001) (75, -2.03100594007992190000e-001) (76, -2.63488780001353010000e-002) (77, 7.42492705285258130000e-002) (78, 1.22289676097927430000e-002) (79, 4.98633414825400200000e-002) (80, -1.48828130913898350000e-001) (81, 8.42285189719405030000e-004) (82, 1.48846441461500940000e-001) (83, -1.64648444042541090000e-001) (84, -2.80407725986151490000e-001) (85, 1.30644187070452940000e-001) (86, -7.42792144644174870000e-002) (87, 9.67712440797185990000e-002) (88, -1.43096929514285880000e-001) (89, 2.07550057075422960000e-001) (90, -1.37493901947891570000e-001) (91, 2.76617442632414170000e-001) (92, 2.98333752089092740000e-001) (93, -2.61640998468258000000e-001) (94, -8.98880619559097040000e-002) (95, -5.20019551913719620000e-003) (96, -1.87445075807772810000e-001) (97, 2.31188974030374080000e-001) (98, 3.84521499654510990000e-004) (99, 1.95281990181683800000e-001) (100, 2.69622813448222590000e-001) (101, 2.70062266590684890000e-001) (102, -9.70685387722746010000e-002) (103, -1.98070469754571150000e-001) (104, 2.12974981493403020000e-001) (105, -2.12952461738416420000e-001) (106, 2.82814503368920780000e-001) (107, -2.77452563889515110000e-001) (108, 1.99566658320691200000e-001) (109, 1.50585943483747540000e-001) (110, 3.71521010856668000000e-002) (111, -8.95385777766932730000e-003) (112, 2.91046154143259630000e-001) (113, -1.93263190692436330000e-001) (114, 8.94914749489824080000e-002) (115, 8.46950303693910920000e-002) (116, 1.41064458730397750000e-001) (117, 2.05444344101124440000e-002) (118, 2.11871346309635560000e-001) (119, -9.07470739184645940000e-002) (120, -1.79489490249242240000e-001) (121, -2.85437097676219050000e-001) (122, 8.47595248524157800000e-002) (123, -1.80780036480427950000e-001) (124, 1.89276130568032390000e-001) (125, -1.31304936858214210000e-001) (126, 2.32049569767696080000e-001) (127, 1.25903325315448460000e-001) (128, 2.26226815630070630000e-001) (129, -1.21472172795620280000e-001) (130, -1.34985356926335950000e-001) (131, -2.34265146027610170000e-001) (132, -8.79272495876648460000e-002) (133, 1.40606695040332850000e-001) (134, 1.13323979112465170000e-001) (135, 1.37072759353031870000e-001) (136, 1.89422614948853150000e-001) (137, 1.18823473103512320000e-001) (138, 3.06293563958930540000e-001) (139, 9.64832776456997220000e-002) (140, 2.63103465381446410000e-001) (141, 2.22645112232579710000e-001) (0, 1.02012683717639520000e+001) (1, 1.79302465956469570000e+000) (2, -1.32479647752914840000e-003) (3, -6.39953638710721860000e-002) (4, -2.05792244505573760000e-001) (5, -2.84545909744338130000e-001) (6, 1.24420170959638200000e-001) (7, 2.98645031398336870000e-001) (8, 2.21990357146312570000e+000) (9, 9.92261167862393020000e+000) (10, 2.98386292442996640000e-001) (11, 2.75390635943040250000e-001) (12, -1.74719245223968760000e-001) (13, 1.47012995412336230000e-001) (14, 2.37615976238885200000e-001) (15, -4.80732789792889730000e-002) (16, -3.16727551663159970000e-001) (17, 4.22607438667910170000e-002) (18, 2.49407968894956870000e-001) (19, 2.01727302937797500000e-001) (20, -2.10772713453479810000e-001) (21, 9.61669960088329390000e-002) (22, -1.41412359134847070000e-001) (23, -2.52978525677463040000e-001) (24, -1.33120072359776580000e-001) (25, 2.25384530440351230000e-001) (26, -1.26031499148666630000e-001) (27, 2.10205086477799340000e-002) (28, 7.83691437391098590000e-003) (29, -5.56091330690833270000e-002) (30, 2.00921638843283290000e-001) (31, 2.61309824836644110000e-001) (32, 1.16364243321047530000e+000) (33, 1.27221211585044820000e+001) (34, 1.30187926110258550000e+001) (35, 1.38715132377396570000e+000) (36, 2.24951843591910850000e+000) (37, 3.03838789867333540000e-001) (38, 1.08691410569008440000e-001) (39, -2.02917488531966230000e-001) (40, 2.87677013384382010000e-001) (41, 1.34252935022232120000e-001) (42, -1.74865729604789520000e-002) (43, 1.85869718208735320000e+000) (44, 9.51598875987800060000e+000) (45, 2.98255727320872190000e-001) (46, 3.00876526916949660000e-001) (47, -2.61785899074311600000e-001) (48, -5.74608896658502860000e-002) (49, -1.61077887260034910000e-001) (50, -2.70853665898832860000e-001) (51, -6.13077591347282110000e-002) (52, 5.61401389495586050000e-002) (53, -1.12902836517605460000e-001) (54, -4.24438493428169750000e-002) (55, 2.94158947235700910000e-001) (56, 2.26501473844109570000e-001) (57, -2.55065928104158960000e-001) (58, 1.17535405061062190000e-001) (59, -1.06933597999159250000e-001) (60, -2.44702158161089760000e-001) (61, 2.95513927758292990000e-001) (62, 1.13763432254927470000e-001) (63, 1.83489997525612130000e-001) (64, -2.22418221728730710000e-001) (65, 1.55548101884050990000e-001) (66, 1.30828862620546720000e-001) (67, 8.32967329285302480000e-001) (68, 1.23406392097520040000e+001) (69, 1.29861082835552220000e+001) (70, 1.39229658765029530000e+000) (71, 7.17486277606877550000e-001) (72, -1.78570897270657390000e-001) (73, 3.37829603267891800000e-002) (74, 2.18756112208211560000e-001) (75, -1.59191900856967550000e-001) (76, -1.06237797190260610000e-001) (77, 1.27368169123656120000e-001) (78, 9.83943247815182610000e-001) (79, 4.17466421423945810000e+000) (80, -4.10888688202248890000e-002) (81, -2.95257580091856650000e-001) (82, 1.02117923979676560000e-001) (83, -5.81359886382415430000e-002) (84, 2.17675789899658410000e-001) (85, 1.93163139320848190000e-001) (86, -2.93986488197610700000e-001) (87, -6.94335965090431270000e-002) (88, -3.70788588952564170000e-002) (89, -2.67022715688653990000e-001) (90, -2.41625986163853670000e-001) (91, -2.34887704646098430000e-001) (92, 1.27368169123656120000e-001) (93, -1.18656394226058310000e-001) (94, 7.32198341015426750000e-002) (95, -1.51702886887505880000e-001) (96, -2.83795177292631710000e-001) (97, 1.74774176866776540000e-001) (98, -1.35296636235580080000e-001) (99, 1.40753179421153620000e-001) (100, -5.29174825715017500000e-002) (101, -9.12963903465424660000e-002) (102, 1.28997857883267650000e+000) (103, 1.23676289569182300000e+001) (104, 1.33439879364479430000e+001) (105, 1.64622726180309130000e+000) (106, 6.35955816219608390000e-001) (107, 1.92144449491496170000e-001) (108, -2.90112316215527240000e-001) (109, -6.97631863658898510000e-003) (110, -2.92272960832633540000e-001) (111, 3.11828625672205820000e-002) (112, -1.21490483343222880000e-001) (113, 1.45028262826116740000e+000) (114, 2.84392875998674470000e+000) (115, 9.01221240110717250000e-002) (116, 2.94506847640150230000e-001) (117, 2.14233406950370410000e-002) (118, 1.00122074290993620000e-001) (119, -2.51385508036037210000e-001) (120, -4.58189541215174990000e-002) (121, -8.34868162475951860000e-001) (122, -2.46551523468951930000e-001) (123, -8.37707552818756080000e-002) (124, -1.63128668591525640000e-001) (125, -2.33569345218711530000e-001) (126, 2.47943125086749210000e-001) (127, 2.59057627481524830000e-001) (128, 1.60418707546341470000e-001) (129, 4.71496600766840860000e-002) (130, 1.29364018812339050000e-001) (131, 1.07482914427237120000e-002) (132, -1.82977302192739440000e-001) (133, -1.56481939811783380000e-001) (134, -6.16699243255425240000e-002) (135, -2.99835216992505590000e-001) (136, 6.80236843436432540000e-002) (137, 7.05287370379058310000e-001) (138, 1.26524678354242060000e+001) (139, 1.28389281019255520000e+001) (140, 1.26132124064892850000e+000) (141, 9.70760863388198950000e-002) (0, -1.26818111235065300000e+002) (1, 1.85291423945337790000e-002) (2, 1.29587615723193190000e-001) (3, 2.67791758687963010000e-001) (4, -2.85955821909738010000e-001) (5, 2.21539315443806120000e-001) (6, 1.76000983556150460000e-001) (7, -2.65374766404420370000e-001) (8, -3.27792704834640620000e-001) (9, -8.83788243172899280000e-001) (10, -4.88347409765799090000e-002) (11, -2.67718516497552630000e-001) (12, 1.78509528577706080000e-001) (13, 2.59917712698376490000e-001) (14, -1.34600835426681440000e-001) (15, 1.06502906576879690000e-001) (16, 1.31756745473716990000e-001) (17, -3.72619643712823740000e-002) (18, 2.19177254803071260000e-001) (19, 1.95867927704966860000e-001) (20, -1.94750984301208520000e-001) (21, -2.73614512825588460000e-001) (22, -8.78723179448570590000e-002) (23, -1.83508308073214720000e-001) (24, -1.17902126533571170000e-001) (25, 8.44848666383768430000e-002) (26, -1.93341072135808640000e-001) (27, 1.71258551727078160000e-001) (28, 7.71606475973385390000e-002) (29, 8.10974153318966270000e-002) (30, 2.42028818211110770000e-001) (31, -2.71765147517726290000e-001) (32, 1.00673201317149690000e-001) (33, -1.53279601377238350000e+000) (34, -1.13968125684195300000e+000) (35, -1.40365790946968660000e-001) (36, -4.76800352531064180000e-001) (37, -2.74288132747260880000e-001) (38, 2.20349129849637390000e-001) (39, 4.79919452664034910000e-002) (40, 1.01879886860842820000e-001) (41, -1.82299811931443400000e-001) (42, -1.26214604624692580000e-001) (43, -3.34193675925920530000e-001) (44, -7.43196727927050160000e-001) (45, -2.27985649240833950000e-001) (46, -1.45990506555966490000e-001) (47, -2.92547619046672480000e-001) (48, -1.51630155217565980000e-001) (49, -1.49853521579643710000e-001) (50, -2.28071800077839340000e-001) (51, -6.03288734904616620000e-002) (52, -1.08489994545379890000e-001) (53, 4.01550308924925050000e-002) (54, -7.50732451706426220000e-002) (55, -2.99945080278121170000e-001) (56, -7.83691437391098590000e-002) (57, 2.10186775930196750000e-001) (58, -1.97973640679265370000e-001) (59, 2.02166756080259800000e-001) (60, 1.30206304002058460000e-001) (61, 9.40612830345344260000e-002) (62, 2.58728037624678110000e-001) (63, 1.95739753871748690000e-001) (64, -7.39746123144868760000e-003) (65, -2.42797861210419800000e-002) (66, -1.86895759379694940000e-001) (67, -3.48403510251978630000e-001) (68, -1.57798644525558870000e+000) (69, -1.65695422661527520000e+000) (70, -9.73726251760720090000e-002) (71, -2.13880773616197870000e-001) (72, -6.23252336996016130000e-002) (73, 1.72119147464400160000e-001) (74, 1.79608161433861820000e-001) (75, 1.96380623037839540000e-001) (76, 1.52343756053596740000e-002) (77, 9.06738317280542110000e-002) (78, -1.63850203821244240000e-001) (79, -2.74554356341018930000e-001) (80, 2.35253915598150340000e-001) (81, 1.55786139002884740000e-001) (82, 5.97290062796673740000e-002) (83, -1.16162113990867510000e-001) (84, -9.39147986537136600000e-002) (85, 1.31256448266972190000e-001) (86, 5.33147823246606640000e-002) (87, -2.39630136475170730000e-001) (88, -1.93542488159437200000e-002) (89, -2.27307137938623780000e-001) (90, -8.22143587356549690000e-002) (91, -2.20623788063676330000e-001) (92, 2.20825204087304880000e-002) (93, -2.40889183399656370000e-001) (94, 2.26011469918932950000e-001) (95, -8.19580110692186280000e-002) (96, -8.36975130914652250000e-002) (97, 9.21020544410566800000e-002) (98, -7.65747100740554740000e-002) (99, 4.19860856527520810000e-002) (100, 2.82366954579629240000e-001) (101, -2.27984628199919830000e-001) (102, -3.47503673486638690000e-001) (103, -1.16045102827361710000e+000) (104, -1.34265367701672370000e+000) (105, -4.36758624990192190000e-001) (106, 1.50233347871122220000e-001) (107, -2.40523482968074940000e-001) (108, -2.78686534511507490000e-002) (109, 2.35473642169381490000e-002) (110, 1.12316898994322400000e-001) (111, -1.14587406897044270000e-001) (112, 2.42541513543983460000e-001) (113, -3.01987527537517840000e-001) (114, -1.93557338339684360000e-001) (115, 1.28960676244611470000e-001) (116, 2.85626232052891280000e-001) (117, 9.08386266564775720000e-002) (118, 2.17474373876029860000e-001) (119, 5.73486350913299250000e-002) (120, 4.94464531399578520000e-002) (121, 3.08384772049044410000e-001) (122, 1.86291511308809280000e-001) (123, 1.55767828455282140000e-001) (124, -2.55834971103467980000e-001) (125, -1.53240972886123930000e-001) (126, -2.39318857165926600000e-001) (127, 1.78509528577706080000e-001) (128, -1.28009038289746970000e-001) (129, -2.69714366186235570000e-002) (130, -4.15283219626871870000e-002) (131, -6.22009302060178020000e-002) (132, -1.10980229019332910000e-001) (133, -2.20861825182510070000e-001) (134, -5.68176292108546480000e-002) (135, 5.06652852163824720000e-002) (136, -2.79071056011162000000e-001) (137, -2.45232613301833490000e-001) (138, -1.17716855823478640000e+000) (139, -1.16930772286295270000e+000) (140, 9.76347067915697000000e-002) (141, -1.20497843433048340000e-001) (0, -1.88657702131396950000e+002) (1, -2.16265213761243750000e-001) (2, 7.76019626379129270000e-002) (3, 2.78613292321097110000e-001) (4, 2.84381114815914770000e-001) (5, 2.99249279469222530000e-001) (6, -1.44287115108454600000e-002) (7, 1.51483160316274730000e-001) (8, -5.66862414872349560000e-001) (9, -1.75692209019864530000e+000) (10, 7.07478166355598600000e-002) (11, -9.12048376085294880000e-002) (12, 2.08648689931578700000e-001) (13, 2.64033957128573690000e-001) (14, 2.06561287504882780000e-001) (15, 1.87475388753339910000e-001) (16, 1.78020531090104460000e-001) (17, 2.54260264009644740000e-001) (18, -2.21612557634216500000e-001) (19, 1.23962407269573300000e-002) (20, 8.65173374222649730000e-002) (21, 2.49481211085367250000e-001) (22, -2.36700448858755410000e-001) (23, -1.62341315044614020000e-001) (24, -2.18522214390234640000e-001) (25, 1.95043953062850050000e-001) (26, 2.31445321696810420000e-001) (27, 1.54302984647074480000e-001) (28, 1.75598151508893350000e-001) (29, 1.83929450668074420000e-001) (30, 1.16619877680932400000e-001) (31, 2.22564706109551480000e-001) (32, -1.88698276398902020000e-001) (33, -2.19186115596720340000e+000) (34, -2.04833142477719270000e+000) (35, 5.60141369308861520000e-002) (36, -3.56357827558758720000e-001) (37, 4.75909751172584540000e-002) (38, 8.00903352137538600000e-002) (39, 2.57702646958932750000e-001) (40, -1.90081794662546600000e-001) (41, -3.03039562822959850000e-002) (42, 1.26470952291128920000e-001) (43, -1.39326745991962790000e-001) (44, -1.70145418592662460000e+000) (45, -2.41506090932375820000e-001) (46, 2.24190205545325680000e-001) (47, 2.26702889867738120000e-001) (48, 1.65358416098185500000e-001) (49, -1.83892829572869230000e-001) (50, 1.75640773803078440000e-001) (51, -4.94324773280262470000e-002) (52, 4.46594256027310620000e-002) (53, 1.15850834681623380000e-001) (54, 2.38769540737848730000e-001) (55, 2.96923839923692870000e-001) (56, 2.32489022910158380000e-001) (57, -1.76477057793817950000e-001) (58, -2.26354989463288800000e-001) (59, 1.04113773668359500000e-001) (60, 2.18774422755814160000e-001) (61, -2.88903820073755920000e-001) (62, -2.38073739928950090000e-001) (63, 1.55456549146038010000e-002) (64, 1.67761237134982370000e-001) (65, -1.22131352509313730000e-001) (66, 2.29467782555730080000e-001) (67, -2.15606541822510240000e-001) (68, -2.11936969800852190000e+000) (69, -2.24791639364549890000e+000) (70, -6.54946569599395150000e-002) (71, -8.62049531075216310000e-002) (72, -2.05845314250258480000e-001) (73, -1.26379399553115950000e-001) (74, 1.90557868900214090000e-001) (75, -6.85180691289133390000e-002) (76, -3.67492690384096930000e-002) (77, 2.15039071044884620000e-001) (78, 1.62482707033625680000e-002) (79, -3.82935347195238810000e-001) (80, 2.49572763823380230000e-001) (81, 1.28649907455837820000e-001) (82, -1.88159187164274040000e-001) (83, 6.08276391358231190000e-002) (84, -2.61328135384246710000e-001) (85, -5.60982391106696620000e-002) (86, 2.22629403135900520000e-001) (87, -4.99511738598812370000e-002) (88, 2.25091561678709700000e-001) (89, -2.25860604678018720000e-001) (90, 1.83453376430406930000e-001) (91, -2.50799570512754140000e-001) (92, 2.81909190889564340000e-001) (93, 6.35069802847843810000e-002) (94, 2.95043854719605920000e-001) (95, 2.95019542973022910000e-001) (96, 2.89031993906974090000e-001) (97, -2.80700694747793020000e-001) (98, -1.63769537757616490000e-001) (99, 2.28295907509163950000e-001) (100, 2.25238046059530460000e-001) (101, 1.01257328242354560000e-002) (102, -3.87870410363945830000e-002) (103, -2.22328205565326000000e+000) (104, -2.13305432853440860000e+000) (105, -2.36222202806542600000e-001) (106, -3.91215301703631780000e-001) (107, -2.69950541406946080000e-001) (108, -2.58526621601049560000e-001) (109, 1.91949470518011370000e-001) (110, 1.17864994917908920000e-001) (111, -2.83648692911810940000e-001) (112, 6.72363307967316360000e-002) (113, -3.89497539579274690000e-001) (114, -5.74856764942058060000e-001) (115, -3.75041407909845960000e-002) (116, -1.56848150763835290000e-001) (117, -2.63342295620532240000e-001) (118, -7.88269074291747530000e-002) (119, 2.33898935075558260000e-001) (120, -1.71204233985586260000e-001) (121, 2.24335304115168920000e-001) (122, -2.84527599196735540000e-001) (123, 2.75683604704681780000e-001) (124, -4.32495134373311880000e-002) (125, 2.07824715289461890000e-001) (126, 1.33593755308538680000e-001) (127, -6.62109401309862730000e-002) (128, 2.57061777792841890000e-001) (129, 2.46624765659362310000e-001) (130, -2.93188488212763330000e-001) (131, 1.83105476025957610000e-002) (132, -2.28131112580740590000e-001) (133, 5.45105002129275820000e-002) (134, 2.53967295248003210000e-001) (135, 1.81146247432479870000e-001) (136, 1.19952397344604830000e-001) (137, -2.02416902668150820000e-001) (138, -1.97352618635383780000e+000) (139, -1.87112194507926330000e+000) (140, -2.62021764378599640000e-001) (141, 2.27473794765170210000e-001) (0, -1.25002869011617960000e+002) (1, -2.51805724488736840000e-001) (2, -2.09134200573471600000e-001) (3, -1.66955573040468150000e-001) (4, -2.58746348172280700000e-001) (5, -1.36450200734543610000e-001) (6, 1.39160161779727790000e-003) (7, 3.75000014901161190000e-002) (8, -6.90548017055290230000e-002) (9, -1.22268011244610380000e+000) (10, 9.40567044161255690000e-002) (11, -3.73352065616927580000e-002) (12, 2.43090829972061330000e-001) (13, -1.95762643037760060000e-001) (14, 2.03796394816890820000e-001) (15, -1.75809283104154580000e-001) (16, -1.57431471692632860000e-001) (17, -1.51629644697095500000e-001) (18, -1.27789311718515820000e-001) (19, -1.91180427518702340000e-001) (20, 1.44268804560852000000e-001) (21, 2.93206798760365930000e-001) (22, -2.92785656165506230000e-001) (23, 2.74658214038936420000e-003) (24, -1.65696723874297820000e-001) (25, -1.80322272790363060000e-001) (26, 2.55377207413403080000e-001) (27, -2.23333749108860500000e-001) (28, -1.36999517162621490000e-001) (29, -5.24414083338342610000e-002) (30, -1.19622807487758110000e-001) (31, -2.29357919270114510000e-001) (32, -1.09403701470977920000e-001) (33, -1.18837859931225890000e+000) (34, -1.26933999888312330000e+000) (35, -2.66165474890251480000e-002) (36, -1.67232168437745020000e-001) (37, -1.72513105368280070000e-001) (38, 2.54516611676081080000e-002) (39, -2.14215096402767810000e-001) (40, 1.79608161433861820000e-001) (41, 6.00219750413089060000e-002) (42, 2.73760997206409230000e-001) (43, 2.77722193712594510000e-002) (44, -8.97853787411979080000e-001) (45, 1.76055895568903410000e-002) (46, -2.56846629840019490000e-001) (47, -1.38482671518431740000e-001) (48, 2.36164864359871360000e-001) (49, -8.97216832527192310000e-004) (50, 5.32351156653791850000e-003) (51, 1.50379669674302360000e-001) (52, 2.70446788090339400000e-001) (53, 2.37524423500872220000e-001) (54, 2.27691659438278290000e-001) (55, 1.54907232717960140000e-002) (56, -2.20422372040047780000e-001) (57, -2.02478035389503930000e-001) (58, 3.49914564685605000000e-002) (59, -1.17205815204215470000e-001) (60, 5.64147971635975410000e-002) (61, 9.12414587037346790000e-002) (62, 9.95544473153131550000e-002) (63, 9.69360390081419610000e-002) (64, -1.44195562370441620000e-001) (65, -2.28039559842727610000e-001) (66, 2.07861336384667080000e-001) (67, -1.05115733742948540000e-001) (68, -1.09526946475305760000e+000) (69, -1.39989420328963490000e+000) (70, -2.53337747904377570000e-001) (71, -2.54888376953535440000e-001) (72, 1.30459840364306020000e-002) (73, 9.47753943910356610000e-002) (74, -3.00292980682570490000e-002) (75, -2.60083018147270200000e-001) (76, -1.27514653504476880000e-001) (77, 1.60510260284354440000e-001) (78, -2.11510846349677650000e-001) (79, -2.54048994907042360000e-001) (80, 1.60968023974419340000e-001) (81, -9.96093789581209420000e-003) (82, 1.88909919615980470000e-001) (83, -1.97552498084405670000e-001) (84, -1.74096686605480500000e-001) (85, 1.62701264521768450000e-001) (86, -6.54579648001724220000e-002) (87, -2.52795420201437080000e-001) (88, 4.90539570273540450000e-002) (89, -2.95367443377472230000e-001) (90, 2.38861093475861710000e-001) (91, -1.20098881725425600000e-001) (92, 8.59497104465845040000e-002) (93, -1.98619367631172860000e-001) (94, 2.07233919980362200000e-001) (95, 2.20458993135252970000e-001) (96, 1.58331305119645550000e-001) (97, -1.45587163988238900000e-001) (98, -3.78295913469628430000e-002) (99, 1.75579840961290760000e-001) (100, 2.51165781464806060000e-001) (101, 1.99328621201857460000e-001) (102, -3.56535970685530220000e-001) (103, -1.53776215811739640000e+000) (104, -1.18921304257416160000e+000) (105, -2.04247169781813680000e-001) (106, -1.68307768874379730000e-001) (107, 4.56387587690515180000e-002) (108, -1.85229499547858720000e-001) (109, -5.16357442393200470000e-002) (110, -2.85607921505288690000e-001) (111, 1.45220953036186980000e-001) (112, -1.22113041961711130000e-001) (113, 1.11482630815697000000e-001) (114, -4.57272047830149080000e-001) (115, 9.14382961089543760000e-002) (116, -2.30017098983807950000e-001) (117, -2.08795174312399470000e-001) (118, -1.46466070273163500000e-001) (119, 1.46063238225906390000e-001) (120, -2.32078716482599260000e-001) (121, 7.04347038594816260000e-002) (122, -2.84252940982696600000e-001) (123, -2.28387460247176930000e-001) (124, 9.05822789900412320000e-002) (125, 5.65795920920209030000e-003) (126, 