FANN_FLO_2.1
num_layers=3
learning_rate=0.010000
connection_rate=1.000000
network_type=0
learning_momentum=0.000000
training_algorithm=0
train_error_function=1
train_stop_function=0
cascade_output_change_fraction=0.010000
quickprop_decay=-0.000100
quickprop_mu=1.750000
rprop_increase_factor=1.200000
rprop_decrease_factor=0.500000
rprop_delta_min=0.000000
rprop_delta_max=50.000000
rprop_delta_zero=0.100000
cascade_output_stagnation_epochs=12
cascade_candidate_change_fraction=0.010000
cascade_candidate_stagnation_epochs=12
cascade_max_out_epochs=150
cascade_min_out_epochs=50
cascade_max_cand_epochs=150
cascade_min_cand_epochs=50
cascade_num_candidate_groups=2
bit_fail_limit=2.50000000000000000000e+000
cascade_candidate_limit=1.00000000000000000000e+003
cascade_weight_multiplier=4.00000000000000020000e-001
cascade_activation_functions_count=10
cascade_activation_functions=3 5 7 8 10 11 14 15 16 17 
cascade_activation_steepnesses_count=4
cascade_activation_steepnesses=2.50000000000000000000e-001 5.00000000000000000000e-001 7.50000000000000000000e-001 1.00000000000000000000e+000 
layer_sizes=2 73 2 
scale_included=0
neurons (num_inputs, activation_function, activation_steepness)=(0, 0, 0.00000000000000000000e+000) (0, 0, 0.00000000000000000000e+000) (2, 4, 5.00000000000000000000e-001) (2, 4, 5.00000000000000000000e-001) (2, 4, 5.00000000000000000000e-001) (2, 4, 5.00000000000000000000e-001) (2, 4, 5.00000000000000000000e-001) (2, 4, 5.00000000000000000000e-001) (2, 4, 5.00000000000000000000e-001) (2, 4, 5.00000000000000000000e-001) (2, 4, 5.00000000000000000000e-001) (2, 4, 5.00000000000000000000e-001) (2, 4, 5.00000000000000000000e-001) (2, 4, 5.00000000000000000000e-001) (2, 4, 5.00000000000000000000e-001) (2, 4, 5.00000000000000000000e-001) (2, 4, 5.00000000000000000000e-001) (2, 4, 5.00000000000000000000e-001) (2, 4, 5.00000000000000000000e-001) (2, 4, 5.00000000000000000000e-001) (2, 4, 5.00000000000000000000e-001) (2, 4, 5.00000000000000000000e-001) (2, 4, 5.00000000000000000000e-001) (2, 4, 5.00000000000000000000e-001) (2, 4, 5.00000000000000000000e-001) (2, 4, 5.00000000000000000000e-001) (2, 4, 5.00000000000000000000e-001) (2, 4, 5.00000000000000000000e-001) (2, 4, 5.00000000000000000000e-001) (2, 4, 5.00000000000000000000e-001) (2, 4, 5.00000000000000000000e-001) (2, 4, 5.00000000000000000000e-001) (2, 4, 5.00000000000000000000e-001) (2, 4, 5.00000000000000000000e-001) (2, 4, 5.00000000000000000000e-001) (2, 4, 5.00000000000000000000e-001) (2, 4, 5.00000000000000000000e-001) (2, 4, 5.00000000000000000000e-001) (2, 4, 5.00000000000000000000e-001) (2, 4, 5.00000000000000000000e-001) (2, 4, 5.00000000000000000000e-001) (2, 4, 5.00000000000000000000e-001) (2, 4, 5.00000000000000000000e-001) (2, 4, 5.00000000000000000000e-001) (2, 4, 5.00000000000000000000e-001) (2, 4, 5.00000000000000000000e-001) (2, 4, 5.00000000000000000000e-001) (2, 4, 5.00000000000000000000e-001) (2, 4, 5.00000000000000000000e-001) (2, 4, 5.00000000000000000000e-001) (2, 4, 5.00000000000000000000e-001) (2, 4, 5.00000000000000000000e-001) (2, 4, 5.00000000000000000000e-001) (2, 4, 5.00000000000000000000e-001) (2, 4, 5.00000000000000000000e-001) (2, 4, 5.00000000000000000000e-001) (2, 4, 5.00000000000000000000e-001) (2, 4, 5.00000000000000000000e-001) (2, 4, 5.00000000000000000000e-001) (2, 4, 5.00000000000000000000e-001) (2, 4, 5.00000000000000000000e-001) (2, 4, 5.00000000000000000000e-001) (2, 4, 5.00000000000000000000e-001) (2, 4, 5.00000000000000000000e-001) (2, 4, 5.00000000000000000000e-001) (2, 4, 5.00000000000000000000e-001) (2, 4, 5.00000000000000000000e-001) (2, 4, 5.00000000000000000000e-001) (2, 4, 5.00000000000000000000e-001) (2, 4, 5.00000000000000000000e-001) (2, 4, 5.00000000000000000000e-001) (2, 4, 5.00000000000000000000e-001) (2, 4, 5.00000000000000000000e-001) (2, 4, 5.00000000000000000000e-001) (0, 0, 0.00000000000000000000e+000) (73, 0, 5.00000000000000000000e-001) (0, 0, 0.00000000000000000000e+000) 
connections (connected_to_neuron, weight)=(0, -1.22680665890584350000e-003) (1, -1.82800295692686630000e-002) (0, 1.97937014668241320000e-002) (1, -9.16381849592653450000e-002) (0, 4.35791022118792170000e-002) (1, -9.26452650523970080000e-002) (0, -8.75854505238748970000e-003) (1, -3.65600591385373260000e-002) (0, -7.32360850756776930000e-002) (1, 4.26330572759070490000e-002) (0, 4.06433111525075220000e-002) (1, 2.02087405355086960000e-002) (0, 2.93762211408648000000e-002) (1, 5.23376472642667070000e-002) (0, 4.99328620721826160000e-002) (1, -9.58923354132821260000e-002) (0, -3.84338384633338140000e-002) (1, -5.32653816530910260000e-002) (0, -3.38684087078036100000e-002) (1, -5.94604501047797380000e-002) (0, -5.24292000000059490000e-002) (1, -4.83764655646155010000e-002) (0, -8.37524426542586300000e-002) (1, 3.53027349010517360000e-002) (0, -9.04418958789392490000e-002) (1, 8.18847668451780920000e-002) (0, 1.15844728288720940000e-002) (1, 8.66271985564708300000e-002) (0, -4.35302740861516210000e-002) (1, 9.98168960186376350000e-002) (0, -2.23388675203750610000e-003) (1, 6.00769051920906350000e-002) (0, 8.42895520372621830000e-002) (1, 3.94775396507611730000e-002) (0, 6.71997080326036670000e-003) (1, -4.23706061001212220000e-002) (0, -6.20117196740466170000e-003) (1, -2.17224124330641640000e-002) (0, -3.31542973690375220000e-002) (1, 1.21398927590234960000e-002) (0, 3.22387700116451010000e-002) (1, 3.71154790686887280000e-002) (0, -7.23388682654331210000e-002) (1, -6.15600595110663560000e-002) (0, -3.50158696624021100000e-002) (1, 9.02526868917448160000e-002) (0, 5.51330574621715640000e-002) (1, -2.76794437718308470000e-002) (0, -1.64001467287562260000e-002) (1, -3.37646489406324690000e-002) (0, -4.60266120139749550000e-002) (1, -7.13439952037333570000e-002) (0, 5.64331063096688010000e-002) (1, 2.10449221885937730000e-002) (0, 7.31201182770746530000e-002) (1, 9.93652358556573740000e-003) (0, 2.80639652619356640000e-002) (1, 6.47949228405195750000e-002) (0, 5.06958015366762990000e-002) (1, -3.57055669383044010000e-003) (0, -2.61840824214232270000e-002) (1, -7.68249523166559810000e-002) (0, -4.53491217695045630000e-002) (1, -5.07812507566995920000e-002) (0, 1.56066896856827950000e-002) (1, 1.49169924097805050000e-002) (0, 7.53723155762600070000e-002) (1, 5.74096688242207160000e-002) (0, -9.46472182072284340000e-002) (1, 2.65319828172323470000e-002) (0, 2.64770511757888020000e-002) (1, -3.92944341792826890000e-002) (0, -1.77490237019810590000e-002) (1, 6.55395517578654110000e-002) (0, 1.00891114784644740000e-002) (1, -2.13623050058231460000e-002) (0, 1.00769044470325750000e-002) (1, -2.64770511757888020000e-002) (0, 2.77709965075700890000e-003) (1, -2.23327640046591110000e-002) (0, -9.91271987427353450000e-002) (1, -1.99096682654271720000e-002) (0, -8.15124523865051740000e-002) (1, -9.25476088009418160000e-002) (0, 3.11401371827741970000e-002) (1, -2.07580569499441480000e-002) (0, -9.53308119674147750000e-002) (1, -6.25183114784704230000e-002) (0, -4.30419928288756640000e-002) (1, 9.11865247962850840000e-003) (0, 2.78198246332976850000e-002) (1, 2.53845218626338460000e-002) (0, 3.40759282421458920000e-002) (1, 1.66198732945304070000e-002) (0, -9.52209486845276840000e-002) (1, 4.80773932945339770000e-002) (0, -5.05859382537892090000e-002) (1, 8.79638684982637640000e-002) (0, -6.40441904074577910000e-002) (1, -7.29003917113004720000e-002) (0, 7.00866709662477660000e-002) (1, 2.65686039115280440000e-002) (0, 9.67529311292310010000e-002) (1, 7.93090832130474150000e-002) (0, 1.63085939930169840000e-002) (1, 5.94177254947680920000e-002) (0, -5.65551766239877910000e-002) (1, 2.42492679394672450000e-002) (0, -3.56750493597246530000e-002) (1, -4.68261725727643350000e-002) (0, -1.02233888242153630000e-002) (1, 7.93762218859228600000e-002) (0, 8.56933606519305610000e-002) (1, -7.86254894528610750000e-002) (0, -8.94958509429670810000e-002) (1, -2.55615238183963810000e-002) (0, 2.91748051222384670000e-002) (1, 3.80859380675246940000e-003) (0, -7.18688975553050110000e-002) (1, -8.37585461699745790000e-002) (0, 5.13671882654307410000e-002) (1, 9.94812026542604140000e-002) (0, 3.90991216763723060000e-002) (1, -6.49230966705545140000e-002) (0, -9.74670424679970890000e-002) (1, -6.56982431664800970000e-002) (0, 3.57055669383044010000e-002) (1, 4.40063483119956800000e-002) (0, 7.36450206286463070000e-002) (1, -5.51940926193310590000e-002) (0, -2.00683596740418580000e-002) (1, 4.23217779743936260000e-002) (0, -8.89038099185199830000e-002) (1, -4.08813482654295510000e-002) (0, 8.55285657275999260000e-002) (1, 9.43542494528628590000e-002) (0, 5.16357429569325180000e-003) (1, 5.64819344353963970000e-002) (0, 6.44958505704380510000e-002) (1, -8.50280774388920690000e-002) (0, -4.13757330384214580000e-002) (1, 8.64868176950039920000e-002) (0, 9.43176283585671630000e-002) (1, 9.29321302910466330000e-002) (2, -5.83618172759088340000e-002) (3, 2.93823246565807490000e-002) (4, 6.21093759255018090000e-002) (5, -1.66259768102463570000e-002) (6, -6.07543954365610260000e-002) (7, 7.85766613271334790000e-002) (8, 4.19982916414483040000e-002) (9, -9.92553725727702840000e-002) (10, 9.76684584866234220000e-002) (11, 2.67456058672905780000e-002) (12, 6.19323739697392740000e-002) (13, 4.33227545518093390000e-002) (14, 7.57141124563531780000e-002) (15, 3.66271978114127710000e-002) (16, -8.37829602328383770000e-002) (17, 8.06152355762606020000e-002) (18, 7.50122081490189880000e-003) (19, -2.21313479860327790000e-002) (20, 7.99987804889497060000e-002) (21, 3.49731450523904640000e-002) (22, -1.72790529918529500000e-002) (23, 1.11328126658918340000e-002) (24, 8.19152844237578390000e-002) (25, -1.14807130617009530000e-002) (26, 5.08117683352793390000e-002) (27, 7.32421885913936420000e-004) (28, -8.73413098952369180000e-003) (29, 4.67590338998888910000e-002) (30, 5.51391609778875140000e-002) (31, 3.69873052386537890000e-002) (32, -2.41760257508758510000e-002) (33, 9.00512708731184830000e-002) (34, -9.64904799534451740000e-002) (35, 4.96704108963967880000e-002) (36, -1.33728029336452890000e-002) (37, -5.57312020023346120000e-002) (38, -1.86706545750894290000e-002) (39, -6.35986337601934790000e-003) (40, -7.39990245401713760000e-002) (41, -9.82055678696269750000e-002) (42, -8.65173352735837400000e-002) (43, -1.19628908032609620000e-002) (44, -4.50439459837070900000e-002) (45, 2.41882327823077500000e-002) (46, -1.85852053550661370000e-002) (47, 9.02404798603129170000e-002) (48, 9.63745131548421340000e-002) (49, -4.22546393015181820000e-002) (50, 1.40991213038432760000e-003) (51, 8.58337415133973990000e-002) (52, -9.88769545983814170000e-003) (53, 9.31823744354005610000e-002) (54, -2.94372562980242950000e-002) (55, -2.41699222351599020000e-002) (56, -4.37194830733460550000e-002) (57, 7.14111338766088010000e-004) (58, 8.65173352735837400000e-002) (59, -5.75927742956992010000e-002) (60, 2.30163577648454520000e-002) (61, -2.82043461234025020000e-002) (62, 4.72778327357445960000e-002) (63, 7.44445811874356880000e-002) (64, 7.49572765075754430000e-002) (65, -1.28173830034938870000e-003) (66, 3.73779302444745550000e-002) (67, 3.40515141792820940000e-002) (68, -2.13562014901071960000e-002) (69, 2.33825687078024200000e-002) (70, -9.33593763911630960000e-002) (71, -5.46691902677594040000e-002) (72, 4.11254888940675300000e-002) (73, -1.35742189522716220000e-002) (74, -5.23010261699710100000e-002) 
